<?xml version="1.0"?>
<opencv_storage>
<opencv_ml_svm>
  <format>3</format>
  <svmType>C_SVC</svmType>
  <kernel>
    <type>RBF</type>
    <gamma>1.</gamma></kernel>
  <C>1.</C>
  <term_criteria><iterations>100</iterations></term_criteria>
  <var_count>324</var_count>
  <class_count>2</class_count>
  <class_labels type_id="opencv-matrix">
    <rows>2</rows>
    <cols>1</cols>
    <dt>i</dt>
    <data>
      0 1</data></class_labels>
  <sv_total>94</sv_total>
  <support_vectors>
    <_>
      1.94010232e-03 4.95969981e-01 4.95969981e-01 7.15537220e-02
      3.50423902e-02 6.88929930e-02 4.95969981e-01 4.95969981e-01
      1.94010232e-03 0. 5.09479523e-01 5.09479523e-01 1.52818948e-01 0.
      1.22067392e-01 5.09479523e-01 4.21789795e-01 6.55428739e-03 0.
      3.42628270e-01 4.38684553e-01 3.82730931e-01 6.06491156e-02
      3.88239712e-01 4.38684553e-01 4.38684553e-01 0. 1.05933584e-01
      4.29234266e-01 3.59666258e-01 7.76700070e-03 0. 4.59723651e-01
      4.73678648e-01 3.53312850e-01 3.31417173e-01 4.83825773e-01
      4.83825773e-01 4.83825773e-01 0. 1.08794589e-02 4.83825773e-01
      2.14244664e-01 1.10203944e-01 2.55750157e-02 5.01029417e-02
      1.22345872e-02 1.88094638e-02 0. 2.77726471e-01 6.55369997e-01
      6.55369997e-01 2.31649071e-01 2.51063872e-02 8.17703530e-02
      5.23363948e-01 5.23363948e-01 1.36757746e-01 4.49491814e-02
      1.41438037e-01 5.23363948e-01 3.49951655e-01 5.62447496e-02
      2.24590316e-01 3.22937816e-01 2.45207801e-01 3.94546330e-01
      3.94546330e-01 3.94546330e-01 3.94546330e-01 3.94546330e-01
      5.35549484e-02 3.21336673e-03 4.62426573e-01 4.70672190e-01
      4.70672190e-01 8.03042650e-02 4.43213247e-02 3.02079380e-01
      4.70672190e-01 1.31103382e-01 1.05312699e-02 2.60315090e-01
      3.91827345e-01 3.91827345e-01 2.19126776e-01 3.35486054e-01
      3.91827345e-01 3.91827345e-01 3.91827345e-01 3.45160365e-01
      5.36467493e-01 1.04535155e-01 1.41734630e-02 7.47083803e-04
      5.36467493e-01 5.36467493e-01 3.13922837e-02 6.70295733e-04 0.
      1.15019716e-01 9.05850455e-02 6.70454428e-02 4.87282693e-01
      5.66074312e-01 5.66074312e-01 2.89950132e-01 7.75961354e-02
      2.45292574e-01 5.63353956e-01 2.12896332e-01 0. 1.34207040e-01
      3.22774261e-01 5.63353956e-01 3.62200975e-01 2.75952742e-02
      1.25131877e-02 4.69466031e-01 4.69466031e-01 2.19707936e-01
      1.89475432e-01 1.71211645e-01 4.69466031e-01 4.69466031e-01
      8.65465309e-03 1.41405150e-01 4.42933321e-01 4.42933321e-01
      4.36185837e-01 3.44783417e-03 0. 4.42933321e-01 4.42933321e-01
      2.34657098e-02 4.78937954e-01 4.78937954e-01 4.78937954e-01
      9.62754190e-02 6.86952099e-03 4.78937954e-01 2.51564026e-01
      4.69753109e-02 5.36917783e-02 6.59879372e-02 4.55613621e-02
      7.95286242e-03 5.85630611e-02 2.09483817e-01 5.86707413e-01
      5.86707413e-01 4.93310392e-01 9.23506916e-02 4.39130776e-02
      7.10628033e-02 3.53267118e-02 4.69064385e-01 4.69064385e-01
      4.69064385e-01 4.69064385e-01 3.09401780e-01 1.06176637e-01
      2.89077729e-01 2.85264552e-01 3.02199394e-01 0. 2.58103758e-02
      2.48963282e-01 5.72204769e-01 5.72204769e-01 1.43298075e-01
      1.07724257e-01 4.84511375e-01 4.84511375e-01 2.40164194e-02 0.
      4.84511375e-01 4.84511375e-01 2.09407955e-01 1.10794706e-02
      7.38183269e-03 5.62760472e-01 5.62760472e-01 4.60250646e-01
      2.22945690e-01 1.36297822e-01 2.80492634e-01 4.62425277e-02 0.
      3.96086365e-01 3.28835994e-01 3.28074582e-02 7.14803440e-03
      1.33182421e-01 5.95659673e-01 5.95659673e-01 8.56408011e-03
      2.18107328e-02 2.64652278e-02 0. 3.47025618e-02 2.43448988e-01
      3.78941774e-01 5.28724134e-01 5.28724134e-01 4.67068106e-01
      1.12693116e-01 3.84207517e-01 4.11586724e-02 1.43077299e-01
      1.37508988e-01 4.51659113e-01 4.51659113e-01 4.51659113e-01
      2.17246279e-01 3.84207517e-01 4.02468532e-01 1.21776313e-01
      4.02468532e-01 4.02468532e-01 1.31468907e-01 4.02468532e-01
      4.02468532e-01 3.47135544e-01 1.82915941e-01 1.00444764e-01
      1.08062766e-01 1.35795206e-01 4.84763421e-02 2.94788624e-03
      2.67061830e-01 6.46470070e-01 6.46470070e-01 2.09310338e-01
      4.32706207e-01 4.32706207e-01 4.32706207e-01 1.36634186e-01
      1.67082682e-01 4.32706207e-01 4.32706207e-01 9.79061127e-02
      5.77326380e-02 0. 0. 0. 0. 2.95064211e-01 6.59018695e-01
      6.59018695e-01 1.94285020e-01 0. 6.48516836e-03 2.48536244e-02
      7.45608732e-02 1.58081234e-01 4.75003242e-01 4.75003242e-01
      4.75003242e-01 4.75003242e-01 2.48061195e-01 3.58285159e-01
      2.80139536e-01 4.03441489e-01 0. 4.03441489e-01 2.86220908e-01
      3.53071004e-01 3.43371898e-01 3.72971177e-01 4.90447099e-04
      1.70002896e-02 3.03222954e-01 4.73499984e-01 3.24658811e-01
      3.49707425e-01 4.73499984e-01 4.73499984e-01 5.22683039e-02 0.
      4.71850932e-01 4.71850932e-01 3.09141427e-02 7.85265937e-02
      5.11486977e-02 4.71850932e-01 4.71850932e-01 3.08181077e-01
      3.32601130e-01 2.48481244e-01 3.69143747e-02 1.78699591e-03
      1.87145814e-01 6.16996467e-01 6.16996467e-01 1.47073269e-01
      4.56481837e-02 0. 0. 0. 0. 1.98107883e-01 6.88530326e-01
      6.88530326e-01 7.57096261e-02 0. 3.67199391e-01 3.67199391e-01
      3.67199391e-01 1.10201277e-01 3.67199391e-01 2.00846076e-01
      3.67199391e-01 3.67199391e-01 3.67199391e-01 2.05308050e-01
      3.00978571e-01 4.07906771e-01 4.07906771e-01 4.07906771e-01
      3.13977897e-02 2.66965717e-01 3.54086548e-01 4.07906771e-01</_>
    <_>
      7.11185508e-04 6.82237223e-02 5.16829193e-01 1.29968941e-01
      4.79523912e-02 0. 5.16829193e-01 5.16829193e-01 4.11891848e-01
      6.48686215e-02 3.33647914e-02 5.43303251e-01 5.43303251e-01
      5.43303251e-01 2.81121671e-01 1.35766968e-01 4.52556573e-02
      6.48686215e-02 4.77376953e-02 5.65744415e-02 2.42968678e-01
      5.67057073e-01 5.67057073e-01 4.85437840e-01 1.87913105e-01
      9.73049179e-02 7.92920887e-02 2.13496462e-02 1.54027417e-01
      5.52046955e-01 5.52046955e-01 4.70146127e-02 0. 2.29640663e-01
      5.52046955e-01 3.30829285e-02 2.98802376e-01 1.10795453e-01
      1.72428519e-01 4.13341731e-01 1.01607002e-01 4.13341731e-01
      4.13341731e-01 4.13341731e-01 4.13341731e-01 4.10889059e-01
      1.91773385e-01 4.10889059e-01 4.10889059e-01 4.10889059e-01
      1.95673496e-01 4.10889059e-01 8.20625573e-02 2.64474571e-01
      1.58746485e-02 1.11129582e-02 4.20877077e-02 6.97698221e-02
      1.04018629e-01 4.92234915e-01 4.94950116e-01 4.94950116e-01
      4.94950116e-01 8.86591822e-02 1.45845965e-01 5.34572303e-01
      5.70470750e-01 5.50876379e-01 0. 1.15735911e-01 1.67374104e-01
      9.53619629e-02 2.73686145e-02 4.98124063e-02 5.74238896e-01
      5.74238896e-01 5.74238896e-01 4.18226905e-02 5.96162351e-03 0. 0.
      0. 2.77559855e-03 4.98407930e-01 4.98407930e-01 1.75126698e-02
      3.26465704e-02 4.98407930e-01 4.98407930e-01 0. 3.45355570e-01
      2.55384892e-01 3.87233317e-01 3.87233317e-01 3.87233317e-01
      2.60630161e-01 3.83149475e-01 2.46753231e-01 2.93550462e-01
      1.91558748e-01 2.16461852e-01 4.22610909e-01 4.22610909e-01
      4.22610909e-01 4.22610909e-01 2.54779518e-01 1.19167186e-01
      3.44549626e-01 5.03023192e-02 4.07214791e-01 4.07214791e-01
      2.34399736e-01 2.47181147e-01 2.19637290e-01 4.07214791e-01
      4.07214791e-01 4.07214791e-01 1.87039692e-02 1.64755306e-03
      8.60005245e-03 2.56577227e-02 0. 1.04662934e-02 5.75343490e-01
      5.75343490e-01 5.75343490e-01 1.47223398e-01 3.41809690e-01
      5.13772070e-01 5.13772070e-01 5.13772070e-01 6.84285834e-02
      1.61493674e-01 1.83022916e-01 1.46642802e-02 0. 1.48675172e-03
      4.54123050e-01 4.32846934e-01 3.25763263e-02 2.54131109e-01
      5.17494738e-01 5.17494738e-01 0. 8.96519125e-02 2.91765302e-01
      4.74065453e-01 4.74065453e-01 4.74065453e-01 4.74065453e-01
      5.49773313e-02 1.12176826e-02 0. 3.12623978e-02 1.02738634e-01
      4.83792692e-01 4.83792692e-01 4.83792692e-01 4.83792692e-01
      8.56827497e-02 1.71607360e-01 1.03069402e-01 1.71760678e-01
      4.06249523e-01 4.06249523e-01 4.06249523e-01 4.06249523e-01
      9.27177444e-02 4.06249523e-01 3.07231754e-01 1.95597723e-01 0.
      2.18255166e-02 1.28770739e-01 1.04334421e-01 2.23129466e-01
      2.97840755e-03 5.52792966e-01 5.52792966e-01 5.52792966e-01
      1.07067570e-01 1.02239777e-03 3.06719332e-03 0. 1.56319812e-02 0.
      4.80432361e-01 6.12921953e-01 6.12921953e-01 3.16168442e-02
      1.49472002e-02 6.76687583e-02 1.79393113e-01 5.23646176e-01
      2.36458078e-01 5.59092283e-01 5.59092283e-01 3.38645689e-02 0.
      4.38199103e-01 6.14678144e-01 6.14678144e-01 1.80825204e-01
      8.88701156e-02 6.34842962e-02 3.94445807e-02 2.02331017e-03
      4.32086550e-02 1.48801774e-01 5.36398172e-01 5.36398172e-01
      5.36398172e-01 3.25754464e-01 3.57921347e-02 0. 8.26309528e-03
      4.92189646e-01 6.14758544e-02 3.49576548e-02 6.57981634e-02
      4.92189646e-01 4.92189646e-01 1.17080092e-01 5.51639535e-02
      4.92189646e-01 3.83011043e-01 3.83011043e-01 3.83011043e-01
      3.83011043e-01 3.83011043e-01 1.01009212e-01 4.32095379e-02
      3.22364599e-01 3.83011043e-01 1.37871662e-02 6.71221595e-03
      8.78706924e-05 6.16439618e-04 0. 1.67489853e-02 5.75539470e-01
      5.75539470e-01 5.75539470e-01 9.01301429e-02 5.35983918e-03
      1.60795189e-02 0. 0. 2.84652356e-02 5.73020399e-01 5.73020399e-01
      5.73020399e-01 2.40611788e-02 1.18261173e-01 6.10542297e-01
      6.10542297e-01 5.60095496e-02 7.91359786e-03 2.09261253e-01
      4.31760430e-01 2.02112924e-02 1.76446587e-01 4.74846750e-01
      4.74846750e-01 4.74846750e-01 4.74846750e-01 2.46102333e-01
      3.50807048e-02 0. 2.02261228e-02 3.80468190e-01 3.80468190e-01
      3.80468190e-01 1.76415257e-02 3.45921785e-01 8.76904726e-02
      3.80468190e-01 3.80468190e-01 3.80468190e-01 1.44438222e-01
      3.32322389e-01 5.57566106e-01 5.57566106e-01 0. 1.87606141e-02
      2.68128544e-01 3.51399064e-01 2.13648006e-01 3.15130362e-03
      8.65182579e-02 2.51067191e-01 2.24333882e-01 4.66322750e-01
      2.57496964e-02 4.67743635e-01 4.67743635e-01 4.67743635e-01
      4.16105939e-03 8.61677516e-04 2.58503249e-03 0. 0. 0.
      5.75681269e-01 5.75681269e-01 5.75681269e-01 1.92877166e-02
      4.98147577e-01 4.98147577e-01 4.17280868e-02 0. 5.49428072e-03
      4.98147577e-01 4.98147577e-01 1.66471768e-02 3.68408501e-01
      3.68408501e-01 3.68408501e-01 3.60544890e-01 3.68408501e-01
      4.02449258e-02 3.68408501e-01 3.68408501e-01 2.24405870e-01</_>
    <_>
      1.57244846e-01 4.18153673e-01 4.18153673e-01 7.80379102e-02
      3.56835157e-01 5.22424765e-02 4.18153673e-01 4.18153673e-01
      3.68152857e-01 2.11233720e-01 4.48170513e-01 4.48170513e-01
      2.82678366e-01 2.45190144e-01 4.48170513e-01 4.48170513e-01
      5.79038523e-02 6.40179291e-02 0. 1.93653688e-01 4.71791983e-01
      4.71791983e-01 3.07404697e-01 6.92185014e-02 2.80969739e-01
      4.71791983e-01 3.34350079e-01 1.83508992e-02 8.29739869e-03
      2.48921979e-02 2.95975618e-03 7.98752978e-02 8.58791098e-02
      5.71403205e-01 5.71403205e-01 5.71403205e-01 5.69227301e-02
      5.35761237e-01 5.35761237e-01 2.49225963e-02 0. 2.54774862e-03
      3.42352420e-01 5.35761237e-01 1.11608282e-01 4.02741492e-01
      4.52466086e-02 1.40324056e-01 3.21597010e-02 4.02741492e-01
      4.02741492e-01 4.02741492e-01 4.02741492e-01 4.02741492e-01
      3.15315537e-02 0. 0. 0. 6.79856241e-02 3.58868748e-01
      6.49083316e-01 6.49083316e-01 1.28446460e-01 1.04859591e-01
      1.53467059e-01 5.12254596e-01 4.07075495e-01 8.46949369e-02
      1.28455544e-02 5.12254596e-01 5.12254596e-01 8.56064726e-03
      3.56840461e-01 4.05265540e-01 4.05265540e-01 2.72023864e-02
      3.36490734e-03 4.05265540e-01 4.05265540e-01 4.05265540e-01
      2.16019288e-01 8.72166455e-03 4.36588749e-03 3.60253483e-01
      4.97544259e-01 2.14162275e-01 0. 2.76833326e-01 4.97544259e-01
      4.97544259e-01 5.21043897e-01 1.72594622e-01 6.35323822e-02
      1.73114743e-02 4.39127386e-02 0. 3.79846007e-01 5.21043897e-01
      5.21043897e-01 4.30413812e-01 7.76502565e-02 1.16652422e-01 0.
      4.83108133e-01 1.65802278e-02 2.99710095e-01 4.83108133e-01
      4.83108133e-01 2.66519729e-02 4.34805244e-01 4.46317911e-01
      3.54233757e-02 4.46317911e-01 7.72445947e-02 4.46317911e-01
      4.46317911e-01 4.18978184e-02 3.37913513e-01 2.95573801e-01
      4.04033214e-01 1.75718606e-01 2.59441324e-02 4.45335388e-01
      4.45335388e-01 4.45335388e-01 6.51031807e-02 1.23850510e-01
      3.79564732e-01 3.79564732e-01 3.27625036e-01 3.79564732e-01
      3.79564732e-01 3.79564732e-01 3.79564732e-01 9.54702795e-02
      3.17882150e-02 3.20074230e-01 5.07484853e-01 5.07484853e-01
      1.22920886e-01 3.91835300e-03 2.43667319e-01 5.07484853e-01
      2.10600093e-01 1.90711450e-02 1.63488593e-02 8.36943873e-05
      1.18621588e-01 2.15151859e-03 2.73913331e-02 5.71209013e-01
      5.71209013e-01 5.71209013e-01 2.40535006e-01 3.98392556e-03 0. 0.
      6.13363460e-02 1.70823578e-02 5.57526052e-01 5.57526052e-01
      5.57526052e-01 9.87100899e-02 1.99420843e-02 0. 0. 1.04679257e-01
      2.43619263e-01 6.33688390e-01 6.33688390e-01 3.31816018e-01
      1.31845269e-02 4.38724905e-01 4.38724905e-01 3.86563875e-02
      9.25983116e-02 4.38724905e-01 4.38724905e-01 4.38724905e-01
      1.51582450e-01 1.17558114e-01 2.26751477e-01 4.64181483e-01
      1.33408397e-01 3.06418771e-03 2.24638373e-01 4.64181483e-01
      4.64181483e-01 4.64181483e-01 2.16059107e-02 1.05516516e-01
      5.08037508e-01 4.76323776e-02 2.61730934e-03 2.44776742e-03
      5.61414897e-01 5.61414897e-01 3.03374499e-01 6.04338886e-04
      4.13179137e-02 3.99973422e-01 5.12849808e-01 9.38770622e-02
      3.25782981e-04 1.87973633e-01 5.12849808e-01 5.12849808e-01
      2.22889468e-01 2.61220843e-01 3.28780532e-01 0. 1.92239225e-01
      4.28005844e-01 4.28005844e-01 4.28005844e-01 4.28005844e-01
      5.23789003e-02 0. 0. 0. 7.47373849e-02 3.23052704e-01
      6.48915350e-01 6.48915350e-01 1.96588129e-01 2.84616258e-02
      2.97129989e-01 5.38929105e-01 9.48260725e-02 5.00020199e-03
      3.01848873e-02 5.41948915e-01 5.41948915e-01 1.33047640e-01
      4.26232740e-02 4.52459306e-01 4.52459306e-01 1.93475276e-01
      4.50643413e-02 3.62458467e-01 4.52459306e-01 4.52459306e-01
      6.28212392e-02 0. 4.32439037e-02 4.61036980e-01 4.61036980e-01
      1.24899531e-03 3.78529698e-01 4.61036980e-01 4.61036980e-01
      4.27137082e-03 5.35123944e-02 3.00509840e-01 4.75989878e-01
      4.75989878e-01 1.31604755e-02 1.05647005e-01 3.05809110e-01
      4.75989878e-01 3.42816859e-01 3.40038654e-03 0. 7.38053173e-02
      1.59145623e-01 2.16659275e-03 4.67264000e-03 5.73358178e-01
      5.85846782e-01 5.39797604e-01 1.07958943e-01 4.96103704e-01
      5.07575333e-01 2.95446128e-01 5.07575333e-01 1.93438809e-02
      1.79336622e-01 1.86177358e-01 2.59624660e-01 0. 1.93140015e-01
      5.64343333e-01 6.54623006e-03 0. 3.70356739e-02 5.64343333e-01
      5.64343333e-01 1.40277855e-02 4.72931713e-02 3.46449524e-01
      4.63885963e-01 1.08719088e-01 8.96972492e-02 1.42686591e-01
      5.01819015e-01 5.01819015e-01 3.37141782e-01 0. 2.68510997e-01
      4.53792185e-01 4.53792185e-01 3.11965674e-01 3.98469269e-02
      4.53792185e-01 4.53792185e-01 2.73746382e-02 3.79334509e-01
      3.44248891e-01 3.79334509e-01 3.79334509e-01 1.15752548e-01
      3.05986032e-02 3.79334509e-01 3.79334509e-01 3.79334509e-01
      7.90374503e-02 2.12418869e-01 4.94206339e-01 4.94206339e-01
      2.99350615e-03 0. 7.23306686e-02 4.94206339e-01 4.53580111e-01</_>
    <_>
      1.66883886e-01 4.38863575e-01 4.38863575e-01 3.24896485e-01
      1.63390741e-01 3.37394804e-01 4.38863575e-01 3.67998332e-01
      9.19231027e-02 0. 5.12106478e-01 5.43222368e-01 1.65599257e-01
      1.20968902e-02 2.68498003e-01 5.43222368e-01 2.05913246e-01
      8.95115733e-03 2.24747211e-02 4.20908183e-01 4.20908183e-01
      4.20908183e-01 4.20908183e-01 1.12092800e-01 4.20908183e-01
      3.11298788e-01 0. 1.17703162e-01 4.55392271e-01 5.05697668e-01
      4.70089912e-02 0. 3.80035713e-02 5.05697668e-01 5.05697668e-01
      5.35618961e-02 5.00702083e-01 5.00702083e-01 5.00702083e-01
      6.36894815e-03 7.08944676e-03 3.90196890e-01 2.54651129e-01
      1.60284311e-01 2.95871310e-03 1.15772421e-02 1.51967490e-02
      2.53676157e-02 3.40393707e-02 1.97107747e-01 6.52361274e-01
      6.52361274e-01 3.13841581e-01 5.31188361e-02 1.24841608e-01
      4.73641872e-01 4.73641872e-01 1.68454647e-01 1.81528509e-01
      1.37590721e-01 4.73641872e-01 4.23253953e-01 2.17414826e-01
      8.89082775e-02 3.75874788e-01 3.75874788e-01 3.75874788e-01
      3.15449625e-01 3.75874788e-01 3.75874788e-01 3.75874788e-01
      2.02831358e-01 1.74520344e-01 4.48845148e-01 4.48845148e-01
      2.98091590e-01 4.48845148e-01 1.50481194e-01 4.48845148e-01
      1.70923576e-01 1.35990396e-01 2.72726994e-02 3.86732608e-01
      3.86732608e-01 3.86732608e-01 3.86732608e-01 2.76674271e-01
      3.86732608e-01 3.86732608e-01 1.46531567e-01 4.01751459e-01
      5.25322318e-01 6.69641942e-02 1.79491341e-02 1.52789494e-02
      5.25322318e-01 5.25322318e-01 2.04702504e-02 1.86115896e-04
      4.72051241e-02 2.97482051e-02 4.31801677e-02 1.89334765e-01
      3.56018245e-01 5.74951470e-01 5.74951470e-01 2.95227736e-01
      2.79975891e-01 1.81140333e-01 4.87464428e-01 4.87464428e-01
      3.21356505e-01 1.18783284e-02 1.35239139e-01 4.87464428e-01
      3.53515416e-01 5.27356714e-02 3.36560488e-01 4.78941679e-01
      2.04869106e-01 2.05327496e-01 4.62959558e-02 2.77122796e-01
      4.78941679e-01 4.62718874e-01 2.14460388e-01 5.52251525e-02
      4.75301087e-01 4.75301087e-01 2.38656744e-01 8.18000361e-03
      1.77437589e-01 4.75301087e-01 4.75301087e-01 7.08718598e-03
      4.73357975e-01 4.73357975e-01 4.73357975e-01 2.12286809e-03
      2.97735119e-03 4.73357975e-01 2.86210865e-01 2.78185941e-02
      1.27659857e-01 6.46087155e-02 4.70212474e-02 0. 0. 2.16334313e-01
      6.36595070e-01 6.36595070e-01 3.58072698e-01 4.16640192e-02
      1.06552422e-01 1.44823134e-01 3.80172115e-03 2.66702268e-02
      5.53011358e-01 5.53011358e-01 5.53011358e-01 2.08750963e-01
      1.95700694e-02 3.68732303e-01 1.40305012e-01 1.56967968e-01
      3.36907133e-02 1.13658480e-01 5.16177058e-01 5.16177058e-01
      5.16177058e-01 3.44588645e-02 1.03398869e-02 4.34827507e-01
      3.54969293e-01 9.97083727e-03 1.16584580e-02 5.52120388e-01
      5.74851811e-01 2.03621015e-01 4.56766449e-02 4.78567556e-02
      4.38222408e-01 5.77472329e-01 2.72774369e-01 0. 9.38848928e-02
      5.77472329e-01 2.23015264e-01 0. 4.42932636e-01 3.61781955e-01
      5.33871651e-02 0. 4.13758643e-02 5.75457156e-01 5.75457156e-01
      1.75269227e-02 2.63128453e-03 1.96482334e-02 7.64098065e-03
      2.72297971e-02 1.00226052e-01 5.69173992e-01 5.69173992e-01
      5.69173992e-01 1.04028761e-01 1.96482334e-02 2.06191674e-01
      1.34624010e-02 8.35020989e-02 3.02464098e-01 4.59797353e-01
      4.59797353e-01 4.59797353e-01 4.17645037e-01 2.13508308e-01
      2.15321686e-02 3.75517339e-01 3.75517339e-01 3.75517339e-01
      3.75517339e-01 3.75517339e-01 3.75517339e-01 3.75517339e-01
      9.32309926e-02 6.94800466e-02 1.35947451e-01 8.67573470e-02
      4.37848568e-02 0. 2.90010810e-01 6.58900917e-01 6.58900917e-01
      9.08926651e-02 4.28323507e-01 4.28323507e-01 4.28323507e-01
      3.11767552e-02 2.27507070e-01 4.28323507e-01 3.24296832e-01
      4.40977477e-02 3.19425523e-01 0. 0. 8.96607246e-03 6.28997236e-02
      1.79190040e-01 6.80186152e-01 6.80186152e-01 1.71030387e-01
      5.00610173e-02 5.08877560e-02 8.47266689e-02 6.26437217e-02
      1.04113907e-01 4.92523342e-01 4.92523342e-01 4.92523342e-01
      4.92523342e-01 1.52255502e-02 2.53811300e-01 2.36536145e-01
      4.20185566e-01 4.20185566e-01 4.20185566e-01 1.51029319e-01
      1.46762684e-01 3.53355616e-01 4.20185566e-01 7.03665242e-03
      6.57324195e-02 2.79981285e-01 5.02455890e-01 2.38636926e-01
      3.12871069e-01 5.02455890e-01 5.02455890e-01 5.28136268e-04
      6.05144314e-02 4.39160973e-01 4.39160973e-01 5.93601950e-02
      7.64949098e-02 1.35145426e-01 4.39160973e-01 4.39160973e-01
      4.39160973e-01 3.56193185e-01 2.42514268e-01 7.31019154e-02
      1.68347673e-03 3.18899304e-01 5.85489690e-01 5.85489690e-01
      1.20200306e-01 3.71346250e-02 0. 0. 9.59327037e-04 6.72997069e-03
      4.00812358e-01 5.70084929e-01 5.70084929e-01 4.28505093e-01
      4.62182099e-04 2.52301365e-01 1.80560082e-01 3.61848563e-01
      3.61848563e-01 3.42134625e-01 3.61848563e-01 3.61848563e-01
      3.58328044e-01 3.61848563e-01 3.74656051e-01 3.74656051e-01
      3.74656051e-01 3.74656051e-01 3.74656051e-01 1.38583621e-02
      1.16167225e-01 3.74656051e-01 3.74656051e-01</_>
    <_>
      1.21855848e-02 7.72823021e-02 4.94450539e-01 9.08225849e-02
      5.25977239e-02 0. 4.94450539e-01 4.94450539e-01 4.94450539e-01 0.
      4.66226712e-02 5.48891485e-01 5.48891485e-01 5.48891485e-01
      2.97136098e-01 1.37288114e-02 4.57627093e-03 0. 1.52978525e-01
      1.39894307e-01 4.54956621e-01 5.11989534e-01 5.11989534e-01
      3.87746871e-01 2.53162533e-01 7.35733062e-02 2.84573343e-02
      1.47731332e-02 1.56225473e-01 5.26808560e-01 5.26808560e-01
      6.23402139e-03 7.15519255e-03 3.69399607e-01 5.26808560e-01
      3.14080343e-02 2.92753279e-01 3.49647999e-01 3.49647999e-01
      3.20318848e-01 3.33423287e-01 2.92845070e-01 3.49647999e-01
      3.49647999e-01 3.49647999e-01 2.37849459e-01 3.64931196e-01
      3.64931196e-01 3.64931196e-01 3.64931196e-01 3.34714711e-01
      2.51575351e-01 3.64931196e-01 3.13980430e-01 2.99253892e-02
      1.69779062e-02 6.60242438e-02 6.84929937e-02 8.36063325e-02
      4.94428366e-01 4.94428366e-01 4.94428366e-01 4.94428366e-01
      6.24170806e-03 8.61981735e-02 5.65438032e-01 5.65438032e-01
      5.65438032e-01 0. 3.97084281e-02 1.50847584e-01 5.82427531e-02
      9.84555557e-02 1.19110644e-01 5.64917088e-01 5.64917088e-01
      5.64917088e-01 1.10998794e-01 6.22273516e-03 0. 2.69164145e-02 0.
      4.94273286e-03 4.96628970e-01 4.96628970e-01 7.59843811e-02
      4.95263711e-02 4.96628970e-01 4.96628970e-01 1.50928423e-02
      2.34845411e-02 2.27171630e-01 4.58847851e-01 4.79331493e-01
      4.79331493e-01 8.36106017e-02 4.79331493e-01 1.89443171e-01
      1.88978855e-02 3.92703056e-01 2.45948330e-01 3.94780844e-01
      3.94780844e-01 3.94780844e-01 3.94780844e-01 2.27880463e-01
      2.55997125e-02 3.24588001e-01 8.89202282e-02 3.94463301e-01
      3.94463301e-01 1.31779596e-01 3.94463301e-01 1.92818120e-01
      3.94463301e-01 3.94463301e-01 3.94463301e-01 1.07048210e-02
      1.76197628e-03 9.28253960e-03 2.80374419e-02 0. 3.29042319e-03
      4.90095973e-01 6.13465607e-01 6.13465607e-01 1.76123753e-01
      4.11765724e-01 3.76370817e-01 4.11765724e-01 4.11765724e-01
      4.11765724e-01 2.62299120e-01 1.83612883e-01 2.06139237e-01
      3.68371569e-02 8.14134106e-02 2.82987118e-01 4.29385930e-01
      1.82373047e-01 2.88516998e-01 5.50159395e-01 5.50159395e-01
      1.46311363e-02 2.95296945e-02 2.70419478e-01 5.74553788e-01
      5.74553788e-01 4.86514032e-01 4.88262922e-02 1.37346745e-01
      4.57822420e-02 0. 1.10440873e-01 4.12791997e-01 4.18647826e-01
      4.18647826e-01 4.18647826e-01 4.18647826e-01 2.77665406e-01
      4.70082648e-02 1.81250498e-01 1.12712026e-01 3.50212097e-01
      4.05604988e-01 4.05604988e-01 4.05604988e-01 5.42603843e-02
      4.05604988e-01 4.05604988e-01 1.87281415e-01 0. 2.51049548e-02
      1.34192064e-01 7.85844997e-02 2.37528741e-01 1.25838575e-04
      5.51741779e-01 5.51741779e-01 5.51741779e-01 5.79568520e-02 0. 0.
      0. 3.14962007e-02 0. 5.24474025e-01 5.97748876e-01 5.97748876e-01
      3.56472619e-02 7.41967112e-02 4.23462838e-01 4.76710320e-01
      3.14166903e-01 1.65083572e-01 4.76710320e-01 4.76710320e-01
      3.78174819e-02 3.40622813e-02 6.19811043e-02 6.65901542e-01
      6.65901542e-01 2.98565894e-01 4.01453748e-02 2.15306692e-02
      9.82032269e-02 2.52920315e-02 0. 2.53093719e-01 5.49870431e-01
      5.49870431e-01 5.49870431e-01 1.51374370e-01 2.15776917e-02 0. 0.
      4.62553322e-01 3.62447165e-02 6.92269281e-02 2.94789553e-01
      4.62553322e-01 4.62553322e-01 2.09345296e-01 5.22031225e-02
      4.62553322e-01 3.93106520e-01 3.93106520e-01 3.93106520e-01
      3.62699330e-01 3.93106520e-01 3.05859834e-01 6.53572977e-02
      1.87741637e-01 3.36633712e-01 2.60292348e-02 0. 0. 0.
      5.15161373e-04 2.31554061e-02 5.75337887e-01 5.75337887e-01
      5.75337887e-01 2.12258637e-01 1.09554015e-01 5.13723567e-02
      2.52871126e-01 0. 2.90340949e-02 5.38559794e-01 5.38559794e-01
      5.38559794e-01 1.01402737e-02 5.84181435e-02 5.61793983e-01
      5.61793983e-01 2.71629766e-02 4.44590067e-03 2.46291205e-01
      5.45996010e-01 1.10040540e-02 1.74295381e-01 3.13129246e-01
      4.85544831e-01 4.85544831e-01 4.85544831e-01 2.50998922e-02
      2.20072195e-01 2.35192895e-01 2.34697372e-01 2.55861372e-01
      3.92705470e-01 3.92705470e-01 1.60342883e-02 3.43033820e-01
      2.03947216e-01 3.92705470e-01 3.92705470e-01 3.92705470e-01
      1.74614713e-01 2.82878488e-01 5.28436542e-01 5.28436542e-01
      3.16564646e-03 2.93356460e-02 3.69823039e-01 3.90234768e-01
      1.89206332e-01 0. 7.43022114e-02 2.49453679e-01 2.41349548e-01
      4.48716521e-01 2.54083853e-02 4.71628278e-01 4.71628278e-01
      4.71628278e-01 1.61037504e-04 0. 0. 0. 0. 0. 5.04821956e-01
      6.07900083e-01 6.07900083e-01 0. 3.62627208e-01 5.28988123e-01
      1.54016823e-01 1.39764405e-03 0. 5.28988123e-01 5.28988123e-01
      3.19386390e-03 2.61332333e-01 3.99351656e-01 3.99351656e-01
      3.29239279e-01 3.99351656e-01 3.99351656e-01 1.48412004e-01
      2.49486044e-01 3.11642468e-01</_>
    <_>
      1.32612303e-01 4.28306967e-01 4.28306967e-01 0. 3.73213857e-01
      2.58222908e-01 4.28306967e-01 4.28306967e-01 1.95909157e-01
      2.08941728e-01 4.15687412e-01 4.15687412e-01 3.68839294e-01
      9.39389095e-02 4.15687412e-01 4.15687412e-01 3.36429715e-01
      5.43591417e-02 1.03137009e-02 2.36961365e-01 4.63083178e-01
      4.63083178e-01 2.29725510e-01 3.36520635e-02 4.16417956e-01
      4.63083178e-01 2.61666179e-01 1.56732753e-01 1.34399226e-02 0.
      1.47535233e-03 4.38618623e-02 3.29332724e-02 5.67619503e-01
      5.67619503e-01 5.67619503e-01 1.07772782e-01 4.95368958e-01
      4.95368958e-01 5.12305927e-03 0. 0. 4.95368958e-01 4.95368958e-01
      4.30090763e-02 4.13648874e-01 2.14494616e-01 1.78470045e-01 0.
      4.32064593e-01 0. 4.32064593e-01 4.32064593e-01 4.32064593e-01
      3.20913494e-02 1.58764736e-03 4.76294197e-03 0. 1.08700372e-01
      3.76678824e-01 6.43215120e-01 6.43215120e-01 1.06625676e-01
      2.31709853e-02 2.55393416e-01 5.17323494e-01 3.03170711e-01
      7.30053112e-02 1.70093790e-01 5.17323494e-01 5.17323494e-01
      5.08696306e-03 9.75198895e-02 4.64182764e-01 4.64182764e-01
      5.55536989e-03 0. 3.49608362e-01 4.64182764e-01 4.64182764e-01
      4.16412950e-02 1.97833832e-02 1.59359258e-02 3.57201695e-01
      4.91772801e-01 2.63707072e-01 4.55084053e-04 2.67930865e-01
      4.91772801e-01 4.91772801e-01 5.08852780e-01 1.49902120e-01
      2.09612232e-02 1.58509165e-02 8.01456068e-03 0. 4.41473693e-01
      5.08852780e-01 5.08852780e-01 4.57658052e-01 8.04907307e-02 0. 0.
      1.45267453e-02 3.88503969e-01 4.57658052e-01 4.57658052e-01
      4.57658052e-01 2.53672805e-02 4.23994660e-01 4.29681748e-01
      1.57414153e-01 4.29681748e-01 2.24364638e-01 4.29681748e-01
      4.29681748e-01 4.08492722e-02 1.94745243e-01 1.53289348e-01
      4.64328825e-01 4.24381420e-02 7.95318838e-03 4.64328825e-01
      4.64328825e-01 4.64328825e-01 2.63949871e-01 9.60337520e-02
      3.77965182e-01 3.77965182e-01 3.77965182e-01 3.37946862e-01
      3.77965182e-01 3.77965182e-01 3.77965182e-01 1.25089735e-01
      9.06300917e-03 2.70589709e-01 5.14525175e-01 5.14525175e-01
      1.09441839e-01 1.47194024e-02 2.83142805e-01 5.14525175e-01
      1.87050894e-01 1.38378982e-02 4.48130583e-03 1.64167583e-02
      1.59346879e-01 7.05321506e-02 1.30638322e-02 5.66663802e-01
      5.66663802e-01 5.66663802e-01 1.30774230e-01 3.74953747e-02 0. 0.
      1.09403037e-01 3.24667901e-01 5.35029829e-01 5.35029829e-01
      5.35029829e-01 1.09184667e-01 1.89127848e-02 0. 0. 1.36544749e-01
      3.02510411e-01 5.62545538e-01 5.62545538e-01 4.88908410e-01
      1.02362692e-01 4.23216313e-01 4.23216313e-01 5.26104420e-02
      2.72247672e-01 4.23216313e-01 4.23216313e-01 4.23216313e-01
      1.13346711e-01 5.10731675e-02 1.21043153e-01 4.33845282e-01
      3.46288413e-01 1.21306233e-01 3.01477194e-01 4.33845282e-01
      4.33845282e-01 4.33845282e-01 1.14016980e-03 8.58209506e-02
      5.34803152e-01 2.63394509e-02 2.54928181e-03 8.66863653e-02
      5.34803152e-01 5.34803152e-01 3.47900152e-01 0. 7.29420856e-02
      3.86060983e-01 5.16273081e-01 9.63438600e-02 1.51489675e-02
      1.77073643e-01 5.16273081e-01 5.16273081e-01 2.64561981e-01
      1.14566647e-01 4.08019498e-02 0. 4.63890284e-01 2.23173425e-01
      4.63890284e-01 4.63890284e-01 4.63890284e-01 5.63015640e-02
      4.77827042e-02 8.57512746e-03 1.40390284e-02 8.00703019e-02
      1.57555282e-01 5.64918935e-01 5.64918935e-01 5.64918935e-01
      1.26132205e-01 3.76979053e-01 5.21734536e-01 8.94744843e-02 0.
      3.59066501e-02 5.21734536e-01 5.21734536e-01 1.04169331e-01
      3.84505428e-02 4.28265393e-01 4.51564550e-01 2.08135694e-01
      1.74621776e-01 3.02935302e-01 4.51564550e-01 4.51564550e-01
      1.82441980e-01 0. 1.77463308e-01 4.54248399e-01 4.54248399e-01
      3.94504890e-03 3.72102827e-01 4.54248399e-01 4.54248399e-01
      1.12669719e-02 3.57018322e-01 4.27061617e-01 4.27061617e-01
      4.27061617e-01 1.36859268e-02 1.73171222e-01 4.27061617e-01
      2.50208139e-01 2.14396387e-01 2.72620819e-03 0. 7.08297864e-02
      1.82448894e-01 8.56849179e-03 8.16811435e-03 5.38366914e-01
      6.04916334e-01 5.47489822e-01 1.20493479e-01 4.92586672e-01
      4.92586672e-01 2.66475797e-01 4.92586672e-01 1.03087671e-01
      1.91595331e-01 3.29457343e-01 1.60466328e-01 0. 1.15956858e-01
      5.65097272e-01 9.26264450e-02 0. 1.19308941e-01 5.65097272e-01
      5.65097272e-01 9.58400127e-03 2.23889217e-01 2.80326962e-01
      3.21361542e-01 1.80634111e-01 5.99226840e-02 2.07619131e-01
      5.15725911e-01 5.15725911e-01 3.89352143e-01 1.18533090e-01
      1.48884729e-01 4.88794535e-01 4.88794535e-01 2.59200316e-02
      5.04887626e-02 4.88794535e-01 4.88794535e-01 0. 3.10744852e-01
      2.60986865e-01 4.07370627e-01 4.07370627e-01 1.46792522e-02
      3.58363502e-02 4.07370627e-01 4.07370627e-01 4.07370627e-01
      9.38582197e-02 2.14960769e-01 4.89711255e-01 4.89711255e-01 0.
      1.36472954e-04 7.10201338e-02 4.89711255e-01 4.64323282e-01</_>
    <_>
      1.95714980e-02 2.76026856e-02 5.23559332e-01 2.91236252e-01
      1.25235856e-01 3.57396565e-02 5.23559332e-01 5.23559332e-01
      2.63634384e-01 0. 1.53237820e-01 4.94469821e-01 5.65114975e-01
      5.65114975e-01 2.95774490e-01 1.31305605e-02 3.12852231e-03 0.
      6.36379793e-02 8.53162035e-02 3.08333993e-01 5.42987049e-01
      5.42987049e-01 3.72473747e-01 2.72587925e-01 2.72086829e-01
      1.06944121e-01 3.67683209e-02 1.88668072e-01 5.87020457e-01
      5.87020457e-01 2.62841135e-02 0. 2.04806179e-01 4.71335888e-01
      5.66652641e-02 3.58381212e-01 3.08232695e-01 2.99865544e-01
      3.58381212e-01 3.58381212e-01 3.58381212e-01 2.85891950e-01
      3.58381212e-01 2.95927525e-01 4.59384203e-01 4.59384203e-01
      1.96829766e-01 1.32157549e-01 4.59384203e-01 4.59384203e-01
      2.42850155e-01 2.30281372e-02 1.88578621e-01 1.70722827e-02
      1.29445884e-02 7.38680363e-02 1.69079304e-02 4.55247164e-02
      1.60528421e-01 5.65775871e-01 5.65775871e-01 5.65775871e-01 0.
      1.02547713e-01 5.94277203e-01 5.94277203e-01 5.02285898e-01 0.
      1.29780034e-02 1.50968358e-01 4.43642698e-02 0. 3.27046514e-02
      5.72743833e-01 5.72743833e-01 5.72743833e-01 0. 0. 8.17996413e-02
      4.91298288e-02 0. 1.69361439e-02 4.97558653e-01 4.97558653e-01
      1.88209955e-02 6.31591082e-02 4.97558653e-01 4.97558653e-01
      1.19171152e-02 3.85379076e-01 3.85379076e-01 3.85379076e-01
      3.85379076e-01 3.85379076e-01 3.85379076e-01 2.92883456e-01
      4.12453078e-02 1.32536247e-01 2.95136690e-01 3.92767131e-01
      2.85268188e-01 3.92767131e-01 3.92767131e-01 3.92767131e-01
      3.92767131e-01 5.08404970e-02 2.31684938e-01 1.24421259e-02
      3.12867761e-01 4.05770391e-01 3.66620511e-01 3.12543958e-01
      1.94448531e-01 3.66130918e-01 4.05770391e-01 4.05770391e-01
      8.46378319e-03 1.40919574e-02 0. 0. 2.27890518e-02 0.
      5.76596797e-01 6.10241175e-01 5.36897838e-01 0. 3.05056185e-01
      5.33633649e-01 5.33633649e-01 5.33633649e-01 1.98816717e-01
      6.83483034e-02 5.10371886e-02 2.26437915e-02 0. 1.82828319e-03
      4.99187917e-01 4.85065103e-01 9.75736976e-02 3.61899994e-02
      4.99187917e-01 4.99187917e-01 3.64272147e-02 0. 1.94894210e-01
      5.19572675e-01 5.19572675e-01 5.19572675e-01 2.65755266e-01
      2.65650332e-01 7.59227350e-02 0. 1.11388080e-01 1.10297985e-01
      4.21477556e-01 4.21477556e-01 4.21477556e-01 4.21477556e-01
      2.15374500e-01 3.50896269e-01 3.01875830e-01 2.90053338e-01
      3.82181972e-01 3.82181972e-01 1.73579782e-01 1.74182028e-01
      3.48233193e-01 3.82181972e-01 3.82181972e-01 3.82181972e-01
      2.05952441e-03 7.47919129e-03 7.96018913e-02 1.63502350e-01
      2.29664072e-01 5.02611548e-02 5.49578726e-01 5.49578726e-01
      5.49578726e-01 4.50723469e-02 0. 0. 0. 0. 0. 2.85050154e-01
      6.74529850e-01 6.74529850e-01 1.20549217e-01 2.74406485e-02
      9.55862403e-02 1.67449087e-01 2.10237652e-01 4.15975273e-01
      5.94269454e-01 5.94269454e-01 1.34378716e-01 2.83140549e-03
      2.33716577e-01 5.90707123e-01 5.90707123e-01 4.77805108e-01
      1.15206443e-01 0. 4.71420679e-03 2.83140806e-03 4.67094257e-02
      1.30572960e-01 5.41189134e-01 5.41189134e-01 5.41189134e-01
      5.62883019e-02 2.93555737e-01 7.61302710e-02 3.95991616e-02
      4.88047421e-01 1.68432057e-01 3.64928097e-02 4.99885604e-02
      4.88047421e-01 4.88047421e-01 8.01717415e-02 6.11295737e-02
      4.88047421e-01 3.64537060e-01 3.64537060e-01 3.64537060e-01
      3.64537060e-01 3.64537060e-01 2.48098657e-01 6.77810460e-02
      3.64537060e-01 3.64537060e-01 3.16980407e-02 0. 0. 0. 0. 0.
      5.75398266e-01 5.75398266e-01 5.75398266e-01 9.25175380e-03
      6.19976223e-02 1.85992867e-01 0. 0. 6.77254498e-02 5.86597145e-01
      5.86597145e-01 5.12679994e-01 4.24046591e-02 2.16651678e-01
      6.49897516e-01 6.49897516e-01 7.51569867e-02 5.49551379e-03
      1.11599110e-01 2.83868581e-01 3.64337005e-02 4.35498916e-02
      1.14230387e-01 5.64692616e-01 5.64692616e-01 5.64692616e-01
      7.38454387e-02 0. 5.53242341e-02 1.19452283e-01 4.33597386e-01
      1.39994487e-01 4.33597386e-01 0. 1.69411391e-01 8.56550932e-02
      4.33597386e-01 4.33597386e-01 4.33597386e-01 1.57068923e-01
      5.40939331e-01 5.40939331e-01 4.19320554e-01 1.75350488e-05
      5.86541975e-03 2.13382438e-01 4.02706444e-01 3.35825570e-02
      7.61091942e-04 3.80787477e-02 2.74076790e-01 2.80095249e-01
      3.18797082e-01 7.46007785e-02 4.94248480e-01 4.94248480e-01
      4.94248480e-01 8.14058632e-02 0. 0. 0. 0. 0. 5.73772192e-01
      5.73772192e-01 5.73772192e-01 1.06564881e-02 5.11692584e-01
      5.11692584e-01 1.37268767e-01 0. 0. 5.11692584e-01 4.36400682e-01
      0. 3.82581711e-01 3.82581711e-01 3.82581711e-01 3.82581711e-01
      3.82581711e-01 2.36254018e-02 1.89750701e-01 2.85310060e-01
      3.82581711e-01</_>
    <_>
      1.25379533e-01 4.39621359e-01 4.39621359e-01 5.59256338e-02
      2.87398607e-01 2.09770992e-01 4.39621359e-01 4.39621359e-01
      2.77653307e-01 2.65021473e-02 2.44952112e-01 4.72689599e-01
      2.26932853e-01 1.59417182e-01 4.72689599e-01 4.72689599e-01
      2.76407748e-01 3.33098918e-01 6.81473166e-02 2.07902566e-01
      4.50287402e-01 4.50287402e-01 3.93328756e-01 1.42329521e-02
      2.16788962e-01 4.50287402e-01 3.70743722e-01 1.25821292e-01
      4.94354069e-02 0. 0. 0. 1.72089666e-01 5.61694205e-01
      5.61694205e-01 5.61694205e-01 9.93671119e-02 4.67005700e-01
      4.67005700e-01 6.76732743e-03 0. 6.95320952e-04 3.55392724e-01
      4.67005700e-01 4.52579588e-01 2.48451322e-01 1.55754015e-01
      4.52188224e-01 1.34668872e-01 2.68839359e-01 3.44804972e-02
      4.52188224e-01 4.52188224e-01 4.52188224e-01 5.43914363e-02
      1.39421429e-02 1.60666816e-02 7.03742504e-02 9.54172090e-02
      8.46790001e-02 6.86315715e-01 6.86315715e-01 1.62639633e-01
      4.00473736e-02 2.83917576e-01 5.09401143e-01 3.49947542e-01
      7.27172047e-02 0. 5.09401143e-01 5.09401143e-01 8.04986954e-02
      7.19698472e-03 3.97185296e-01 3.97185296e-01 2.25579366e-01
      2.85836607e-01 2.73150206e-01 3.97185296e-01 3.97185296e-01
      3.97185296e-01 1.65442191e-03 1.84221454e-02 2.90243208e-01
      5.08537173e-01 1.75507128e-01 8.65318533e-03 3.21916282e-01
      5.08537173e-01 5.08537173e-01 4.84192222e-01 2.27246270e-01
      6.87098205e-02 0. 2.82808188e-02 1.52914468e-02 4.84192222e-01
      4.84192222e-01 4.84192222e-01 1.03256211e-01 2.50462834e-02
      7.51388445e-02 0. 5.15720904e-01 2.37604439e-01 2.29099765e-01
      5.48941076e-01 5.48941076e-01 4.02135141e-02 1.74462572e-01
      4.82472658e-01 1.01146325e-01 4.82472658e-01 4.47058044e-02
      4.82472658e-01 4.82472658e-01 1.40634835e-01 2.44661838e-01
      3.48598063e-01 3.19516838e-01 2.62169778e-01 1.99049953e-02
      4.61975813e-01 4.61975813e-01 4.61975813e-01 5.02026901e-02
      3.34711760e-01 3.57881337e-01 3.57881337e-01 3.57881337e-01
      3.57881337e-01 3.57881337e-01 2.43773445e-01 3.57881337e-01
      2.37681568e-01 3.94143071e-03 1.48759514e-01 5.12292683e-01
      5.12292683e-01 2.35482544e-01 4.92184830e-04 1.52337924e-01
      5.12292683e-01 3.26723367e-01 4.01355885e-02 9.81617719e-03
      3.65598476e-04 1.00706697e-01 6.53190687e-02 8.07561725e-02
      5.69116116e-01 5.69116116e-01 5.69116116e-01 1.73101068e-01
      1.01720735e-01 0. 0. 5.74137606e-02 1.86140895e-01 5.52637756e-01
      5.52637756e-01 5.52637756e-01 7.72718266e-02 0. 0. 0.
      1.12220883e-01 1.41370714e-01 6.88174367e-01 6.88174367e-01
      8.60931575e-02 1.12608053e-01 8.95322785e-02 4.25696611e-01
      4.25696611e-01 8.54176506e-02 2.48327658e-01 4.25696611e-01
      4.25696611e-01 4.25696611e-01 4.18302834e-01 3.25662762e-01
      4.18302834e-01 8.27752724e-02 0. 8.95938501e-02 4.18302834e-01
      4.18302834e-01 4.18302834e-01 5.38419485e-02 1.23905897e-01
      4.65906531e-01 3.23561393e-02 0. 7.71639869e-02 5.78183949e-01
      5.78183949e-01 2.88637191e-01 5.92715107e-04 9.85532328e-02
      2.75522888e-01 5.33591092e-01 7.02466071e-02 2.99355481e-03
      2.23479986e-01 5.33591092e-01 5.33591092e-01 4.21384454e-01
      5.12940250e-02 1.83883961e-02 2.04484537e-02 6.05086014e-02
      4.50246900e-01 4.50246900e-01 4.50246900e-01 4.50246900e-01
      5.96751794e-02 0. 0. 0. 1.27451986e-01 1.93368927e-01
      6.75974131e-01 6.75974131e-01 1.48906276e-01 1.03046849e-01
      1.83596700e-01 5.25845826e-01 6.47596940e-02 1.19077042e-02
      8.07056278e-02 5.72531462e-01 5.72531462e-01 8.37203413e-02
      4.28568684e-02 3.60126555e-01 4.50229794e-01 2.29977608e-01
      1.59975197e-02 4.50229794e-01 4.50229794e-01 4.50229794e-01
      1.36739004e-03 2.53675808e-03 1.22352853e-01 4.78204310e-01
      4.78204310e-01 7.85158128e-02 2.43616313e-01 4.78204310e-01
      4.78204310e-01 3.99731286e-03 3.45548153e-01 3.44651073e-01
      4.80881900e-01 4.80881900e-01 1.28583405e-02 1.30151868e-01
      3.98324132e-01 2.41599113e-01 2.45717749e-01 2.59993467e-02
      2.86132417e-04 2.13328619e-02 1.32331520e-01 6.91696303e-03
      4.21800017e-02 5.69748759e-01 5.69748759e-01 5.69748759e-01
      1.41053617e-01 4.28384662e-01 4.75242704e-01 4.10882175e-01
      4.75242704e-01 7.45683163e-02 2.83706248e-01 2.50154197e-01
      1.50603876e-01 1.73467230e-02 5.65950722e-02 5.66401958e-01
      1.03917792e-01 7.69850984e-02 8.22880641e-02 5.66401958e-01
      5.66401958e-01 7.00679421e-02 5.13308356e-03 1.62213489e-01
      5.21975696e-01 1.45013630e-01 0. 9.57401693e-02 5.21975696e-01
      5.21975696e-01 3.47672999e-01 1.09224590e-02 4.06442493e-01
      4.06442493e-01 4.06442493e-01 4.06442493e-01 6.41713068e-02
      4.06442493e-01 4.06442493e-01 2.30094250e-02 3.72700512e-01
      2.79308170e-01 3.72700512e-01 3.72700512e-01 2.91213602e-01
      4.90720849e-03 3.72700512e-01 3.72700512e-01 3.72700512e-01
      6.29966557e-02 1.33809328e-01 4.92388695e-01 4.92388695e-01
      4.14321868e-04 0. 5.84980547e-02 4.92388695e-01 4.92388695e-01</_>
    <_>
      3.89036089e-02 5.33018053e-01 5.33018053e-01 3.42021734e-02
      3.31023857e-02 9.71643627e-02 5.33018053e-01 3.58969629e-01
      1.65218264e-02 0. 4.82822686e-01 5.47714889e-01 2.77781814e-01 0.
      2.49638468e-01 5.47714889e-01 1.47397071e-01 1.48876989e-02
      1.38501702e-02 1.81809157e-01 4.45546955e-01 4.45546955e-01
      1.43033683e-01 3.84442627e-01 4.45546955e-01 4.45546955e-01 0.
      1.35075301e-02 4.81123537e-01 4.98935908e-01 2.62088887e-02
      1.96102057e-02 8.65353271e-02 4.98935908e-01 4.98935908e-01
      8.93514529e-02 4.92237628e-01 4.92237628e-01 4.92237628e-01
      1.64267365e-02 1.18341185e-02 4.27669972e-01 2.54732460e-01
      1.41011402e-01 1.02899531e-02 0. 8.32819100e-03 2.49845739e-02
      1.30536277e-02 1.19718485e-01 6.71776354e-01 6.71776354e-01
      2.73771584e-01 2.40676664e-02 2.42859393e-01 4.70870495e-01
      4.70870495e-01 2.00999320e-01 1.12786315e-01 1.59924269e-01
      4.70870495e-01 3.80876780e-01 2.17703179e-01 9.48884785e-02
      4.34891075e-01 3.35697979e-01 4.36701626e-01 2.43005291e-01
      4.36701626e-01 4.36701626e-01 2.27203026e-01 4.48642634e-02
      8.95736739e-02 4.03771222e-01 4.03771222e-01 4.03771222e-01
      4.03771222e-01 4.72393669e-02 4.03771222e-01 4.03771222e-01
      8.67427215e-02 9.68187302e-02 3.82364571e-01 3.82364571e-01
      3.82364571e-01 3.82364571e-01 3.25279891e-01 3.82364571e-01
      3.82364571e-01 6.15077801e-02 4.08583850e-01 5.23046732e-01
      7.80343413e-02 1.66327022e-02 8.76965094e-03 5.23046732e-01
      5.23046732e-01 2.56259087e-02 1.51628326e-03 2.93178968e-02 0. 0.
      0. 4.92229044e-01 5.25938869e-01 5.25938869e-01 4.44427580e-01
      2.93178968e-02 1.22660264e-01 5.42766333e-01 4.96367216e-01 0.
      2.20088363e-02 1.31292999e-01 5.42766333e-01 2.65900165e-01
      2.35665292e-01 1.51387870e-01 4.91199166e-01 2.58099765e-01
      3.52573484e-01 1.62890851e-02 2.19982967e-01 4.91199166e-01
      4.91199166e-01 9.36188474e-02 3.02882064e-02 5.36078870e-01
      5.36078870e-01 1.10859990e-01 9.95523110e-03 1.04636483e-01
      5.36078870e-01 3.28949302e-01 6.48113573e-03 4.71256495e-01
      4.71256495e-01 4.71256495e-01 1.61572080e-02 7.01296795e-03
      4.71256495e-01 3.14202338e-01 2.66963616e-02 8.49491134e-02
      9.41131413e-02 2.05552503e-02 5.31762913e-02 0. 6.39273003e-02
      6.66438639e-01 6.66438639e-01 2.44323924e-01 1.70814171e-01
      9.61668044e-03 0. 6.12837784e-02 4.33277674e-02 4.63492692e-01
      6.20181799e-01 6.20181799e-01 6.25573099e-02 9.61668044e-03
      3.73308480e-01 1.73893735e-01 1.11303844e-01 1.10703684e-01
      6.27424791e-02 1.66350171e-01 5.97150445e-01 5.97150445e-01
      2.34539852e-01 7.39192367e-02 4.20688361e-01 3.82631242e-01
      4.36233394e-02 0. 5.48262835e-01 5.48262835e-01 2.48076811e-01
      3.23455259e-02 1.26532316e-02 5.00504911e-01 5.00504911e-01
      4.78394181e-01 1.87557912e-03 6.88864887e-02 4.63244468e-01
      2.12228611e-01 2.41800863e-02 4.33832437e-01 3.50615919e-01
      4.39892709e-02 2.30624247e-03 1.32888174e-02 5.83372951e-01
      5.83372951e-01 1.63538102e-02 6.33726479e-04 0. 2.11121831e-02
      1.98199926e-03 3.66860539e-01 5.14717042e-01 5.14717042e-01
      5.14717042e-01 2.28796884e-01 1.12579122e-01 4.31797564e-01
      4.29985404e-01 5.14781512e-02 4.75337133e-02 4.31797564e-01
      4.31797564e-01 4.31797564e-01 2.21840099e-01 1.04308106e-01
      2.50401706e-01 2.86604464e-01 4.29473400e-01 4.29473400e-01
      2.03968674e-01 4.29473400e-01 4.29473400e-01 2.60244727e-01
      6.12088107e-02 6.70538992e-02 9.35091674e-02 9.76168290e-02 0.
      1.31956274e-02 4.55845118e-01 6.14319265e-01 6.14319265e-01
      9.13886800e-02 4.25178349e-01 4.25178349e-01 4.25178349e-01
      3.80365625e-02 2.37476870e-01 4.25178349e-01 3.39955658e-01
      2.19893735e-02 3.14246595e-01 0. 0. 8.33866186e-03 5.84982447e-02
      4.13471758e-01 6.19427681e-01 6.19427681e-01 2.27850974e-01
      8.21550190e-03 6.49373382e-02 0. 0. 0. 5.02475381e-01
      5.02475381e-01 5.02475381e-01 4.73426044e-01 9.58546475e-02
      3.66016030e-01 3.35308552e-01 3.66016030e-01 3.66016030e-01
      3.66016030e-01 3.06514334e-02 2.81363666e-01 3.66016030e-01
      3.66016030e-01 4.95491200e-04 2.00433582e-02 2.58575737e-01
      5.03032386e-01 1.23545170e-01 3.54280442e-01 5.03032386e-01
      5.03032386e-01 1.66763186e-01 1.37468711e-01 4.39924449e-01
      4.39924449e-01 5.69514968e-02 6.41892701e-02 4.09456976e-02
      4.39924449e-01 4.39924449e-01 4.39924449e-01 3.64169568e-01
      2.31766656e-01 7.02991337e-02 5.28016462e-05 3.63157630e-01
      5.70615649e-01 5.70615649e-01 1.40954420e-01 8.30115750e-03 0. 0.
      0. 0. 2.78223932e-01 6.71317697e-01 6.71317697e-01 1.20642625e-01
      0. 3.50545734e-01 2.56502628e-01 3.50545734e-01 3.50545734e-01
      3.50545734e-01 2.65571117e-01 3.50545734e-01 3.50545734e-01
      3.50545734e-01 4.00723845e-01 1.89237997e-01 4.00723845e-01
      1.91167995e-01 4.00723845e-01 4.00723845e-01 3.24308366e-01
      1.24766037e-01 4.00723845e-01</_>
    <_>
      8.48922729e-02 5.31678796e-01 5.31678796e-01 3.49299870e-02
      1.67829264e-02 5.64781278e-02 4.94858116e-01 4.03917849e-01
      9.69183892e-02 5.96079901e-02 4.85060513e-01 5.43647647e-01
      2.02614784e-01 1.05661526e-02 3.23088795e-01 5.43647647e-01
      1.26452163e-01 5.55674583e-02 2.04226188e-02 2.07999259e-01
      4.17421669e-01 4.17421669e-01 3.01225930e-01 4.17421669e-01
      4.17421669e-01 4.02724087e-01 4.75625247e-02 1.67100169e-02
      4.61318731e-01 5.05512595e-01 4.50821556e-02 1.77305341e-02
      7.00930431e-02 5.05512595e-01 5.05512595e-01 8.92659724e-02
      4.92924899e-01 4.92924899e-01 4.92924899e-01 6.96340483e-03
      9.52922553e-03 4.34201121e-01 2.36123383e-01 1.47010565e-01
      1.07535105e-02 0. 8.21608491e-03 2.46482566e-02 1.31107708e-02
      1.12375148e-01 6.83572292e-01 6.83572292e-01 2.08272055e-01
      4.22060378e-02 2.91701797e-02 5.00319958e-01 5.00319958e-01
      1.30005300e-01 1.12965498e-02 2.58459061e-01 5.00319958e-01
      3.72920424e-01 1.42451078e-01 1.21867940e-01 3.86482328e-01
      3.52041334e-01 3.86482328e-01 3.32427859e-01 3.86482328e-01
      3.86482328e-01 3.86482328e-01 1.68470596e-03 6.84575438e-02
      4.11013514e-01 4.11013514e-01 4.11013514e-01 3.58292699e-01
      1.00419991e-01 4.11013514e-01 4.11013514e-01 8.99404362e-02
      1.16032869e-01 3.73494595e-01 3.73494595e-01 3.73494595e-01
      3.73494595e-01 3.73494595e-01 3.73494595e-01 3.73494595e-01
      7.94819817e-02 3.94800991e-01 5.26366949e-01 8.14925134e-02
      1.29210679e-02 8.15646723e-03 5.26366949e-01 5.26366949e-01
      2.85326950e-02 3.96556512e-04 1.33714065e-01 0. 2.98498315e-03
      4.33259318e-03 3.42917025e-01 5.82773030e-01 5.82773030e-01
      4.01937008e-01 1.33714065e-01 1.21579021e-02 5.50873160e-01
      5.50873160e-01 5.95543608e-02 3.92834004e-03 1.74672842e-01
      5.50873160e-01 2.13840321e-01 6.45515695e-02 5.69390953e-02
      5.31007707e-01 4.31375623e-01 2.96024531e-01 0. 1.12234816e-01
      5.31007707e-01 3.75341505e-01 1.79770645e-02 2.14826949e-02
      5.25426090e-01 5.25426090e-01 1.54503986e-01 2.21582577e-02
      1.71990484e-01 5.25426090e-01 3.34857970e-01 6.20778417e-04
      4.72417980e-01 4.72417980e-01 4.72417980e-01 1.31516261e-02
      8.57359823e-03 4.72417980e-01 3.11998010e-01 3.16682234e-02
      6.30424097e-02 9.50266346e-02 3.30828689e-02 3.92905809e-02
      5.92381693e-02 7.90901706e-02 6.63376987e-01 6.63376987e-01
      2.86501527e-01 9.86070707e-02 0. 0. 2.33451705e-02 1.63773447e-01
      5.11935651e-01 5.72975218e-01 5.72975218e-01 2.19618842e-01 0.
      2.63820440e-01 2.08763227e-01 1.41217202e-01 4.68642302e-02
      9.72826686e-03 1.31709918e-01 6.56447113e-01 5.87365866e-01
      2.54481584e-01 1.02773227e-01 4.77293342e-01 1.84666991e-01
      1.78534479e-03 1.97920781e-02 5.79163969e-01 5.79163969e-01
      2.20767081e-01 4.18196283e-02 1.34431547e-03 5.06774545e-01
      5.06774545e-01 5.06774545e-01 0. 1.39915392e-01 3.53591114e-01
      2.80316234e-01 3.59915383e-02 4.24442261e-01 3.54010850e-01
      4.06502336e-02 8.89005431e-04 3.31616066e-02 5.85581958e-01
      5.85581958e-01 7.32331723e-03 7.67604122e-03 2.84680054e-02
      3.49631123e-02 1.14694238e-01 6.87843189e-02 5.64775705e-01
      5.64775705e-01 5.64775705e-01 1.25074133e-01 4.33934517e-02
      3.79981458e-01 3.79981458e-01 3.58890176e-01 2.59704348e-02
      3.79981458e-01 3.79981458e-01 3.79981458e-01 3.79981458e-01
      2.02928875e-02 4.28227991e-01 3.09586655e-02 4.32942063e-01
      4.32942063e-01 9.41839442e-02 4.32942063e-01 4.32942063e-01
      1.98313221e-01 1.15687251e-01 9.81756896e-02 4.62497920e-02
      6.64611310e-02 0. 1.01938425e-02 3.78076106e-01 6.21904194e-01
      6.21904194e-01 2.47024134e-01 4.28082854e-01 4.28082854e-01
      4.28082854e-01 2.60675494e-02 2.46639431e-01 4.28082854e-01
      3.51913810e-01 2.92350799e-02 2.76578248e-01 3.06097940e-02 0. 0.
      0. 3.40002716e-01 6.47915781e-01 6.47915781e-01 1.74868837e-01
      8.26059207e-02 5.71468957e-02 1.06457114e-01 4.01353315e-02
      4.35499251e-02 4.94182676e-01 4.94182676e-01 4.94182676e-01
      4.94182676e-01 9.58603621e-03 2.24700466e-01 3.77490550e-01
      3.77490550e-01 3.77490550e-01 3.77490550e-01 2.22127527e-01
      2.03477457e-01 3.77490550e-01 3.77490550e-01 0. 2.95008160e-02
      3.47288638e-01 4.63336617e-01 1.19348459e-01 4.63336617e-01
      4.63336617e-01 4.63336617e-01 3.04119959e-02 1.38991132e-01
      4.22342360e-01 4.22342360e-01 3.61661501e-02 9.56862718e-02
      2.72274256e-01 4.22342360e-01 4.22342360e-01 4.22342360e-01
      3.63925219e-01 2.43751630e-01 6.15247302e-02 0. 3.49367231e-01
      5.71099579e-01 5.71099579e-01 1.55288011e-01 1.31964944e-02 0. 0.
      0. 0. 1.85297668e-01 6.69485629e-01 6.69485629e-01 2.50118077e-01
      0. 2.25183338e-01 2.72841245e-01 3.52810174e-01 3.52810174e-01
      3.52810174e-01 3.52810174e-01 3.52810174e-01 3.52810174e-01
      3.52810174e-01 3.39346856e-01 1.26985565e-01 3.91586185e-01
      3.91586185e-01 3.91586185e-01 1.54196739e-01 2.72637427e-01
      3.91586185e-01 3.91586185e-01</_>
    <_>
      4.81021613e-01 4.81021613e-01 4.81021613e-01 1.59041062e-01
      9.65606347e-02 5.93035407e-02 4.81021613e-01 1.75089538e-01
      2.96168420e-02 0. 4.12616551e-01 5.37638009e-01 3.53037208e-01 0.
      2.88118869e-01 5.37638009e-01 1.96523175e-01 0. 3.43117230e-02
      4.08689022e-01 4.08689022e-01 4.08689022e-01 4.08689022e-01
      1.84492588e-01 4.08689022e-01 3.54356974e-01 0. 7.47556835e-02
      4.94761318e-01 4.94761318e-01 2.87399609e-02 1.26876337e-02
      3.14765759e-02 4.94761318e-01 4.94761318e-01 9.13095102e-02
      5.03669560e-01 5.03669560e-01 5.03669560e-01 9.73914191e-02 0.
      3.52176875e-01 2.89842427e-01 1.25133500e-01 2.72028651e-02
      1.55876819e-02 3.69130224e-02 5.00547215e-02 0. 8.54726136e-02
      6.83198452e-01 6.83198452e-01 2.19337642e-01 1.15664275e-02
      6.58062100e-02 5.39761245e-01 5.39761245e-01 0. 3.70897166e-03
      4.35210504e-02 5.39761245e-01 2.83194214e-01 1.84785724e-01
      1.90056413e-01 3.94242913e-01 3.94242913e-01 3.94242913e-01
      3.94242913e-01 3.94242913e-01 3.94242913e-01 7.60298595e-02
      1.46951661e-01 1.89906508e-01 3.95032227e-01 3.95032227e-01
      3.59364957e-01 3.95032227e-01 3.95032227e-01 3.95032227e-01
      1.19615488e-01 1.90488398e-01 1.63336918e-02 3.20710123e-01
      4.09594834e-01 4.09594834e-01 4.09594834e-01 2.10071191e-01
      4.09594834e-01 4.09594834e-01 9.90813300e-02 4.23210233e-01
      5.19767165e-01 6.68115765e-02 1.38349859e-02 2.06627436e-02
      5.19767165e-01 5.19767165e-01 1.20946597e-02 0. 0. 4.75465233e-04
      1.42639561e-03 0. 5.17858386e-01 4.33819294e-01 5.17858386e-01
      5.17858386e-01 4.57697921e-02 1.54636741e-01 5.06725967e-01
      5.06725967e-01 2.09986314e-01 7.75979552e-03 1.74220279e-01
      5.06725967e-01 3.41465652e-01 9.80153605e-02 1.47232011e-01
      4.57067162e-01 2.96827137e-01 1.14413090e-01 7.81044066e-02
      4.57067162e-01 4.57067162e-01 4.57067162e-01 1.75552964e-01
      3.24817672e-02 4.47075754e-01 4.47075754e-01 3.04958194e-01
      2.63589084e-01 1.77682579e-01 4.47075754e-01 4.47075754e-01
      3.03736478e-02 4.72956240e-01 4.72956240e-01 4.72956240e-01
      7.37206936e-02 4.34478074e-02 4.72956240e-01 2.93972939e-01
      8.05005655e-02 1.73964035e-02 1.29918218e-01 2.71018073e-02
      6.35044184e-03 1.26675414e-02 7.53043815e-02 6.75593734e-01
      6.75593734e-01 2.22145662e-01 8.69953632e-02 8.71458799e-02
      1.32093132e-01 5.33621423e-02 3.74351621e-01 5.08163631e-01
      5.08163631e-01 5.08163631e-01 2.28024140e-01 1.44761875e-02
      4.44768339e-01 3.70338023e-01 6.60210624e-02 0. 6.76394552e-02
      4.56568003e-01 4.56568003e-01 4.56568003e-01 1.61782235e-01
      1.39256835e-01 2.89083809e-01 2.52132565e-01 2.16214582e-02 0.
      5.60796142e-01 5.60796142e-01 4.45151120e-01 1.59877446e-02
      7.73117766e-02 4.11861181e-01 5.08489728e-01 5.08489728e-01
      1.09781902e-02 4.26466241e-02 5.08489728e-01 2.04157010e-01
      3.19107040e-03 3.97458971e-01 4.16441500e-01 3.80573384e-02
      2.63837050e-03 3.91321667e-02 5.72649419e-01 5.72649419e-01
      6.35007694e-02 3.28515610e-03 0. 0. 9.39122215e-03 2.09414046e-02
      5.73121488e-01 5.73121488e-01 5.73121488e-01 9.13534835e-02 0.
      2.86128610e-01 2.81729996e-01 4.36965376e-01 0. 4.36965376e-01
      4.36965376e-01 4.36965376e-01 2.49109596e-01 9.26461071e-02
      1.46635532e-01 3.36751074e-01 4.09925193e-01 4.08644289e-01
      2.16630876e-01 4.09925193e-01 4.09925193e-01 3.73990804e-01
      5.56563362e-02 3.10505535e-02 9.40940157e-02 2.16296390e-01
      1.87954996e-02 3.02036898e-03 3.63286704e-01 6.31750286e-01
      6.31750286e-01 8.08341280e-02 4.36706692e-01 4.36706692e-01
      4.36706692e-01 2.52251588e-02 2.47686923e-01 4.36706692e-01
      2.85543263e-01 8.85977522e-02 2.85336912e-01 0. 0. 5.24301548e-03
      3.67813446e-02 1.32867932e-01 6.78290129e-01 6.78290129e-01
      2.24555224e-01 6.01186007e-02 1.63151950e-01 1.10602647e-01
      1.10093944e-01 2.56401300e-01 4.56955254e-01 4.56955254e-01
      4.56955254e-01 4.56955254e-01 2.08541438e-01 3.59136194e-01
      3.59136194e-01 3.59136194e-01 3.59136194e-01 3.59136194e-01
      3.33974451e-01 3.34301084e-01 2.08196044e-01 2.91335136e-01
      2.62720995e-02 5.63558601e-02 3.58771741e-01 4.50681448e-01
      2.19629064e-01 4.50681448e-01 4.50681448e-01 4.50681448e-01
      4.71483655e-02 4.35367107e-01 4.35367107e-01 4.35367107e-01
      1.61189865e-02 3.43802683e-02 1.53088704e-01 4.35367107e-01
      4.35367107e-01 1.51823893e-01 2.68341690e-01 2.88454294e-01
      7.47531429e-02 3.62881838e-04 3.42978865e-01 5.87210476e-01
      5.87210476e-01 8.38795081e-02 1.37959167e-01 0. 0. 0. 0.
      4.16838318e-01 6.01887763e-01 6.01887763e-01 3.09351325e-01 0.
      3.19110245e-01 4.02412802e-01 4.02412802e-01 1.03267655e-01
      3.84260863e-01 4.02412802e-01 4.02412802e-01 2.19679326e-01
      1.99561432e-01 4.22819287e-01 1.73821032e-01 4.22819287e-01
      1.12330392e-01 4.22819287e-01 0. 4.22819287e-01 2.43030071e-01
      4.22819287e-01</_>
    <_>
      5.69095790e-01 7.29644031e-04 5.09236194e-03 7.91656226e-02
      5.69095790e-01 8.05291608e-02 1.85043421e-02 9.79082659e-02
      5.69095790e-01 3.80804986e-01 3.80804986e-01 3.80804986e-01
      2.81961411e-01 3.45586628e-01 3.80804986e-01 3.80804986e-01
      1.19329095e-02 2.68437415e-01 0. 0. 4.72750179e-02 1.45255178e-01
      4.88036126e-01 5.95527470e-01 5.95527470e-01 1.52428418e-01 0.
      4.18565899e-01 4.18565899e-01 4.18565899e-01 0. 1.09416515e-01
      4.18565899e-01 4.18565899e-01 9.31991860e-02 3.14918518e-01
      5.43164611e-01 5.43164611e-01 2.45400041e-01 9.19583589e-02
      1.56790152e-01 3.11187863e-01 3.93850923e-01 2.04301253e-01
      1.32529661e-01 4.32055086e-01 4.32055086e-01 4.07106817e-01
      3.73843610e-01 4.06839475e-02 0. 1.59575254e-01 3.21021527e-01
      4.32055086e-01 4.29552555e-01 4.29552555e-01 4.29552555e-01
      2.03532666e-01 1.02737352e-01 1.73615679e-01 4.29552555e-01
      2.78376013e-01 3.13099921e-01 1.46736979e-01 6.92432895e-02
      2.12198589e-02 0. 3.22143018e-01 6.52732790e-01 6.52732790e-01
      8.91798362e-02 5.34548461e-02 3.33750956e-02 2.65208870e-01
      5.00252903e-01 5.00252903e-01 3.40373993e-01 2.54258275e-01
      3.29623103e-01 3.05687547e-01 2.01122642e-01 4.56720322e-01
      4.56720322e-01 4.56720322e-01 9.17860214e-03 3.39156836e-01
      1.51818037e-01 9.91463512e-02 1.14341475e-01 4.56720322e-01
      4.37675387e-01 4.37675387e-01 4.37675387e-01 4.37675387e-01 0.
      5.86926192e-03 1.80323526e-01 7.26521239e-02 4.37675387e-01
      4.45045292e-01 4.45045292e-01 4.18626606e-01 1.51478395e-01 0.
      6.04890287e-02 3.79518270e-02 4.45045292e-01 4.45045292e-01
      2.11766794e-01 4.53587294e-01 7.90787339e-02 0. 3.49379033e-01
      5.26677728e-01 5.26677728e-01 2.46359214e-01 1.90447401e-02
      2.15373784e-02 7.80013874e-02 2.53036499e-01 1.33517593e-01
      5.45115411e-01 5.45115411e-01 5.45115411e-01 1.14377238e-01
      4.02397029e-02 1.13830671e-01 4.87577111e-01 4.87577111e-01
      4.87577111e-01 1.03044352e-02 2.14637863e-03 8.83490890e-02
      4.87577111e-01 1.52743995e-01 5.71806133e-01 5.71806133e-01
      1.14451461e-01 0. 0. 0. 1.65403876e-02 5.51346317e-03
      5.71806133e-01 5.76369643e-01 5.76369643e-01 3.77766997e-01
      4.86517102e-02 5.99952228e-02 4.86517251e-02 6.93506980e-03
      1.38679249e-02 4.22562510e-01 4.86918747e-01 4.86918747e-01
      1.76762819e-01 0. 3.97114784e-01 1.62906915e-01 1.42471030e-01
      2.19283730e-01 4.86918747e-01 6.47895560e-02 3.66574407e-01
      3.92960310e-01 3.92960310e-01 3.87569338e-01 2.68612862e-01
      3.92960310e-01 3.92960310e-01 1.32157907e-01 5.53091943e-01
      5.53091943e-01 2.70589203e-01 0. 0. 1.42616360e-03 1.02372579e-02
      5.84749915e-02 5.53091943e-01 3.46189290e-02 3.12465996e-01
      4.96683687e-01 2.88822949e-01 0. 0. 2.69635141e-01 4.96683687e-01
      4.96683687e-01 4.61894602e-01 4.61894602e-01 4.61894602e-01
      7.22914189e-02 0. 2.36190576e-02 1.27776101e-01 3.46250385e-01
      4.61894602e-01 3.76594305e-01 3.15564185e-01 3.76594305e-01
      3.76594305e-01 2.69090801e-01 1.50096893e-01 3.76594305e-01
      3.04305077e-01 3.76594305e-01 4.55900908e-01 2.19452426e-01
      1.07758097e-01 9.59899426e-02 2.54531354e-01 2.13057593e-01
      4.39026594e-01 4.55900908e-01 4.55900908e-01 2.18835369e-01
      4.27886486e-01 4.27886486e-01 5.35473041e-02 4.27886486e-01
      1.45717740e-01 4.27886486e-01 4.27886486e-01 9.11134630e-02
      4.73936647e-01 4.73936647e-01 4.26105112e-01 0. 1.55021157e-02 0.
      0. 3.73647481e-01 4.73936647e-01 1.31266594e-01 2.38641024e-01
      3.21343333e-01 2.36019552e-01 6.20389692e-02 2.21244944e-03
      5.73194921e-01 5.73194921e-01 3.16497386e-01 3.44912410e-01
      3.75117540e-01 3.75117540e-01 3.75117540e-01 3.75117540e-01
      2.19455078e-01 1.58838734e-01 3.25315684e-01 3.67715389e-01
      9.63255689e-02 4.04747218e-01 2.48356298e-01 1.69303626e-01
      4.04747218e-01 4.04747218e-01 2.77906626e-01 4.04747218e-01
      4.04747218e-01 3.14171135e-01 2.63121367e-01 2.25079700e-01
      3.91808987e-01 3.91808987e-01 3.91808987e-01 3.91808987e-01
      3.35100472e-01 2.26139501e-01 4.35504586e-01 3.08003843e-01
      4.35504586e-01 3.39283645e-01 8.64766464e-02 2.01111570e-01
      4.00655359e-01 1.02467626e-01 4.32889253e-01 4.22786385e-01
      2.97590464e-01 4.22786385e-01 4.22786385e-01 7.67096803e-02
      4.10883687e-03 8.70262235e-02 4.22786385e-01 4.22786385e-01
      6.40539080e-02 1.04182482e-01 5.21228164e-02 2.35217586e-02
      3.66574287e-01 1.79046504e-02 6.33768678e-01 6.33768678e-01
      1.93449527e-01 7.69147277e-02 6.21675909e-01 6.21675909e-01
      3.36769760e-01 1.72404513e-01 1.28929764e-01 1.20203979e-01
      1.35456949e-01 1.49524629e-01 3.66979599e-01 2.46822953e-01
      3.38885456e-01 1.11913070e-01 3.66979599e-01 3.66979599e-01
      3.66979599e-01 3.66979599e-01 3.66979599e-01 4.04816300e-01
      1.23112328e-01 2.16389477e-01 2.33241975e-01 4.04816300e-01
      2.45340258e-01 4.04816300e-01 4.04816300e-01 4.04816300e-01</_>
    <_>
      1.95238620e-01 4.98039097e-01 4.98039097e-01 2.89110780e-01
      3.36178839e-02 2.95447230e-01 4.98039097e-01 1.39344901e-01
      1.46142006e-01 0. 3.41817528e-01 5.23551404e-01 8.82139727e-02 0.
      2.18706235e-01 5.23551404e-01 5.23551404e-01 0. 1.38656273e-01
      3.78662080e-01 4.16849673e-01 4.16849673e-01 2.32860938e-01
      2.89721131e-01 4.16849673e-01 4.16849673e-01 2.86594336e-03
      2.85878219e-02 4.49343503e-01 5.02459109e-01 1.46186799e-02
      1.16245414e-03 1.81051627e-01 5.02459109e-01 5.02459109e-01
      4.31824960e-02 4.96032000e-01 4.96032000e-01 3.92328829e-01
      1.72647052e-02 0. 4.96032000e-01 3.16560537e-01 4.83429655e-02
      1.16183050e-02 0. 1.74745626e-03 8.39806534e-03 6.26824200e-02
      4.61685091e-01 5.78393400e-01 5.78393400e-01 3.28583717e-01
      4.86025400e-03 1.95788592e-01 4.13633406e-01 4.13633406e-01
      4.13633406e-01 9.02696252e-02 4.13633406e-01 4.13633406e-01
      2.15306461e-01 2.18097359e-01 4.36478630e-02 4.32717055e-01
      4.32717055e-01 1.38692439e-01 4.32717055e-01 4.32717055e-01
      4.32717055e-01 1.77150115e-01 8.32736939e-02 3.45314950e-01
      3.73636454e-01 3.73636454e-01 3.73636454e-01 3.73636454e-01
      3.73636454e-01 1.94657862e-01 3.88302915e-02 3.73636454e-01
      1.78271592e-01 3.55707973e-01 3.55707973e-01 3.55707973e-01
      3.55707973e-01 3.55707973e-01 3.55707973e-01 3.55707973e-01
      2.81012565e-01 2.77285278e-01 4.09861296e-01 4.88070659e-02
      4.57663275e-03 2.13716775e-02 6.09107673e-01 6.09107673e-01
      6.43808171e-02 3.96695687e-03 2.76522129e-03 0. 9.07253381e-03
      6.36465773e-02 2.07250029e-01 5.73907554e-01 5.73907554e-01
      5.15214145e-01 1.51626214e-01 1.19237259e-01 5.61619699e-01
      1.62641332e-01 2.22029332e-02 0. 7.90089741e-02 5.61619699e-01
      5.61619699e-01 2.71376502e-02 9.41215530e-02 4.69657689e-01
      2.31294140e-01 1.15475440e-02 2.34671861e-01 4.95022655e-01
      5.70947051e-01 2.38283768e-01 1.68384045e-01 1.48938581e-01
      4.52054471e-01 4.52054471e-01 3.90876710e-01 1.61917713e-02
      3.76421288e-02 4.52054471e-01 4.52054471e-01 3.77515480e-02
      4.57706600e-01 4.57706600e-01 4.57706600e-01 1.91277117e-02
      5.56276515e-02 4.57706600e-01 3.92192990e-01 1.28933517e-02
      2.23193737e-03 2.10601930e-02 0. 5.05577656e-04 3.54678091e-03
      4.88217264e-01 5.72654843e-01 5.72654843e-01 2.83534348e-01
      1.38601243e-01 6.12515397e-02 5.83790466e-02 1.75137147e-01 0.
      5.31994641e-01 5.31994641e-01 5.31994641e-01 2.98811555e-01
      1.36054978e-01 6.71534240e-02 2.37577617e-01 1.46886125e-01
      1.13539413e-01 1.53288081e-01 4.89634186e-01 4.89634186e-01
      4.89634186e-01 3.96191955e-01 2.44401172e-02 1.04735941e-01
      1.92841411e-01 6.16305545e-02 0. 3.01581204e-01 6.42203510e-01
      6.42203510e-01 1.58850297e-01 1.27097800e-01 5.40231168e-01
      5.40231168e-01 5.40231168e-01 7.43282363e-02 1.09553874e-01
      2.89193898e-01 4.09761071e-02 7.94217922e-03 2.97897488e-01
      2.18903780e-01 2.82274596e-02 0. 9.76100862e-02 6.47554100e-01
      6.47554100e-01 7.94321373e-02 3.98328826e-02 5.39995320e-02
      3.43702659e-02 7.69400671e-02 1.18780226e-01 5.18406391e-01
      5.18406391e-01 5.18406391e-01 4.04474109e-01 2.93596331e-02
      3.49813640e-01 1.32470429e-01 3.49813640e-01 3.49813640e-01
      3.49813640e-01 3.49813640e-01 3.49813640e-01 3.49813640e-01
      3.49813640e-01 1.10861145e-01 3.36866051e-01 5.58468521e-01
      1.58560514e-01 5.36887161e-02 3.85201275e-01 5.58468521e-01
      2.46573359e-01 8.76228139e-02 1.23207094e-02 2.33848691e-01
      5.30113637e-01 1.35025010e-01 1.20546175e-02 2.41665557e-01
      5.30113637e-01 5.30113637e-01 1.41520903e-01 4.64002371e-01
      4.64002371e-01 3.25765163e-01 1.99970533e-03 1.42139375e-01
      4.64002371e-01 4.64002371e-01 2.94114240e-02 8.35284367e-02 0. 0.
      0. 0. 4.16521877e-01 6.12112939e-01 6.12112939e-01 2.66520917e-01
      0. 0. 2.28189528e-02 8.10898989e-02 3.12430799e-01 4.71120685e-01
      4.71120685e-01 4.71120685e-01 4.71120685e-01 5.25963791e-02
      3.41385752e-01 4.42885786e-01 1.86061487e-01 1.97229877e-01
      4.42885786e-01 4.42885786e-01 4.42885786e-01 1.43135279e-01
      2.08433270e-02 1.21188961e-01 1.87220529e-01 2.87345201e-01
      4.08266366e-01 4.08266366e-01 4.08266366e-01 4.08266366e-01
      4.08266366e-01 1.73807129e-01 4.32103366e-01 4.32103366e-01
      4.32103366e-01 5.28531633e-02 3.38935107e-02 1.76231917e-02
      4.32103366e-01 4.32103366e-01 2.40549818e-01 2.03498870e-01
      1.48092315e-01 2.07995735e-02 0. 1.67908460e-01 6.65618181e-01
      6.65618181e-01 1.00389086e-01 7.21996054e-02 0. 0. 0.
      2.50846386e-01 5.13720393e-01 5.41583538e-01 5.41583538e-01
      2.84192324e-01 1.91856734e-02 4.13338095e-01 1.63613528e-01
      2.86985666e-01 4.03789908e-01 4.13338095e-01 1.09529071e-01
      4.13338095e-01 4.13338095e-01 1.68238908e-01 3.81446749e-01
      3.81446749e-01 2.63817638e-01 3.10642481e-01 3.81446749e-01
      7.78315067e-02 3.81446749e-01 3.10684621e-01 3.81446749e-01</_>
    <_>
      1.42303005e-01 4.46687371e-01 4.46687371e-01 2.49934047e-02
      3.54223490e-01 1.18762806e-01 4.46687371e-01 4.46687371e-01
      1.92265719e-01 1.64728895e-01 4.65168923e-01 4.65168923e-01
      2.66063392e-01 1.54467046e-01 4.65168923e-01 4.65168923e-01
      8.86316746e-02 1.35805830e-02 1.07083078e-02 1.93223074e-01
      4.80816752e-01 4.80816752e-01 2.59493649e-01 3.00079845e-02
      3.48931551e-01 4.80816752e-01 2.72401869e-01 1.23392634e-01
      6.57006800e-02 7.97589719e-02 4.42357510e-02 8.15189704e-02
      6.18858710e-02 5.64513683e-01 5.64513683e-01 5.64513683e-01
      1.39016062e-01 4.93670285e-01 4.93670285e-01 0. 0. 1.22900051e-03
      4.93670285e-01 4.93670285e-01 3.00184134e-02 4.65243340e-01
      1.78287238e-01 3.03104147e-02 1.01820007e-01 2.66436130e-01
      1.24446712e-01 4.65243340e-01 4.65243340e-01 4.65243340e-01
      2.32277550e-02 0. 0. 0. 8.77218619e-02 2.41266131e-01
      6.66329443e-01 6.66329443e-01 1.97266325e-01 2.19946206e-02
      2.59852499e-01 5.21862924e-01 2.75418103e-01 1.82847977e-01
      2.04608552e-02 5.21862924e-01 5.21862924e-01 7.15006283e-03
      2.34952420e-01 4.32911485e-01 4.32911485e-01 1.00103691e-01
      1.87730286e-02 4.08854485e-01 4.32911485e-01 4.32911485e-01
      1.15274690e-01 1.23765869e-02 1.48934163e-02 3.39603662e-01
      4.99249786e-01 2.29870290e-01 2.00948515e-03 2.80557573e-01
      4.99249786e-01 4.99249786e-01 5.29221475e-01 1.73399389e-01
      4.07909788e-02 0. 3.37204486e-02 0. 3.48741055e-01 5.29221475e-01
      5.29221475e-01 3.37094694e-01 1.80618018e-01 3.12255859e-01
      3.04490656e-01 1.53956950e-01 6.82647526e-02 4.58469868e-01
      4.58469868e-01 4.58469868e-01 2.47524660e-02 2.41454929e-01
      4.62490529e-01 1.46719843e-01 4.62490529e-01 2.38753170e-01
      4.62490529e-01 4.62490529e-01 4.84522730e-02 2.96926022e-01
      1.97247073e-01 4.43219244e-01 1.13037199e-01 7.67000467e-02
      4.43219244e-01 4.43219244e-01 4.43219244e-01 2.53115982e-01
      1.60096869e-01 3.79289806e-01 3.79289806e-01 3.79289806e-01
      3.79289806e-01 3.76381427e-01 3.79289806e-01 3.23082238e-01
      7.23250955e-02 7.50914542e-03 2.93154567e-01 5.22544205e-01
      5.22544205e-01 1.26100808e-01 1.97115242e-02 1.98655531e-01
      5.22544205e-01 1.84048906e-01 1.05727743e-02 4.07476723e-03
      2.13146973e-02 1.30328476e-01 9.97124426e-03 1.23927603e-02
      5.70520759e-01 5.70520759e-01 5.70520759e-01 4.50041771e-01
      1.36444103e-02 0. 0. 3.98138583e-01 1.63259402e-01 4.50041771e-01
      4.50041771e-01 4.50041771e-01 9.11670849e-02 2.89297439e-02 0. 0.
      9.24329013e-02 1.80194393e-01 6.68144405e-01 6.68144405e-01
      2.24351555e-01 7.67882019e-02 4.15488869e-01 4.31449622e-01
      1.72022969e-01 3.68957877e-01 2.79220164e-01 4.31449622e-01
      4.31449622e-01 1.22599758e-01 1.45022660e-01 1.53640315e-01
      4.42381531e-01 1.11020073e-01 1.61966488e-01 3.59972119e-01
      4.42381531e-01 4.42381531e-01 4.42381531e-01 1.32886451e-02
      7.57386312e-02 5.32956958e-01 3.60203944e-02 0. 6.03229664e-02
      5.32956958e-01 5.32956958e-01 3.62903625e-01 0. 5.17739058e-02
      3.88787180e-01 5.17383754e-01 8.15872401e-02 8.30667745e-03
      1.76673591e-01 5.17383754e-01 5.17383754e-01 4.44064915e-01
      9.77836177e-02 8.62267911e-02 2.78779626e-01 2.90733963e-01
      1.19688869e-01 4.48982209e-01 4.48982209e-01 4.48982209e-01
      3.64304706e-02 5.10805566e-03 1.53241660e-02 0. 5.93295731e-02
      4.93249595e-01 5.77076912e-01 5.77076912e-01 2.82486856e-01
      6.50124103e-02 9.25295949e-02 5.62815309e-01 1.20629057e-01 0.
      2.37405319e-02 5.62815309e-01 5.62815309e-01 1.27252385e-01
      3.33172902e-02 3.96208018e-01 4.70108330e-01 1.33787423e-01
      1.31368518e-01 3.41046125e-01 4.70108330e-01 4.70108330e-01
      1.50794089e-01 5.04134223e-04 1.42737895e-01 4.53792423e-01
      4.53792423e-01 3.71459126e-03 3.89016956e-01 4.53792423e-01
      4.53792423e-01 5.88317867e-03 3.39024544e-01 3.61015528e-01
      4.32235062e-01 4.32235062e-01 1.35359997e-02 1.26936585e-01
      4.32235062e-01 3.80230218e-01 1.70469269e-01 2.54567098e-02
      6.06837403e-03 6.44746199e-02 1.65443718e-01 3.39006598e-04
      4.26553972e-02 5.48843145e-01 5.80001950e-01 5.67929745e-01
      2.92480111e-01 4.44687128e-01 4.44687128e-01 3.64920110e-01
      4.44687128e-01 2.00081512e-01 2.02409431e-01 2.49174327e-01
      2.01288030e-01 0. 2.26199850e-01 5.58573306e-01 0. 6.04058690e-02
      5.98702170e-02 5.58573306e-01 5.58573306e-01 3.15293367e-03
      1.34600371e-01 3.55896920e-01 3.81980181e-01 1.08099051e-01
      5.48572429e-02 2.62714118e-01 4.99988228e-01 4.99988228e-01
      3.47315073e-01 1.33812763e-02 1.55764699e-01 4.87500280e-01
      4.87500280e-01 1.36458650e-01 3.18699665e-02 4.87500280e-01
      4.87500280e-01 2.06509139e-02 3.93969506e-01 1.77432001e-01
      4.01789188e-01 4.01789188e-01 1.84266679e-02 4.21874039e-02
      4.01789188e-01 4.01789188e-01 4.01789188e-01 9.56530645e-02
      2.04794616e-01 4.92889553e-01 4.92889553e-01 1.09248656e-04 0.
      6.81126192e-02 4.92889553e-01 4.58832443e-01</_>
    <_>
      2.07393281e-02 5.90479262e-02 5.35656154e-01 2.77625918e-01
      7.78265819e-02 7.53703788e-02 5.35656154e-01 5.35656154e-01
      2.02823967e-01 0. 8.16572607e-02 5.20006418e-01 5.20006418e-01
      5.20006418e-01 4.14222896e-01 7.29163289e-02 4.62361565e-03 0.
      6.91644773e-02 6.34762868e-02 4.68862057e-01 4.68862057e-01
      4.68862057e-01 4.58086878e-01 2.28206292e-01 2.21604303e-01
      1.26407921e-01 1.39458310e-02 1.78446457e-01 5.90202749e-01
      5.90202749e-01 8.81725084e-03 0. 2.35685647e-01 4.55607712e-01
      4.67623807e-02 1.40581250e-01 1.79092377e-01 3.83257478e-01
      3.83257478e-01 3.83257478e-01 3.83257478e-01 2.51030326e-01
      3.83257478e-01 3.83257478e-01 4.42886651e-01 4.29454535e-01
      4.11166459e-01 1.15691051e-02 4.42886651e-01 4.42886651e-01
      1.21920079e-01 1.23208808e-02 1.96192026e-01 1.54621527e-02
      3.36904568e-03 6.01917244e-02 4.45696451e-02 4.56736498e-02
      1.55378297e-01 5.66349804e-01 5.66349804e-01 5.66349804e-01
      1.11713354e-02 8.24047700e-02 5.18303216e-01 5.84003925e-01
      5.84003925e-01 0. 4.01113778e-02 1.85905606e-01 1.79983862e-02
      7.65391812e-03 4.04229350e-02 5.64777374e-01 5.77007771e-01
      5.77007771e-01 8.68505239e-02 1.23801241e-02 0. 0. 0.
      8.81064031e-03 4.98373181e-01 4.98373181e-01 2.48999763e-02
      1.77275240e-02 4.98373181e-01 4.98373181e-01 2.25226805e-02
      1.64382219e-01 4.78826433e-01 4.78826433e-01 4.78826433e-01
      4.78826433e-01 0. 1.21099271e-01 1.00098565e-01 1.62518576e-01
      2.95424491e-01 3.91909689e-01 2.86392391e-01 3.91909689e-01
      3.91909689e-01 3.91909689e-01 3.91909689e-01 7.16042295e-02
      2.31722698e-01 9.30777844e-03 2.65624881e-01 4.08208609e-01
      3.96458954e-01 3.53141159e-01 1.46239236e-01 3.57308745e-01
      4.08208609e-01 4.01330978e-01 1.23893349e-02 2.00008322e-02
      1.56666394e-02 0. 1.79899926e-03 0. 4.89940196e-01 6.13608122e-01
      6.13608122e-01 1.71676818e-02 3.28996360e-01 4.69326228e-01
      4.69326228e-01 4.69326228e-01 4.69326228e-01 7.15419650e-02
      1.37106543e-02 2.01086793e-02 0. 1.20932944e-02 4.97883320e-01
      4.97883320e-01 4.53498773e-02 3.56834829e-02 4.97883320e-01
      4.97883320e-01 0. 1.35701135e-01 1.89943254e-01 4.93150443e-01
      4.93150443e-01 4.85934883e-01 4.03727382e-01 2.19957992e-01
      3.59907188e-02 7.33578876e-02 1.14582002e-01 1.13459699e-01
      3.37536901e-01 4.38497066e-01 4.38497066e-01 4.38497066e-01
      2.50906259e-01 3.54802400e-01 3.00014704e-01 5.24180047e-02
      4.19820994e-01 4.19820994e-01 2.41281092e-01 1.48288131e-01
      1.77776262e-01 4.19820994e-01 4.19820994e-01 4.19820994e-01
      4.49813157e-03 6.15878170e-03 1.45785302e-01 5.51625006e-02
      2.56123900e-01 7.04262331e-02 5.47606230e-01 5.47606230e-01
      5.47606230e-01 2.34489903e-01 0. 0. 0. 0. 8.03548191e-03
      3.98222357e-01 6.24553084e-01 6.24553084e-01 9.44346413e-02
      2.75740512e-02 1.13948546e-01 2.58201987e-01 1.33202463e-01
      4.59474534e-01 5.74006617e-01 5.74006617e-01 1.30807266e-01
      1.04535455e-02 4.24813002e-01 5.72539747e-01 5.72539747e-01
      3.74120593e-01 1.34668961e-01 0. 0. 1.43832166e-03 3.50429490e-02
      1.54346928e-01 5.55360973e-01 5.55360973e-01 5.55360973e-01
      1.47624686e-01 1.41303554e-01 4.00867835e-02 2.75550503e-02
      4.86052483e-01 1.84507221e-01 3.00347991e-02 5.99738993e-02
      4.86052483e-01 4.86052483e-01 8.60906094e-02 6.48387820e-02
      4.86052483e-01 3.63175958e-01 3.63175958e-01 3.63175958e-01
      3.63175958e-01 3.63175958e-01 2.62737751e-01 6.37417957e-02
      3.63175958e-01 3.63175958e-01 2.60573048e-02 0. 0. 0. 0. 0.
      5.68779588e-01 5.78805268e-01 5.78805268e-01 1.79933533e-01
      1.01625361e-02 3.76246162e-02 5.00683077e-02 1.54616416e-01
      6.43735528e-02 5.56772828e-01 5.56772828e-01 5.56772828e-01
      6.12592101e-02 1.54755980e-01 6.59196675e-01 6.59196675e-01
      1.11024000e-01 5.60085010e-03 1.02933079e-01 2.66430378e-01
      5.19435070e-02 2.73864754e-02 3.24171126e-01 5.38334548e-01
      5.38334548e-01 5.38334548e-01 7.77420774e-02 0. 2.02153213e-02
      1.13675386e-01 4.29988235e-01 1.98291570e-01 4.29988235e-01
      2.54685041e-02 1.73677698e-01 3.35117914e-02 4.29988235e-01
      4.29988235e-01 4.29988235e-01 1.66703209e-01 5.64801633e-01
      5.64801633e-01 3.09672236e-01 9.78586177e-05 2.81784055e-03
      2.07703888e-01 4.34859574e-01 2.04834267e-02 7.13559974e-04
      3.88815291e-02 2.82234013e-01 2.70517647e-01 3.22375000e-01
      7.04692304e-02 4.93905365e-01 4.93905365e-01 4.93905365e-01
      1.59066916e-01 0. 0. 0. 0. 0. 5.68337500e-01 5.68337500e-01
      5.68337500e-01 3.62113789e-02 5.17296612e-01 5.17296612e-01
      5.53811714e-02 0. 0. 5.17296612e-01 4.33206737e-01 0.
      4.33283657e-01 1.20353259e-01 4.33283657e-01 4.33283657e-01
      2.80267984e-01 1.53552040e-01 3.29015464e-01 1.40955374e-01
      4.33283657e-01</_>
    <_>
      0. 4.22307923e-02 4.89441782e-01 1.34485275e-01 7.45854974e-02
      1.07078545e-01 4.89441782e-01 4.89441782e-01 4.89441782e-01 0.
      7.20761530e-03 5.28453887e-01 5.64057171e-01 5.64057171e-01
      2.80245513e-01 1.31921563e-02 4.39738529e-03 0. 8.42044279e-02
      7.89088905e-02 1.43934488e-01 6.16323411e-01 6.16323411e-01
      4.00675207e-01 1.75803319e-01 3.95630002e-02 8.42044279e-02 0.
      1.25231028e-01 5.50707757e-01 5.50707757e-01 9.39821452e-02
      7.28195459e-02 2.32400373e-01 5.50707757e-01 2.89002769e-02
      3.78154844e-01 3.78154844e-01 2.02883407e-01 3.78154844e-01
      3.78154844e-01 1.12972386e-01 3.78154844e-01 3.78154844e-01
      2.90329069e-01 3.19027275e-01 2.47380033e-01 3.60149831e-01
      4.23707783e-01 4.23707783e-01 7.75688514e-02 4.23707783e-01
      2.31066301e-01 3.24177295e-01 8.78677517e-02 1.04794083e-02
      1.24213761e-02 8.59044120e-02 1.79358691e-01 4.86724943e-01
      4.86724943e-01 4.86724943e-01 4.86724943e-01 2.19495464e-02
      9.70389694e-02 5.81543326e-01 5.81543326e-01 3.37672085e-01 0.
      3.39801639e-01 2.57162601e-01 1.10857040e-01 2.01288834e-02
      3.65703888e-02 5.67110002e-01 5.67110002e-01 5.67110002e-01
      1.23428434e-01 1.75941307e-02 8.46756548e-02 7.09860772e-02 0.
      2.41566524e-02 4.97694582e-01 4.97694582e-01 1.99886188e-02
      5.69785573e-02 4.97694582e-01 4.97694582e-01 0. 2.90783960e-02
      3.76679838e-01 4.40750360e-01 4.40750360e-01 4.40750360e-01
      1.87176183e-01 4.40750360e-01 2.00668156e-01 2.27584280e-02
      3.78751367e-01 3.78751367e-01 3.78751367e-01 3.78751367e-01
      3.78751367e-01 2.24720240e-01 3.78751367e-01 1.65790379e-01
      2.39822358e-01 8.99598524e-02 3.79480749e-01 3.79480749e-01
      2.76039541e-01 2.96209574e-01 3.22722644e-01 3.79480749e-01
      3.79480749e-01 3.79480749e-01 9.40697268e-03 4.78065992e-03
      1.43419784e-02 2.35360488e-02 1.19003262e-02 0. 5.75396001e-01
      5.75396001e-01 5.75396001e-01 3.71132046e-02 3.38344812e-01
      5.32018125e-01 5.32018125e-01 5.32018125e-01 3.60166728e-02
      8.07244256e-02 1.28060967e-01 7.40895718e-02 3.38310264e-02 0.
      3.79281372e-01 4.56011295e-01 6.00727089e-02 1.55730024e-01
      5.53409100e-01 5.53409100e-01 3.38310264e-02 1.05340011e-01
      2.49154463e-01 5.37215412e-01 5.37215412e-01 5.37215412e-01
      2.35078216e-01 1.99412685e-02 0. 0. 9.66855660e-02 1.52067170e-01
      4.78191197e-01 4.78191197e-01 4.78191197e-01 4.78191197e-01
      9.24109519e-02 1.21572115e-01 1.57367602e-01 3.18406150e-02
      4.02579516e-01 4.02579516e-01 4.02579516e-01 4.02579516e-01
      1.35874167e-01 4.02579516e-01 4.02579516e-01 6.38836548e-02 0.
      3.65690365e-02 1.14419207e-01 1.58141002e-01 1.78386286e-01
      1.42259793e-02 5.54676890e-01 5.54676890e-01 5.54676890e-01
      1.82351854e-04 0. 0. 0. 1.12383459e-02 0. 4.11051840e-01
      6.42066836e-01 6.42066836e-01 2.94500422e-02 9.00704879e-03
      5.54667749e-02 3.71290475e-01 5.04580498e-01 1.14561714e-01
      5.40368855e-01 5.40368855e-01 3.16118635e-02 0. 3.35180461e-01
      6.37010217e-01 6.37010217e-01 1.45620167e-01 1.85228810e-01
      2.26699766e-02 1.14309326e-01 2.51923185e-02 5.00088148e-02
      1.81455821e-01 5.16123116e-01 5.16123116e-01 5.16123116e-01
      4.00134414e-01 1.23640969e-02 0. 2.96883890e-03 4.84437376e-01
      4.07646671e-02 5.87776303e-02 1.92160919e-01 4.84437376e-01
      4.84437376e-01 1.04414172e-01 5.91481477e-02 4.84437376e-01
      3.99087489e-01 3.99087489e-01 3.99087489e-01 3.99087489e-01
      3.99087489e-01 1.25288099e-01 7.94831291e-02 1.35549039e-01
      3.99087489e-01 3.98801677e-02 9.73737799e-03 0. 0. 2.02138326e-03
      1.92184187e-03 5.75199544e-01 5.75199544e-01 5.75199544e-01
      2.64752209e-01 1.66699365e-02 0. 0. 0. 2.44258285e-01
      5.36844194e-01 5.36844194e-01 5.36844194e-01 7.84287322e-03
      1.25917256e-01 5.82301259e-01 5.82301259e-01 6.57656193e-02
      2.72883885e-02 2.80776322e-01 4.64922398e-01 7.84287322e-03
      6.96267113e-02 2.33192965e-01 5.56221843e-01 5.56221843e-01
      5.56221843e-01 0. 0. 2.00406648e-02 8.16633701e-02 2.73189694e-01
      3.98405224e-01 3.98405224e-01 0. 3.63413036e-01 1.47887796e-01
      3.98405224e-01 3.98405224e-01 3.64061236e-01 8.66436362e-02
      4.41898227e-01 4.71986771e-01 4.71986771e-01 6.07503019e-03
      1.50733432e-02 3.39055210e-01 4.17120069e-01 2.40311772e-01 0.
      7.76598826e-02 2.58648455e-01 2.72194356e-01 4.30915654e-01
      3.16695916e-03 4.69960213e-01 4.69960213e-01 4.69960213e-01 0. 0.
      0. 0. 0. 0. 5.75688422e-01 5.75688422e-01 5.75688422e-01
      1.91178489e-02 4.98161167e-01 4.98161167e-01 4.44713645e-02 0.
      3.51895997e-03 4.98161167e-01 4.98161167e-01 3.25913494e-03
      4.17352289e-01 2.65619129e-01 4.17352289e-01 4.17352289e-01
      4.17352289e-01 5.27608395e-02 3.81212413e-01 1.97393641e-01
      2.03653798e-01</_>
    <_>
      1.27872020e-01 4.50244009e-01 4.50244009e-01 4.23377678e-02
      3.43653589e-01 1.77801892e-01 4.50244009e-01 4.50244009e-01
      1.29494682e-01 4.41609882e-03 2.49013767e-01 4.62005347e-01
      1.85953602e-01 1.89897180e-01 4.62005347e-01 4.62005347e-01
      3.53688926e-01 3.11890453e-01 4.22313996e-02 2.40945473e-01
      4.35293883e-01 4.35293883e-01 4.35293883e-01 1.40763903e-02
      2.23061800e-01 4.35293883e-01 3.57681274e-01 1.50798589e-01
      1.67586170e-02 0. 0. 1.34567037e-01 6.07543923e-02 5.80425024e-01
      5.80425024e-01 5.24973631e-01 9.71050188e-02 4.70832825e-01
      4.70832825e-01 0. 0. 1.72585552e-03 3.14850271e-01 4.70832825e-01
      4.70832825e-01 1.76662803e-01 1.48831919e-01 4.46495742e-01
      1.68594331e-01 2.15342566e-01 2.73681223e-01 3.14075410e-01
      4.96978909e-01 4.96978909e-01 4.55401614e-02 4.49631363e-02
      2.51944717e-02 9.53659564e-02 7.05626458e-02 8.38616043e-02
      6.78294241e-01 6.78294241e-01 2.17314512e-01 4.53342311e-02
      3.01034570e-01 5.25728941e-01 2.36644194e-01 2.82249749e-02
      1.65825039e-02 5.25728941e-01 5.25728941e-01 1.25808537e-01
      1.61144696e-02 3.33879620e-01 4.04097855e-01 3.42259467e-01
      1.68853492e-01 2.92223245e-01 4.04097855e-01 4.04097855e-01
      4.04097855e-01 6.32714000e-05 2.01447345e-02 2.92717218e-01
      5.08676946e-01 1.67739242e-01 7.90189672e-03 3.23071122e-01
      5.08676946e-01 5.08676946e-01 5.22732019e-01 2.72985786e-01
      1.52381100e-02 0. 2.03855447e-02 4.34318185e-02 3.13014120e-01
      5.22732019e-01 5.22732019e-01 3.52967739e-01 9.62436274e-02
      1.02058813e-01 2.18382046e-01 4.86829311e-01 3.74850631e-02
      2.97742605e-01 4.87910092e-01 4.87910092e-01 6.24735281e-02
      1.75574422e-01 4.76148188e-01 2.06316411e-01 4.76148188e-01
      6.29459396e-02 4.76148188e-01 4.76148188e-01 8.43668878e-02
      3.49193424e-01 2.41798028e-01 3.18253636e-01 3.28390181e-01
      4.63983007e-02 4.43250269e-01 4.43250269e-01 4.43250269e-01
      1.20330647e-01 3.58718365e-01 3.58718365e-01 3.58718365e-01
      3.58718365e-01 3.58718365e-01 3.58718365e-01 2.06159547e-01
      3.58718365e-01 2.30569229e-01 1.13894092e-02 1.19496226e-01
      5.14268696e-01 5.14268696e-01 2.42738754e-01 2.83758924e-03
      1.51840612e-01 5.14268696e-01 3.24117631e-01 4.49431576e-02 0.
      3.92699940e-03 1.26888931e-01 2.30140705e-02 9.90421399e-02
      5.67408979e-01 5.67408979e-01 5.67408979e-01 1.04335867e-01
      4.65738308e-03 1.39721483e-02 0. 0. 1.38614312e-01 5.66869318e-01
      5.66869318e-01 5.66869318e-01 7.81878233e-02 1.35937007e-02
      4.07811031e-02 0. 1.22585662e-01 2.36722171e-01 6.69986427e-01
      6.69986427e-01 1.28536761e-01 6.15437813e-02 1.24273397e-01
      4.11857128e-01 4.11857128e-01 1.36763901e-01 3.31388295e-01
      4.11857128e-01 4.11857128e-01 4.11857128e-01 4.20347363e-01
      2.93473810e-01 4.20347363e-01 1.08648814e-01 0. 1.20041922e-01
      4.20347363e-01 4.20347363e-01 4.20347363e-01 4.10395972e-02
      1.08132638e-01 5.00759661e-01 8.02366063e-03 0. 9.22067538e-02
      5.66743791e-01 5.66743791e-01 2.81495959e-01 4.14713082e-04
      1.01346165e-01 2.80493677e-01 5.32902420e-01 7.73981214e-02
      7.42188841e-03 2.18471125e-01 5.32902420e-01 5.32902420e-01
      4.10407335e-01 5.88972233e-02 1.09996181e-02 0. 2.80562013e-01
      3.93599391e-01 4.43437725e-01 4.43437725e-01 4.43437725e-01
      4.80464697e-02 1.71499513e-03 5.14498493e-03 0. 2.89462328e-01
      3.13364089e-01 6.34058774e-01 6.34058774e-01 7.26981908e-02
      9.99312252e-02 2.29853630e-01 5.07672548e-01 2.82542873e-02
      2.55783293e-02 4.11251150e-02 5.56785464e-01 5.56785464e-01
      2.25223437e-01 3.95138822e-02 3.63168418e-01 4.62314993e-01
      2.23639339e-01 1.40895434e-02 4.12825346e-01 4.62314993e-01
      4.62314993e-01 9.28409770e-03 6.05699886e-03 1.20726511e-01
      4.76781696e-01 4.76781696e-01 9.87275541e-02 2.47987345e-01
      4.76781696e-01 4.76781696e-01 9.91124380e-03 3.33154768e-01
      3.47586483e-01 4.85375464e-01 4.85375464e-01 2.97055617e-02
      1.28479645e-01 3.94923270e-01 2.57717699e-01 2.28894532e-01
      1.29671879e-02 0. 1.91174746e-02 1.32579595e-01 1.03348782e-02
      2.86792871e-02 5.70165575e-01 5.70165575e-01 5.70165575e-01
      1.24576174e-01 4.39045608e-01 4.58758652e-01 4.03213739e-01
      4.58758652e-01 1.65274993e-01 2.16760993e-01 3.27969551e-01
      1.47552788e-01 4.12627403e-03 4.15707491e-02 5.68266511e-01
      1.12788826e-01 7.77562112e-02 5.49587831e-02 5.68266511e-01
      5.68266511e-01 4.48552296e-02 2.33366457e-03 1.53156966e-01
      5.34455597e-01 1.49154380e-01 0. 8.10083523e-02 5.34455597e-01
      5.34455597e-01 2.92339593e-01 3.30377487e-03 3.70062798e-01
      4.13002789e-01 4.13002789e-01 4.13002789e-01 6.58346787e-02
      4.13002789e-01 4.13002789e-01 4.15470637e-02 3.61018986e-01
      3.29153687e-01 3.61018986e-01 3.61018986e-01 3.25117767e-01
      1.84674598e-02 3.61018986e-01 3.61018986e-01 3.61018986e-01
      6.78837001e-02 1.32886395e-01 4.92334932e-01 4.92334932e-01
      8.34201637e-04 3.56832956e-04 5.69221415e-02 4.92334932e-01
      4.92334932e-01</_>
    <_>
      1.90253481e-02 2.13071816e-02 5.22682607e-01 2.96517581e-01
      1.54724032e-01 0. 5.22682607e-01 5.22682607e-01 2.50021219e-01 0.
      1.02265533e-02 5.47764957e-01 5.89048445e-01 5.89048445e-01 0.
      3.15747084e-03 1.05249032e-03 0. 7.09626898e-02 6.51265979e-02
      3.45473051e-01 4.92504656e-01 4.92504656e-01 4.40719575e-01
      3.31699640e-01 2.45462149e-01 1.29694402e-01 2.86103580e-02
      2.00158313e-01 5.88074803e-01 5.88074803e-01 1.68440640e-02 0.
      1.76715404e-01 4.77737129e-01 4.28630710e-02 3.22363794e-01
      1.84026077e-01 2.17275396e-01 3.78018945e-01 3.78018945e-01
      3.78018945e-01 3.11029047e-01 3.78018945e-01 3.78018945e-01
      4.39951390e-01 4.39951390e-01 4.39951390e-01 3.76844369e-02
      4.39951390e-01 4.39951390e-01 9.47952196e-02 1.25978841e-02
      1.31355762e-01 1.62748694e-02 2.00200593e-03 6.46504685e-02
      4.97945808e-02 3.11722662e-02 1.45508930e-01 5.67233980e-01
      5.67233980e-01 5.67233980e-01 0. 7.81872794e-02 5.67076921e-01
      5.67076921e-01 5.66043198e-01 0. 3.74435335e-02 1.50122002e-01
      2.69812178e-02 8.03721882e-03 1.33817391e-02 4.06888574e-01
      6.42564714e-01 6.42564714e-01 4.47653644e-02 0. 0. 0. 0.
      3.27843837e-02 4.98397022e-01 4.98397022e-01 1.18786031e-02
      6.81795273e-03 4.98397022e-01 4.98397022e-01 1.27060786e-02
      9.15473849e-02 4.85034555e-01 4.85034555e-01 4.85034555e-01
      4.85034555e-01 0. 1.38790339e-01 1.33816913e-01 9.25777927e-02
      1.69594243e-01 3.77509743e-01 3.77509743e-01 3.77509743e-01
      3.77509743e-01 3.77509743e-01 3.77509743e-01 2.91230530e-01
      1.66040435e-01 2.33035744e-03 2.77337253e-01 4.08419043e-01
      3.16174686e-01 3.67932290e-01 1.61631018e-01 3.96377534e-01
      4.08419043e-01 4.08419043e-01 1.79373268e-02 0. 0. 0.
      1.71574904e-03 0. 5.19805014e-01 6.06097877e-01 5.96717298e-01
      1.15044080e-02 3.56889874e-01 5.35513699e-01 5.35513699e-01
      5.35513699e-01 0. 4.97889966e-02 5.58217093e-02 3.50636281e-02 0.
      0. 4.96671289e-01 4.96671289e-01 9.05500352e-02 1.05165886e-02
      4.96671289e-01 4.96671289e-01 0. 1.14567261e-02 1.78169996e-01
      5.21830142e-01 5.21830142e-01 5.21830142e-01 2.46645540e-01
      2.87030339e-01 5.26516400e-02 0. 1.47836983e-01 1.10607624e-01
      2.95042455e-01 4.57892954e-01 4.57892954e-01 4.57892954e-01
      2.70207852e-01 3.13111305e-01 2.72465944e-01 1.67921975e-01
      3.93786877e-01 3.93786877e-01 1.34937927e-01 1.76691502e-01
      3.78285229e-01 3.93786877e-01 3.93786877e-01 3.93786877e-01 0.
      4.03261743e-03 1.46245688e-01 5.86761422e-02 2.43802175e-01
      7.47167394e-02 5.49134851e-01 5.49134851e-01 5.49134851e-01
      1.44983038e-01 6.44249767e-02 1.30562028e-02 0. 0. 5.24127185e-02
      5.67522287e-01 5.67522287e-01 5.67522287e-01 9.14294943e-02
      2.97982432e-02 1.34020343e-01 2.37166509e-01 9.55011100e-02
      5.24508834e-01 5.54711282e-01 5.54711282e-01 1.06606431e-01
      1.86524503e-02 2.03012392e-01 5.77844977e-01 5.77844977e-01
      5.20809352e-01 1.16106980e-01 5.15959167e-04 5.49600180e-03
      1.02264453e-02 7.05819530e-03 1.45489588e-01 5.49606264e-01
      5.49606264e-01 5.49606264e-01 1.69049259e-02 2.26878911e-01
      1.20721094e-01 2.75669042e-02 4.82633084e-01 2.00447291e-01
      3.61560360e-02 5.60005642e-02 4.82633084e-01 4.82633084e-01
      1.05489716e-01 8.76940489e-02 4.82633084e-01 3.62948537e-01
      3.62948537e-01 3.62948537e-01 3.62948537e-01 3.62948537e-01
      2.65544504e-01 6.11429103e-02 3.62948537e-01 3.62948537e-01
      5.31600043e-02 2.34502833e-02 0. 0. 0. 5.42017631e-04
      5.74712932e-01 5.74712932e-01 5.74712932e-01 2.19341710e-01
      5.65428613e-03 1.69628579e-02 0. 0. 4.66755666e-02 5.60889184e-01
      5.60889184e-01 5.60889184e-01 4.23890799e-02 4.07299027e-02
      6.88990295e-01 6.26090229e-01 1.05720803e-01 2.29128916e-03
      1.11634098e-01 3.07976544e-01 6.69019222e-02 2.77793705e-02
      4.62933481e-01 5.03637254e-01 5.03637254e-01 5.03637254e-01
      1.34490311e-01 8.95587262e-03 0. 2.77793705e-02 4.25816834e-01
      2.38162681e-01 4.25816834e-01 3.51743624e-02 1.76599532e-01
      6.74943032e-04 4.25816834e-01 4.25816834e-01 4.25816834e-01
      1.46135047e-01 5.60007513e-01 5.60007513e-01 3.61302763e-01
      1.47955283e-03 1.26527541e-03 2.24556431e-01 3.94600332e-01
      9.56928357e-02 7.55819259e-04 4.18384038e-02 2.92475939e-01
      2.66912371e-01 3.20925891e-01 7.20498562e-02 4.92733479e-01
      4.92733479e-01 4.92733479e-01 4.07491950e-03 0. 0. 0. 0. 0.
      5.75683594e-01 5.75683594e-01 5.75683594e-01 3.41456980e-02
      5.21713912e-01 5.21713912e-01 1.17407806e-01 3.49910022e-03 0.
      5.21713912e-01 4.04067636e-01 0. 3.44747156e-01 3.44747156e-01
      3.44747156e-01 3.44747156e-01 3.44747156e-01 3.21430415e-01
      3.37249547e-01 2.57676214e-01 3.44747156e-01</_>
    <_>
      1.21425785e-01 4.59288895e-01 4.59288895e-01 4.22703549e-02
      3.24271113e-01 1.14005372e-01 4.59288895e-01 4.59288895e-01
      1.30182266e-01 1.21727355e-01 2.88800985e-01 4.92637068e-01
      2.67484814e-01 7.40632862e-02 4.92637068e-01 4.92637068e-01
      1.71088144e-01 2.49955401e-01 6.35742992e-02 2.17458576e-01
      4.39880282e-01 4.39880282e-01 4.27663118e-01 1.61597058e-02
      2.16158435e-01 4.39880282e-01 3.65938276e-01 2.07914487e-01
      5.31097176e-03 0. 0. 2.44891979e-02 1.32113963e-01 5.95152915e-01
      5.95152915e-01 4.73638028e-01 3.97689529e-02 4.65680122e-01
      4.65680122e-01 1.07337181e-02 0. 6.54753856e-03 3.55214089e-01
      4.65680122e-01 4.65680122e-01 1.45046413e-01 1.46118343e-01
      4.77683514e-01 2.75901377e-01 2.46233478e-01 0. 3.12185735e-01
      4.95112151e-01 4.95112151e-01 5.66338003e-02 1.68584399e-02
      2.58510262e-02 5.89120202e-02 7.61894211e-02 9.55973491e-02
      6.91970646e-01 6.91970646e-01 1.13451540e-01 8.06678683e-02
      3.08584213e-01 5.16306162e-01 2.88191378e-01 2.46990919e-02
      3.55482544e-03 5.16306162e-01 5.16306162e-01 9.85845998e-02
      8.18741545e-02 3.29511940e-01 4.19020742e-01 2.26872548e-01
      2.44205147e-01 2.59059310e-01 4.19020742e-01 4.19020742e-01
      4.19020742e-01 6.30505601e-05 1.99014321e-02 2.91615278e-01
      5.10383248e-01 1.63763136e-01 7.87431560e-03 3.17983687e-01
      5.10383248e-01 5.10383248e-01 5.28188407e-01 1.89499304e-01
      7.15130894e-03 0. 2.03569774e-02 4.06347699e-02 3.46048295e-01
      5.28188407e-01 5.28188407e-01 4.42170054e-01 9.78523642e-02
      1.03764758e-01 2.22032353e-01 4.42170054e-01 2.87342183e-02
      3.78232121e-01 4.42170054e-01 4.42170054e-01 4.05865312e-02
      2.58206457e-01 4.76342440e-01 5.84104620e-02 4.76342440e-01
      8.68293270e-02 4.76342440e-01 4.76342440e-01 9.14589837e-02
      1.76234141e-01 2.36696854e-01 3.59165907e-01 3.30383897e-01 0.
      4.51280177e-01 4.51280177e-01 4.51280177e-01 2.43502066e-01
      2.73903668e-01 3.62484038e-01 3.62484038e-01 3.62484038e-01
      3.62484038e-01 3.62484038e-01 2.08429635e-01 3.62484038e-01
      2.99239665e-01 5.00738947e-03 1.78013042e-01 5.07315278e-01
      5.07315278e-01 2.51794368e-01 1.54049760e-02 1.22336663e-01
      5.07315278e-01 3.35424185e-01 5.69315851e-02 2.18980899e-03
      3.41148004e-02 1.21726096e-01 3.91966216e-02 1.15996353e-01
      5.65724313e-01 5.65724313e-01 5.65724313e-01 3.08166891e-01
      1.02532774e-01 1.36540690e-02 0. 1.19272610e-02 1.35458723e-01
      5.38659751e-01 5.38659751e-01 5.38659751e-01 8.16841200e-02
      2.86160782e-02 8.58482346e-02 1.42578948e-02 1.16067387e-01
      2.93575674e-01 6.61347330e-01 6.61347330e-01 6.25629351e-02
      4.24583964e-02 1.06380574e-01 4.28360671e-01 4.28360671e-01
      1.23167999e-01 2.23532602e-01 4.28360671e-01 4.28360671e-01
      4.28360671e-01 4.00693625e-01 3.93189788e-01 4.00693625e-01
      9.49914753e-02 0. 1.72042787e-01 4.00693625e-01 4.00693625e-01
      4.00693625e-01 3.81804220e-02 9.10466909e-02 4.98832017e-01
      5.72891964e-04 0. 5.68872206e-02 5.67038715e-01 5.67038715e-01
      2.99089700e-01 1.95993204e-03 9.65646356e-02 2.81942040e-01
      5.33546269e-01 6.85524121e-02 2.62424280e-03 2.17095807e-01
      5.33546269e-01 5.33546269e-01 2.96555400e-01 5.27600583e-04
      1.58280181e-03 0. 2.86117315e-01 2.28905007e-01 5.07517755e-01
      5.07517755e-01 5.07517755e-01 6.48932680e-02 0. 0. 0.
      8.35915059e-02 1.67239696e-01 6.72739685e-01 6.72739685e-01
      2.21266344e-01 1.90861315e-01 1.19818248e-01 5.18711805e-01
      3.76828983e-02 2.01336034e-02 1.07724927e-01 5.57228684e-01
      5.57228684e-01 2.00378686e-01 3.11418232e-02 3.89716774e-01
      4.52589124e-01 2.56968081e-01 9.05674603e-03 4.01508063e-01
      4.52589124e-01 4.52589124e-01 2.82162987e-02 5.81219327e-03
      1.48890883e-01 4.79432255e-01 4.79432255e-01 7.28822127e-02
      2.19718501e-01 4.79432255e-01 4.79432255e-01 1.79979703e-04
      3.45389485e-01 3.32666844e-01 4.84747559e-01 4.84747559e-01
      1.16061438e-02 1.44620910e-01 3.88223618e-01 2.50428230e-01
      2.46485770e-01 2.94439495e-02 0. 2.22892612e-02 1.31610155e-01
      3.05467239e-03 6.40255511e-02 5.68664134e-01 5.69272697e-01
      5.69272697e-01 9.12792161e-02 4.88561243e-01 4.88561243e-01
      3.28437120e-01 4.88561243e-01 3.88392694e-02 3.06942075e-01
      1.97684169e-01 1.67452529e-01 1.05048111e-02 1.64473951e-01
      5.59684753e-01 1.16333656e-01 7.95744285e-02 7.51701146e-02
      5.59684753e-01 5.59684753e-01 4.46307212e-02 6.66321081e-04
      1.61633834e-01 5.20970106e-01 1.96576953e-01 0. 9.13931727e-02
      5.20970106e-01 5.20970106e-01 3.27790260e-01 7.06658047e-03
      4.06087846e-01 4.06087846e-01 4.06087846e-01 4.06087846e-01
      7.78397769e-02 4.06087846e-01 4.06087846e-01 1.97565891e-02
      3.68943781e-01 3.22819173e-01 3.68943781e-01 3.68943781e-01
      2.73885727e-01 1.92724671e-02 3.68943781e-01 3.68943781e-01
      3.68943781e-01 6.88568279e-02 1.30493671e-01 4.92427826e-01
      4.92427826e-01 2.14574626e-03 3.55464988e-04 5.80213554e-02
      4.92427826e-01 4.92427826e-01</_>
    <_>
      5.68948090e-01 5.56550105e-04 5.59474109e-03 7.18704909e-02
      5.68948090e-01 7.72295892e-02 1.95940249e-02 1.08016729e-01
      5.68948090e-01 3.79294962e-01 3.79294962e-01 3.72886330e-01
      2.62113631e-01 3.79294962e-01 3.79294962e-01 3.79294962e-01
      1.00988178e-02 2.62749881e-01 0. 0. 2.84794513e-02 2.28262797e-01
      2.74351835e-01 6.37032628e-01 6.37032628e-01 2.30272010e-01
      2.84553077e-02 4.45075661e-01 2.60517746e-01 4.45075661e-01 0.
      1.31601006e-01 4.45075661e-01 4.45075661e-01 9.74803045e-02
      3.29384327e-01 4.40268010e-01 4.40268010e-01 2.28344142e-01
      8.92903581e-02 2.57160485e-01 1.82382330e-01 4.40268010e-01
      2.68517852e-01 4.27181244e-01 4.51069921e-01 4.51069921e-01
      4.48330879e-01 2.61218309e-01 4.22068574e-02 0. 1.65548578e-01
      2.94412792e-01 4.51069921e-01 4.46093887e-01 4.46093887e-01
      4.46093887e-01 7.22234994e-02 9.07268524e-02 2.18211696e-01
      4.46093887e-01 2.35440329e-01 2.88181871e-01 1.41690373e-01
      7.59738460e-02 2.02323273e-02 0. 3.17420065e-01 6.55294359e-01
      6.55294359e-01 7.01172426e-02 5.20279706e-02 3.48343402e-02
      2.76804477e-01 5.15964270e-01 5.15964270e-01 2.86122024e-01
      2.82136172e-01 2.77936041e-01 3.19052964e-01 2.09916249e-01
      4.36936349e-01 4.36936349e-01 4.36936349e-01 2.60061055e-01
      3.12382728e-01 1.47932813e-01 9.66090634e-02 1.88547149e-01
      4.36936349e-01 4.81718212e-01 4.81718212e-01 4.81718212e-01
      3.28661680e-01 3.21133360e-02 6.10066997e-03 1.11544549e-01
      1.50217131e-01 3.93620402e-01 4.31990951e-01 4.31990951e-01
      4.31990951e-01 2.20292509e-01 0. 4.08281460e-02 1.11391775e-01
      4.31990951e-01 4.31990951e-01 2.18006089e-01 4.48392421e-01
      8.20120201e-02 0. 3.56995553e-01 5.22565246e-01 5.22565246e-01
      2.55527586e-01 2.41618715e-02 0. 3.49963233e-02 1.26561895e-01
      1.51340678e-01 4.20285285e-01 6.17379487e-01 6.17379487e-01
      1.19520679e-01 2.11988688e-02 1.13830671e-01 4.87577111e-01
      4.87577111e-01 4.87577111e-01 1.03044352e-02 2.14637863e-03
      8.83490890e-02 4.87577111e-01 1.52743995e-01 5.71806133e-01
      5.71806133e-01 1.14451461e-01 0. 0. 0. 1.65403876e-02
      5.51346317e-03 5.71806133e-01 4.96740192e-01 4.96740192e-01
      4.96740192e-01 6.64107651e-02 0. 3.25543396e-02 4.60455492e-02
      2.10984591e-02 4.96740192e-01 4.56636339e-01 4.56636339e-01
      3.62645537e-02 8.14108085e-03 2.67439693e-01 2.64497519e-01
      3.03160906e-01 3.67583692e-01 4.56636339e-01 5.76534607e-02
      3.00623804e-01 4.11472082e-01 2.29061887e-01 4.11472082e-01
      4.11472082e-01 4.11472082e-01 4.11472082e-01 5.63489124e-02
      6.55093610e-01 6.55093610e-01 4.59188968e-02 0. 0. 1.55766925e-03
      2.22038274e-04 1.03379926e-02 3.64618421e-01 5.80660179e-02
      3.06989253e-01 4.91339296e-01 2.85524607e-01 0. 0. 3.02838624e-01
      4.91339296e-01 4.91339296e-01 4.61012810e-01 4.61012810e-01
      4.61012810e-01 7.31175244e-02 0. 2.38889605e-02 1.29236251e-01
      3.50207120e-01 4.61012810e-01 3.66333932e-01 3.66333932e-01
      3.66333932e-01 3.42587411e-01 1.58446893e-01 3.43735188e-01
      3.66333932e-01 3.66333932e-01 2.54385263e-01 4.24171686e-01
      3.19073468e-01 5.21554649e-02 9.61072445e-02 4.24171686e-01
      1.27871051e-01 3.82047892e-01 4.24171686e-01 4.24171686e-01
      2.17474431e-01 4.34939623e-01 4.34939623e-01 5.06844707e-02
      3.93266529e-01 1.52709603e-01 4.34939623e-01 4.34939623e-01
      1.05463944e-01 4.99754727e-01 4.99754727e-01 4.79198307e-01 0.
      1.60257947e-02 0. 0. 1.25922009e-01 4.99754727e-01 1.00519456e-01
      1.95660889e-01 3.65653157e-01 2.13361472e-01 7.73014277e-02
      2.19246256e-03 5.77515960e-01 5.77515960e-01 3.05926383e-01
