<?xml version="1.0"?>
<opencv_storage>
<opencv_ml_svm>
  <format>3</format>
  <svmType>C_SVC</svmType>
  <kernel>
    <type>RBF</type>
    <gamma>1.</gamma></kernel>
  <C>1.</C>
  <term_criteria><iterations>100</iterations></term_criteria>
  <var_count>324</var_count>
  <class_count>3</class_count>
  <class_labels type_id="opencv-matrix">
    <rows>3</rows>
    <cols>1</cols>
    <dt>i</dt>
    <data>
      0 1 2</data></class_labels>
  <sv_total>355</sv_total>
  <support_vectors>
    <_>
      4.29399759e-01 4.94745344e-01 4.94745344e-01 4.94745344e-01
      2.24731416e-01 0. 6.16164543e-02 9.43908766e-02 1.14652872e-01
      8.43047444e-03 4.02875096e-01 4.02875096e-01 4.02875096e-01
      4.02875096e-01 1.75808251e-01 2.35394567e-01 3.13118994e-01
      4.02875096e-01 1.50709137e-01 6.27633110e-02 4.58619863e-01
      5.99003911e-01 5.99003911e-01 3.67694497e-02 1.39112666e-01
      1.35369539e-01 1.98417846e-02 8.29657391e-02 3.83340746e-01
      3.83340746e-01 3.83340746e-01 2.43828595e-01 3.83340746e-01
      3.83340746e-01 3.83340746e-01 2.19394147e-01 6.34804517e-02
      1.80678873e-03 0. 0. 5.94110429e-01 9.26403329e-02 6.53290078e-02
      5.20816863e-01 5.94110429e-01 4.17970181e-01 0. 0. 0.
      3.22146773e-01 7.19954446e-02 4.86989081e-01 4.86989081e-01
      4.86989081e-01 4.30531353e-01 4.30531353e-01 4.30531353e-01
      2.45321169e-01 9.23229232e-02 0. 1.43855102e-02 4.30531353e-01
      4.30531353e-01 4.88414437e-01 4.38826419e-02 7.87458494e-02
      4.88414437e-01 4.88414437e-01 1.81053713e-01 4.48834896e-03 0.
      4.88414437e-01 2.66258597e-01 5.53512061e-03 3.92031550e-01
      3.92031550e-01 3.92031550e-01 3.87994647e-01 3.92031550e-01
      7.85860047e-02 3.92031550e-01 0. 7.02475198e-03 1.31588206e-01
      2.13248953e-01 5.56544721e-01 5.56544721e-01 5.56544721e-01
      4.84452508e-02 5.41941449e-03 2.25627556e-01 0. 3.77458155e-01
      5.43460310e-01 5.43460310e-01 3.60276967e-01 1.15027430e-03
      3.51652794e-04 2.84062117e-01 5.30035496e-01 1.52062580e-01
      6.71142116e-02 4.29804534e-01 5.30035496e-01 3.25159520e-01
      6.33005351e-02 3.36509086e-02 3.31065059e-01 4.99656200e-01
      4.99656200e-01 2.42000356e-01 4.99656200e-01 3.25022727e-01
      4.62578051e-02 1.56109080e-01 4.14130688e-02 2.31542468e-01
      3.51066053e-01 3.51066053e-01 2.46006593e-01 3.51066053e-01
      3.51066053e-01 3.51066053e-01 2.89655626e-01 3.51066053e-01
      3.35542411e-01 3.63488048e-01 1.51899517e-01 3.35828215e-01
      3.63488048e-01 3.63488048e-01 3.63488048e-01 3.63488048e-01
      2.60332435e-01 3.63488048e-01 4.22595114e-01 1.53911009e-01
      8.30930918e-02 3.36585306e-02 2.66681939e-01 4.22595114e-01
      4.22595114e-01 4.22595114e-01 4.22595114e-01 4.57881838e-01
      1.04994010e-02 1.62980463e-02 2.01280892e-01 2.03431606e-01
      2.72999883e-01 4.57881838e-01 4.57881838e-01 4.57881838e-01
      3.74986440e-01 3.74986440e-01 2.07141608e-01 2.71557599e-01
      3.74986440e-01 1.89508379e-01 3.74986440e-01 3.74986440e-01
      3.74986440e-01 3.42997968e-01 4.57096726e-01 4.57096726e-01
      4.57096726e-01 4.44640696e-01 1.82342991e-01 0. 1.23516053e-01
      6.90208375e-02 3.86855125e-01 3.70088637e-01 1.25775471e-01
      3.46150190e-01 3.86855125e-01 8.44884142e-02 3.43168259e-01
      3.86855125e-01 3.86855125e-01 3.91506761e-01 4.69153076e-01
      3.33536088e-01 1.04014926e-01 4.69153076e-01 1.60077363e-01
      7.53791854e-02 1.68375328e-01 4.69153076e-01 3.24748963e-01
      2.19405711e-01 5.11499937e-04 2.04083789e-02 2.97099829e-01
      4.33987051e-01 4.33987051e-01 4.33987051e-01 4.33987051e-01
      4.41046804e-01 2.32395217e-01 7.24141300e-02 4.41046804e-01
      1.92858338e-01 2.77552962e-01 2.09818661e-01 4.41046804e-01
      4.41046804e-01 1.24072723e-01 4.69569534e-01 4.69569534e-01
      4.69569534e-01 4.69569534e-01 1.86537921e-01 9.61838737e-02
      1.45517662e-01 1.80860221e-01 5.65975368e-01 1.75345600e-01
      5.65975368e-01 5.07543907e-02 6.48022722e-03 0. 0. 0.
      5.65975368e-01 6.12248600e-01 9.22817811e-02 1.70152128e-01
      1.06467204e-02 8.55666026e-02 1.93917096e-01 3.89342666e-01
      1.00479580e-01 6.12248600e-01 6.16233230e-01 8.54353458e-02
      2.58761734e-01 1.25742212e-01 4.18541580e-02 2.42863312e-01
      2.24177614e-01 1.82489812e-01 6.16233230e-01 5.47409832e-01
      4.38498519e-03 2.01871004e-02 2.16295943e-02 4.05632332e-03
      1.85033038e-01 4.62271720e-01 3.82589787e-01 5.47409832e-01
      3.54559153e-01 3.04587990e-01 2.53927171e-01 2.96736360e-01
      3.54559153e-01 3.54559153e-01 3.54559153e-01 3.50130528e-01
      3.54559153e-01 7.01797068e-01 7.25755021e-02 1.37433633e-02 0.
      7.62733107e-04 3.67058790e-04 1.04864771e-02 4.88822162e-02
      7.01797068e-01 5.81713557e-01 2.44524870e-02 7.18033910e-02
      3.73596221e-01 5.81713557e-01 2.72942856e-02 0. 0. 4.13929045e-01
      5.71975052e-01 1.30884079e-02 1.77189447e-02 1.03671506e-01
      5.71975052e-01 3.94374467e-02 5.52236428e-03 1.84078817e-03
      5.71975052e-01 5.28682649e-01 3.55955847e-02 1.81246642e-02
      3.19281757e-01 5.28682649e-01 2.29184449e-01 1.17903361e-02
      1.79689587e-03 5.28682649e-01 5.78721017e-02 2.20358279e-02
      1.40155166e-01 3.29181015e-01 7.77113080e-01 4.54287142e-01
      2.21103296e-01 9.50316712e-03 3.38709690e-02 4.02144015e-01
      4.06615064e-02 2.09364220e-02 1.25088915e-01 5.37620962e-01
      5.37620962e-01 9.89097655e-02 4.39000838e-02 4.74751979e-01
      1.51530147e-01 0. 0. 0. 6.41825497e-01 6.41825497e-01
      1.15577072e-01 1.89532697e-01 3.12201798e-01</_>
    <_>
      2.93255508e-01 4.71628532e-02 2.69001592e-02 6.40248531e-04
      1.12911046e-01 5.73620498e-01 5.73620498e-01 4.81531918e-01
      5.12054786e-02 4.73999977e-01 4.73999977e-01 2.04812840e-01
      1.19244970e-01 4.73999977e-01 7.42684826e-02 5.71013149e-03
      1.86669946e-01 4.73999977e-01 8.62807855e-02 1.64289251e-01
      5.92578948e-02 3.41344208e-01 4.10229027e-01 4.10229027e-01
      4.10229027e-01 4.10229027e-01 4.10229027e-01 4.59301710e-01
      4.59301710e-01 3.53777260e-01 9.73953828e-02 1.94320410e-01
      1.76500723e-01 2.79462725e-01 2.84396619e-01 4.59301710e-01
      4.29671049e-01 4.29671049e-01 8.10014531e-02 5.22967568e-03
      1.22667886e-01 4.29671049e-01 4.29671049e-01 4.29671049e-01
      2.25800171e-01 2.13137209e-01 1.03682011e-01 1.34412989e-01
      1.75028518e-02 5.42655587e-02 5.77386141e-01 5.77386141e-01
      4.91266519e-01 9.29878205e-02 3.43021393e-01 5.19034527e-02
      1.45909227e-02 4.35079597e-02 3.06538552e-01 1.94430068e-01
      1.93155751e-01 5.92680514e-01 5.92680514e-01 5.85085511e-01
      3.32146525e-01 2.71214634e-01 5.21600917e-02 6.31116703e-02
      4.24681008e-02 3.63215767e-02 3.40297550e-01 5.85085511e-01
      3.43800336e-01 0. 3.14062536e-01 4.26703990e-01 2.23386556e-01
      2.63971649e-02 4.26703990e-01 4.26703990e-01 4.26703990e-01
      3.74995619e-01 4.62909907e-01 4.62909907e-01 3.99378734e-03
      5.20661799e-03 2.01306701e-01 4.62909907e-01 3.79751682e-01
      1.64678797e-01 3.89651984e-01 3.89651984e-01 6.23833835e-02
      2.68892031e-02 2.83761591e-01 3.89651984e-01 3.89651984e-01
      3.89651984e-01 3.89651984e-01 4.82635409e-01 4.49775904e-01
      2.30025426e-01 1.97914585e-01 4.29607779e-02 3.72093520e-03
      1.13550769e-02 4.82635409e-01 4.82635409e-01 5.00232726e-02
      2.32878596e-01 5.44652998e-01 5.44652998e-01 5.44652998e-01
      2.18354642e-01 1.29352026e-02 0. 6.27333065e-03 9.44404006e-02
      7.09961355e-02 4.65730339e-01 4.80873108e-01 4.80873108e-01
      4.80873108e-01 2.64002472e-01 3.03089879e-02 0. 1.21904932e-01
      3.25829796e-02 5.21142744e-02 1.30752087e-01 4.79468733e-01
      4.79468733e-01 4.79468733e-01 2.45085970e-01 4.57972407e-01
      3.48049313e-01 1.71279401e-01 3.10121179e-01 9.33855623e-02
      2.44866252e-01 4.12476987e-01 4.12476987e-01 4.12476987e-01
      4.12476987e-01 2.19146192e-01 1.93415135e-02 5.16831800e-02
      1.87341779e-01 4.26514298e-01 4.26514298e-01 4.26514298e-01
      4.26514298e-01 4.26514298e-01 1.86640114e-01 5.48933864e-01
      5.48933864e-01 5.25947154e-01 8.63331556e-02 3.62287015e-02
      6.00530542e-02 2.01141879e-01 1.66060954e-01 0. 1.98630229e-01
      5.48827589e-01 5.48827589e-01 5.48827589e-01 1.18288815e-01
      1.93470672e-01 2.63778097e-03 0. 3.24241002e-03 3.20434682e-02
      3.25617567e-02 3.38442504e-01 5.31151235e-01 5.24383187e-01
      5.31151235e-01 1.65055200e-01 1.07658863e-01 3.94045152e-02
      1.83403432e-01 1.00103825e-01 2.54644174e-02 6.74166143e-01
      6.74166143e-01 9.79784653e-02 1.44920155e-01 8.83710980e-02
      1.29218139e-02 8.12758133e-03 4.65236418e-02 1.84629351e-01
      6.90628946e-01 6.90628946e-01 5.17377071e-02 2.57774303e-03 0.
      2.60361969e-01 0. 1.26166958e-02 1.08733818e-01 4.28007931e-01
      4.28007931e-01 4.28007931e-01 4.28007931e-01 4.28007931e-01
      6.86822161e-02 1.91384822e-01 5.35426319e-01 5.35426319e-01
      2.33142361e-01 1.12980613e-02 4.52191174e-01 3.43884796e-01
      5.22328541e-02 1.34433955e-01 0. 5.05062103e-01 5.08564234e-01
      4.44472492e-01 3.67794260e-02 5.08564234e-01 5.00675887e-02
      5.54105937e-02 4.28229660e-01 3.67514163e-01 2.81749293e-02
      3.13801527e-01 1.62669584e-01 3.75021324e-02 4.28229660e-01
      4.28229660e-01 4.28229660e-01 2.74302453e-01 1.78025234e-02
      2.46192113e-01 3.78604501e-01 3.78604501e-01 3.78604501e-01
      3.78604501e-01 3.78604501e-01 3.78604501e-01 2.61328965e-01
      5.53840935e-01 5.53840935e-01 2.15291828e-01 3.81466746e-02
      1.83640182e-01 4.56609339e-01 1.50272876e-01 9.67013184e-03
      3.23641539e-01 2.44363323e-01 1.70217335e-01 2.27959767e-01
      7.83711672e-02 4.31321383e-01 4.31321383e-01 4.31321383e-01
      4.31321383e-01 1.91785127e-01 3.88353974e-01 3.88353974e-01
      3.88353974e-01 3.88353974e-01 1.71102315e-01 3.88353974e-01
      3.88353974e-01 1.58587113e-01 4.50760365e-01 3.21701586e-01
      6.93738386e-02 1.71258952e-02 4.22566593e-01 2.45409638e-01
      1.96357906e-01 4.50760365e-01 4.50760365e-01 5.58506787e-01
      8.68733600e-02 6.67075291e-02 1.93453908e-01 5.58506787e-01
      9.11386162e-02 2.85513904e-02 9.51712951e-03 5.58506787e-01
      4.65753078e-01 3.40161234e-01 4.15233225e-02 6.65071746e-03
      4.65753078e-01 5.96212633e-02 8.13093334e-02 4.65753078e-01
      4.65753078e-01 4.82527345e-01 2.36930829e-02 4.35972167e-03
      3.72176617e-02 3.15065384e-01 5.05995490e-02 4.39193040e-01
      4.82527345e-01 4.82527345e-01 3.88909698e-01 2.27391854e-01
      3.88909698e-01 3.88909698e-01 1.16645686e-01 1.52633324e-01
      3.88909698e-01 3.88909698e-01 3.88909698e-01 3.43217939e-01
      2.11534366e-01 1.56522244e-01 3.67261529e-01 3.67261529e-01
      3.67261529e-01 3.67261529e-01 3.67261529e-01 3.67261529e-01</_>
    <_>
      9.69898030e-02 3.58186901e-01 4.50018555e-01 9.70942304e-02
      1.69996381e-01 9.69904214e-02 4.50018555e-01 4.50018555e-01
      4.50018555e-01 9.67808291e-02 4.92588580e-01 4.92588580e-01
      5.58481226e-03 0. 5.78415766e-03 4.92588580e-01 4.92588580e-01
      1.22779973e-01 6.82682320e-02 6.08179308e-02 1.29210815e-01
      2.82329172e-01 1.24355748e-01 4.26137626e-01 7.42729306e-01
      3.71917397e-01 2.81997249e-02 4.29017931e-01 4.29017931e-01
      4.29017931e-01 3.61377001e-01 1.00906454e-01 1.20287180e-01
      4.20786530e-01 3.17968935e-01 1.00674652e-01 2.40752280e-01
      4.39807475e-01 4.39807475e-01 4.39807475e-01 1.82116613e-01
      1.97537780e-01 4.39807475e-01 2.42741883e-01 1.81139320e-01
      2.14645453e-02 3.24756140e-04 9.74268361e-04 0. 5.44822961e-02
      3.58487666e-02 7.02697158e-01 7.02697158e-01 2.65245363e-02
      1.40018575e-02 4.92744982e-01 4.92744982e-01 3.10619567e-02
      1.37814790e-01 6.10931441e-02 4.92744982e-01 4.92744982e-01
      1.43178250e-03 7.44386092e-02 5.64483225e-01 5.64483225e-01
      1.26869187e-01 2.42588416e-01 2.87125316e-02 4.67132986e-01
      2.39616096e-01 1.18761342e-02 1.98561400e-02 6.89946562e-02
      1.09876983e-01 3.06938291e-02 6.46888494e-01 6.46888494e-01
      3.69060785e-01 1.85835604e-02 4.34905402e-02 4.41649258e-02
      1.68039739e-01 4.48117167e-01 4.48117167e-01 4.48117167e-01
      3.96625638e-01 4.42003191e-01 1.01057440e-01 4.19166312e-03
      3.12656090e-02 3.80105257e-01 4.11538452e-01 2.88372450e-02
      4.11538452e-01 4.11538452e-01 4.11538452e-01 4.11538452e-01
      5.27263954e-02 3.53716984e-02 0. 0. 0. 9.00785178e-02
      3.64085436e-01 6.31660938e-01 6.31660938e-01 2.31902480e-01
      6.22070618e-02 4.10535634e-01 4.10535634e-01 3.80200893e-01
      6.63786903e-02 4.10535634e-01 4.10535634e-01 4.10535634e-01
      1.93066131e-02 2.99388058e-02 4.59611803e-01 4.59611803e-01
      2.80288637e-01 0. 3.50290358e-01 4.59611803e-01 3.99397403e-01
      6.07598515e-04 3.58779758e-01 3.53060693e-01 3.58779758e-01
      1.88549850e-02 3.58779758e-01 3.58779758e-01 3.58779758e-01
      3.14755023e-01 3.58779758e-01 3.91167283e-01 3.62135321e-01
      2.45437875e-01 1.77498609e-01 3.63343120e-01 3.91167283e-01
      3.91167283e-01 3.91167283e-01 1.70701519e-01 3.46971959e-01
      3.71883541e-01 3.99051875e-01 3.99051875e-01 2.00554356e-01
      3.99051875e-01 3.32537293e-01 2.72361159e-01 1.86053395e-01
      1.59279574e-02 5.61431088e-02 1.58919603e-01 0. 1.58265501e-01
      6.24617994e-01 6.24617994e-01 3.93353850e-01 7.09365159e-02
      4.45133299e-01 4.45133299e-01 4.45133299e-01 2.74793029e-01
      4.45133299e-01 3.73436287e-02 3.45495343e-02 1.13960311e-01
      3.34503651e-01 3.25409845e-02 1.26296565e-01 4.43517953e-01
      3.23711991e-01 4.73531932e-01 4.73531932e-01 4.69937265e-01
      6.83313310e-02 5.28003164e-02 1.15957998e-01 1.25444293e-01
      1.99276149e-01 4.65981215e-01 4.65981215e-01 1.94234505e-01
      4.65981215e-01 4.65981215e-01 1.42025307e-01 1.27086518e-02
      6.99190125e-02 4.02254790e-01 1.41697064e-01 4.02254790e-01
      4.02254790e-01 4.02254790e-01 4.02254790e-01 4.02254790e-01
      2.45557919e-01 3.61126214e-01 3.61126214e-01 1.52342886e-01
      3.61126214e-01 3.61126214e-01 3.61126214e-01 3.61126214e-01
      3.61126214e-01 1.67629160e-02 1.06663480e-01 3.09529424e-01
      2.26869509e-01 6.17204532e-02 2.54774988e-01 6.15357101e-01
      6.15357101e-01 9.41881388e-02 1.90695956e-01 5.46882451e-02
      3.11689824e-02 1.92682549e-01 4.35283661e-01 4.92023915e-01
      4.92023915e-01 4.92023915e-01 4.35608439e-02 1.18953481e-01
      3.70888531e-01 3.70888531e-01 3.70888531e-01 1.38696223e-01
      3.70888531e-01 3.70888531e-01 3.70888531e-01 3.70888531e-01 0.
      1.45800173e-01 2.25930437e-01 3.23025674e-01 4.27937508e-01
      4.27937508e-01 4.27937508e-01 4.27937508e-01 2.94202834e-01
      3.61312419e-01 3.88378799e-01 3.88378799e-01 3.88378799e-01
      3.88378799e-01 2.73236074e-02 6.04146495e-02 3.88378799e-01
      3.27087790e-01 5.25611520e-01 5.25611520e-01 2.62996316e-01
      7.75448419e-03 5.46650253e-02 3.77045386e-02 3.04950535e-01
      4.87563193e-01 1.94592401e-01 5.72096333e-02 5.86137287e-02
      3.94627392e-01 5.25920630e-01 2.12586343e-01 4.46218811e-02
      3.59472007e-01 5.25920630e-01 3.20498556e-01 6.58381730e-02
      6.08447343e-02 2.57528543e-01 1.97978124e-01 8.87055546e-02
      2.67587513e-01 6.31057680e-01 6.31057680e-01 6.48629516e-02
      2.81919152e-01 6.00746155e-01 6.00746155e-01 7.32719526e-02
      1.68149501e-01 8.07484165e-02 2.58495539e-01 2.89828569e-01
      4.18033749e-02 5.17624803e-02 4.02280003e-01 4.02280003e-01
      3.20142031e-01 7.10517392e-02 4.02280003e-01 4.02280003e-01
      4.02280003e-01 2.76797086e-01 4.58455563e-01 4.58455563e-01
      4.58455563e-01 3.01282644e-01 1.47813812e-01 1.43732011e-01
      7.47397766e-02 1.25815690e-01 4.58455563e-01 2.40567774e-01
      2.28333980e-01 4.61894602e-01 3.61259542e-02 1.75097302e-01
      4.61894602e-01 4.61894602e-01 4.61894602e-01 5.14965365e-03
      2.70557165e-01 1.46511227e-01 4.17822808e-01 2.16364577e-01
      1.95584491e-01 3.43204081e-01 4.17822808e-01 4.17822808e-01
      4.17822808e-01</_>
    <_>
      0. 0. 2.92667421e-04 2.75072400e-02 8.71860466e-05 1.06096596e-01
      7.00355470e-01 7.00355470e-01 0. 1.92187905e-01 4.37357098e-01
      4.37357098e-01 3.85988392e-02 2.08906527e-03 4.37357098e-01
      4.37357098e-01 4.21028763e-01 1.21698879e-01 2.43364647e-01
      4.27841008e-01 3.57087761e-01 1.98928282e-01 1.45240813e-01
      4.27841008e-01 4.27841008e-01 4.27841008e-01 1.27000540e-01
      4.72475338e-04 4.15494680e-01 4.15494680e-01 4.15494680e-01
      4.15494680e-01 1.49515241e-01 4.15494680e-01 3.13134223e-01
      1.10734455e-01 4.98440024e-03 6.77662715e-02 2.26691499e-01
      4.32394832e-01 4.32394832e-01 4.32394832e-01 4.32394832e-01
      4.32394832e-01 6.96287304e-02 4.31408495e-01 4.31408495e-01
      4.31408495e-01 4.31408495e-01 4.31408495e-01 2.53045440e-01
      6.42422773e-03 2.25653350e-02 2.32741553e-02 0. 3.21211480e-03
      1.44477990e-02 2.08024643e-02 3.69025245e-02 1.08932413e-03
      7.03901708e-01 7.03901708e-01 1.81513315e-03 2.55783331e-02
      1.03590637e-01 1.70528591e-01 4.89448979e-02 7.70618301e-03
      5.55879653e-01 5.64195991e-01 5.64195991e-01 7.62194246e-02
      4.13317531e-01 4.13317531e-01 4.13317531e-01 1.56608686e-01
      4.13317531e-01 3.21774930e-01 3.30925494e-01 1.75393522e-01
      2.10251078e-01 3.95643562e-01 2.35631198e-01 3.85712981e-01
      2.33713448e-01 3.95643562e-01 1.07894011e-01 3.95643562e-01
      3.95643562e-01 3.15202475e-01 2.78987557e-01 3.68327349e-01
      3.68327349e-01 3.68327349e-01 2.69140482e-01 3.68327349e-01
      3.68327349e-01 3.68327349e-01 1.79051176e-01 4.44772303e-01
      4.44772303e-01 4.44772303e-01 4.44772303e-01 4.44772303e-01
      5.10252565e-02 3.53148207e-02 0. 5.09378351e-02 1.58169516e-03 0.
      0. 0. 1.46293975e-02 3.57086957e-01 7.33466327e-01 5.71817875e-01
      1.58169516e-03 5.85303828e-02 3.01797330e-01 1.72117755e-01
      4.71692998e-03 3.04892822e-03 1.33660540e-03 5.69076657e-01
      5.69076657e-01 4.71652001e-01 2.29475528e-01 4.48813736e-01
      3.23712885e-01 4.48813736e-01 4.48813736e-01 8.16834122e-02
      1.34907186e-01 4.48813736e-01 8.63754004e-02 3.27303886e-01
      1.97820619e-01 3.68805826e-01 3.68805826e-01 3.68805826e-01
      2.71306843e-01 3.10416728e-01 3.68805826e-01 3.68805826e-01
      4.02870864e-01 4.02870864e-01 4.02870864e-01 2.88981527e-01
      1.92979947e-01 1.70243066e-02 2.51812011e-01 4.02870864e-01
      4.02870864e-01 4.96643275e-01 4.96643275e-01 2.69545406e-01
      8.15316439e-02 7.61220604e-02 0. 0. 4.12285775e-01 4.96643275e-01
      1.37358569e-02 4.12429720e-02 2.15925202e-02 2.35834029e-02
      1.60658397e-02 8.43618996e-03 7.03462601e-01 7.03462601e-01
      4.14099032e-03 0. 1.50123298e-01 5.60098648e-01 1.53403729e-01 0.
      4.08094786e-02 5.60098648e-01 5.60098648e-01 7.44321644e-02
      6.65601119e-02 1.89097345e-01 4.37915139e-02 2.39733517e-01
      2.71695822e-01 1.70701966e-01 5.91014147e-01 5.91014147e-01
      3.04905683e-01 1.41994312e-01 3.76686662e-01 3.76686662e-01
      1.85814753e-01 3.76686662e-01 3.76686662e-01 3.76686662e-01
      3.27899814e-01 3.52937162e-01 3.44630241e-01 4.56109047e-01
      4.56109047e-01 3.01245272e-01 1.33288845e-01 5.93799613e-02
      4.56109047e-01 3.74218166e-01 2.20871493e-02 1.77065253e-01
      2.71215081e-01 3.92129004e-01 4.09914702e-01 4.09914702e-01
      9.67927054e-02 2.36095577e-01 4.09914702e-01 4.09914702e-01
      3.42699960e-02 1.30991349e-02 0. 0. 0. 1.35306820e-01
      6.95202351e-01 6.95202351e-01 8.24230760e-02 1.96587341e-03
      2.43588939e-01 5.24543643e-01 0. 0. 3.30838561e-01 5.24543643e-01
      5.24543643e-01 2.30171829e-02 3.91972670e-03 4.09859270e-02
      3.57088782e-02 0. 0. 5.22355616e-01 5.66134393e-01 5.66134393e-01
      2.78396517e-01 2.66507268e-01 6.26260221e-01 6.26260221e-01
      2.08736017e-01 7.40637770e-04 8.60745534e-02 2.33442917e-01
      1.07342772e-01 1.46010816e-01 4.34215635e-01 4.34215635e-01
      4.34215635e-01 2.94917673e-02 7.96223506e-02 7.64330551e-02
      3.60299885e-01 3.14041644e-01 4.34215635e-01 8.38896632e-02
      1.01035766e-01 4.28332090e-01 4.28332090e-01 1.94878623e-01
      1.52170911e-01 4.28332090e-01 4.28332090e-01 4.28332090e-01
      1.36703029e-01 9.51211154e-03 2.85363365e-02 0. 0. 0.
      5.87115884e-01 5.87115884e-01 5.33980250e-01 8.41517583e-04
      3.58028799e-01 5.90149939e-01 1.31918024e-02 0. 1.34356339e-02
      5.90149939e-01 4.10939187e-01 1.19387265e-02 0. 0. 1.34667975e-03
      9.44736693e-03 0. 3.55917886e-02 6.57468081e-01 6.57468081e-01
      3.57141048e-01 4.86600399e-01 4.86600399e-01 4.86600399e-01
      3.71065319e-01 8.48785639e-02 1.16987051e-02 3.47250730e-01
      1.38514817e-01 9.94615111e-05 3.34282905e-01 1.96977809e-01
      3.90567631e-01 3.90567631e-01 3.90567631e-01 2.44345605e-01
      3.90567631e-01 1.52094349e-01 3.90567631e-01 3.96584809e-01
      3.96584809e-01 1.37453556e-01 0. 3.96584809e-01 3.83287698e-01
      3.96584809e-01 3.96584809e-01 2.09374681e-01</_>
    <_>
      4.50917870e-01 3.93165261e-01 3.43463197e-02 0. 3.74691784e-02
      1.58194840e-01 4.50917870e-01 4.50917870e-01 4.50917870e-01
      4.53233629e-01 4.53233629e-01 4.53233629e-01 3.12633604e-01
      2.72342503e-01 4.32980768e-02 2.09285435e-03 6.97618118e-04
      4.53233629e-01 4.12832230e-01 1.31011680e-01 1.18325539e-01
      2.22276837e-01 4.12832230e-01 4.12832230e-01 4.12832230e-01
      2.80324638e-01 3.93700868e-01 3.45686495e-01 3.45686495e-01
      3.45686495e-01 2.01377571e-01 3.45686495e-01 3.45686495e-01
      3.45686495e-01 3.45686495e-01 3.45686495e-01 3.45915496e-01
      2.37167612e-01 1.07008852e-01 2.06000105e-01 3.62768084e-01
      2.92067558e-01 3.31215233e-01 4.68465626e-01 4.68465626e-01
      3.53428632e-01 2.63412327e-01 3.53428632e-01 3.53428632e-01
      3.53428632e-01 2.29565233e-01 3.53428632e-01 3.53428632e-01
      3.53428632e-01 6.92226589e-01 6.92226589e-01 0. 0. 0. 0. 0. 0.
      1.86372206e-01 4.79374707e-01 4.79374707e-01 4.45387512e-01
      2.89514303e-01 1.53698161e-01 0. 0. 0. 4.79374707e-01
      5.41927755e-01 2.17801556e-02 1.61485299e-01 2.96762306e-02
      2.74319857e-01 7.51641244e-02 7.20946491e-02 5.41927755e-01
      5.41927755e-01 4.32320267e-01 4.32320267e-01 9.64057595e-02
      4.37365808e-02 4.32320267e-01 4.32320267e-01 1.09924145e-01
      1.94645986e-01 4.32320267e-01 3.77771348e-01 2.80294567e-01
      3.77771348e-01 1.93767428e-01 3.77771348e-01 1.54427812e-01
      3.77771348e-01 3.77771348e-01 3.77771348e-01 3.44703048e-01
      3.44703048e-01 3.44703048e-01 3.44703048e-01 2.14462817e-01
      3.44703048e-01 3.44703048e-01 3.44703048e-01 3.44703048e-01
      6.75971985e-01 6.75971985e-01 2.76241601e-01 1.07821375e-02 0. 0.
      0. 0. 5.43115959e-02 3.85119349e-01 2.09371746e-01 3.85119349e-01
      3.85119349e-01 3.85119349e-01 1.81477606e-01 3.66378397e-01
      3.55066061e-01 2.56533056e-01 4.18061644e-01 1.15508363e-02
      1.24108613e-01 1.91789806e-01 4.18061644e-01 2.63868004e-01
      4.18061644e-01 4.18061644e-01 4.18061644e-01 4.09220368e-01
      4.09220368e-01 4.09220368e-01 4.09220368e-01 4.09220368e-01
      1.17566310e-01 1.78976163e-01 3.03654559e-02 3.34408730e-01
      3.56652856e-01 3.21366042e-01 3.56652856e-01 5.24569266e-02
      3.56652856e-01 3.56652856e-01 3.56652856e-01 3.56652856e-01
      3.56652856e-01 3.54591697e-01 3.54591697e-01 3.54591697e-01
      3.32249731e-01 3.21730614e-01 3.54591697e-01 3.54591697e-01
      2.49292329e-01 3.02875698e-01 3.80848676e-01 3.29057723e-01
      3.80848676e-01 3.80848676e-01 2.29289725e-01 1.56895489e-01
      3.80848676e-01 3.80848676e-01 2.92399615e-01 4.09409523e-01
      4.09409523e-01 2.52755731e-01 4.68861535e-02 9.31782648e-02
      4.09409523e-01 3.92589390e-01 3.10729653e-01 4.09409523e-01
      3.71928304e-01 2.16618627e-01 3.58073801e-01 3.36851329e-01
      3.71928304e-01 3.71928304e-01 3.71928304e-01 1.26576662e-01
      3.71928304e-01 2.96093524e-01 3.73229802e-01 2.65369892e-01
      5.75498082e-02 3.87307107e-01 3.87307107e-01 3.87307107e-01
      3.87307107e-01 3.08866680e-01 4.21336710e-01 3.56276065e-01
      2.63102055e-01 2.19032466e-01 9.83430594e-02 1.78579614e-01
      4.21336710e-01 4.21336710e-01 4.21336710e-01 4.01636183e-01
      4.01636183e-01 4.01636183e-01 4.01636183e-01 2.41761237e-01
      3.23661298e-01 5.23289032e-02 1.53251544e-01 4.01636183e-01
      5.37445908e-03 3.48559916e-01 4.67523873e-01 4.67523873e-01
      4.67523873e-01 4.02643681e-01 2.36533552e-01 1.29520521e-03 0.
      2.54220098e-01 4.19424981e-01 4.19424981e-01 4.19424981e-01
      3.31297100e-01 2.62192070e-01 4.19424981e-01 1.73871234e-01
      1.37038335e-01 3.93262386e-01 3.93262386e-01 1.90909564e-01
      9.38560367e-02 3.93262386e-01 3.93262386e-01 1.51274443e-01
      3.93262386e-01 3.93262386e-01 1.93508923e-01 9.54146218e-03
      1.92709407e-03 3.30867134e-02 3.92155796e-01 4.48080033e-01
      4.48080033e-01 4.48080033e-01 4.48080033e-01 3.69415492e-01
      3.69415492e-01 3.69415492e-01 3.69415492e-01 3.69415492e-01
      1.90908045e-01 6.77400529e-02 3.69415492e-01 3.69415492e-01
      4.70301688e-01 2.57441133e-01 4.65718098e-02 3.36284995e-01
      4.70301688e-01 3.86319518e-01 3.11636496e-02 2.27376027e-03
      4.70301688e-01 4.87664998e-01 2.28389934e-01 4.87664998e-01
      4.87664998e-01 2.52705634e-01 0. 1.11102998e-01 2.18232330e-02
      3.90941948e-01 4.24377769e-01 5.68962060e-02 4.24377769e-01
      4.24377769e-01 3.27338427e-01 1.52502567e-01 4.24377769e-01
      1.82179049e-01 3.29455435e-01 3.04222424e-02 1.04824439e-01
      4.23081636e-01 4.23081636e-01 4.23081636e-01 4.23081636e-01
      4.23081636e-01 2.61998147e-01 1.42220601e-01 4.33828831e-01
      1.47160888e-01 2.19680414e-01 4.52491939e-02 4.09134150e-01
      4.33828831e-01 4.33828831e-01 5.90127409e-02 4.33828831e-01
      4.29782301e-01 8.89285002e-03 9.25277770e-02 2.46952131e-01
      4.29782301e-01 5.01680747e-02 4.29782301e-01 4.29782301e-01
      4.29782301e-01 4.35627490e-01 4.38038677e-01 1.97337791e-01
      3.02218139e-01 4.38038677e-01 4.36486781e-01 9.56353918e-02
      4.96887565e-02 2.99472064e-01</_>
    <_>
      5.45469820e-02 1.36367455e-02 5.26731797e-02 8.25206041e-02
      5.31218708e-01 5.31218708e-01 5.31218708e-01 3.63860071e-01
      5.45469820e-02 1.22343928e-01 1.28309622e-01 5.36985517e-01
      5.61517417e-01 5.61517417e-01 6.51641786e-02 1.64818093e-01
      5.49393669e-02 9.78501216e-02 5.03979363e-02 4.39133525e-01
      4.99581784e-01 4.99581784e-01 4.22471762e-01 2.62365550e-01
      1.61150903e-01 1.56973615e-01 5.03979363e-02 2.30232091e-03
      2.13199034e-01 5.03598392e-01 2.72704232e-02 5.03598392e-01
      6.30932748e-02 5.03598392e-01 4.28798914e-01 9.17478465e-03
      3.09119165e-01 1.54520020e-01 3.96856785e-01 0. 3.25911075e-01
      3.74706805e-01 3.96856785e-01 3.96856785e-01 3.96856785e-01
      4.79764670e-01 1.54553831e-01 3.27818058e-02 1.10767402e-01
      4.79764670e-01 4.79764670e-01 1.93003595e-01 5.50297089e-03
      4.79764670e-01 8.62284601e-02 1.22754477e-01 1.53656006e-01
      9.01352167e-02 5.21882117e-01 5.21882117e-01 4.30405945e-01
      3.28876436e-01 3.20028931e-01 7.40764961e-02 2.31429879e-02
      1.06642365e-01 1.34645194e-01 6.68829203e-01 6.68829203e-01
      2.42275327e-01 2.20212080e-02 6.28545806e-02 1.09197795e-01
      1.93130895e-02 2.39569351e-01 6.18765056e-01 6.18765056e-01
      3.67283434e-01 8.91943872e-02 1.07454091e-01 6.31806403e-02
      2.79740810e-01 7.85933062e-03 2.72729471e-02 2.83607766e-02
      3.47059846e-01 4.45878595e-01 4.45878595e-01 4.45878595e-01
      4.45878595e-01 3.15956533e-01 4.12386477e-01 3.12059373e-01
      2.19503924e-01 4.12386477e-01 4.12386477e-01 2.21338883e-01
      1.45765185e-01 4.12386477e-01 3.47904593e-01 9.01351199e-02
      6.62656054e-02 0. 2.07624938e-02 1.60925820e-01 5.27525842e-01
      5.27525842e-01 5.27525842e-01 2.66486611e-02 3.45979333e-02
      2.40954179e-02 1.28355566e-02 1.82151310e-02 5.74628234e-01
      5.74628234e-01 5.74628234e-01 2.61724517e-02 3.76746565e-01
      3.76746565e-01 3.76746565e-01 3.76746565e-01 3.76746565e-01
      3.76746565e-01 1.24932207e-01 3.24203968e-02 3.57699692e-01
      2.61695683e-01 2.69229673e-02 5.65491021e-02 1.10498384e-01
      4.44403887e-01 4.44403887e-01 4.44403887e-01 4.44403887e-01
      3.47799301e-01 2.51668960e-01 2.15885907e-01 1.07594915e-01
      4.70426202e-01 5.16674638e-01 1.21921219e-01 5.16674638e-01
      2.84743100e-01 1.48895085e-01 7.94500634e-02 3.93611699e-01
      3.93611699e-01 3.93611699e-01 1.48693234e-01 3.55830938e-01
      3.93611699e-01 3.56575340e-01 3.06860656e-01 4.02230024e-01
      2.24570572e-01 9.65901390e-02 0. 4.02230024e-01 4.02230024e-01
      3.56756300e-01 4.02230024e-01 4.02230024e-01 4.76827770e-01
      2.92723477e-01 7.79159600e-03 1.19801087e-03 3.37706250e-03
      4.23076004e-03 4.76827770e-01 4.76827770e-01 4.76827770e-01
      7.00498521e-01 1.07393011e-01 4.63286735e-04 3.77054722e-03
      7.78244156e-03 1.32958556e-03 6.13142038e-04 7.29613472e-04
      7.00498521e-01 6.82505131e-01 7.59293931e-03 1.19934725e-02
      2.98663620e-02 2.31394008e-01 5.47529024e-04 4.82436046e-02
      6.77920878e-02 6.82505131e-01 3.61692250e-01 3.61692250e-01
      2.98511386e-01 2.15601698e-01 2.75436848e-01 3.61692250e-01
      3.61692250e-01 3.61692250e-01 3.61692250e-01 2.28570580e-01
      5.80853187e-02 7.24076182e-02 3.83338362e-01 4.46893513e-01
      4.46893513e-01 4.46893513e-01 2.67332137e-01 3.42225969e-01
      2.03910936e-02 1.52929677e-02 1.05660431e-01 1.22755326e-01
      4.99749422e-01 4.99749422e-01 3.51344287e-01 3.48977476e-01
      4.72651094e-01 4.23351735e-01 2.37419829e-01 4.23351735e-01
      2.02088073e-01 4.92942668e-02 0. 4.23351735e-01 4.23351735e-01
      4.23351735e-01 1.64484397e-01 2.96818286e-01 4.24781859e-01
      4.24781859e-01 4.24781859e-01 2.76189864e-01 4.24781859e-01
      1.99608102e-01 2.06682995e-01 1.50663843e-02 3.65143158e-02
      7.38550499e-02 2.07751498e-01 5.59579551e-01 6.95982203e-02
      5.59579551e-01 5.59579551e-01 2.22403929e-03 1.16107814e-01
      1.08505011e-01 3.52854043e-01 1.30476523e-03 5.17236531e-01
      5.17236531e-01 5.17236531e-01 1.48707151e-01 1.42680004e-01
      1.74115643e-01 6.08609505e-02 4.72937405e-01 4.72937405e-01
      1.45878091e-01 2.03457966e-01 6.24581464e-02 4.72937405e-01
      4.72937405e-01 4.88830507e-01 5.01801968e-02 3.31958756e-02
      1.50042754e-02 3.34413610e-02 2.21640065e-01 4.95331027e-02
      5.91016948e-01 5.91016948e-01 2.40091071e-03 3.82232040e-01
      5.25710762e-01 5.25710762e-01 5.25710762e-01 0. 8.80154297e-02
      1.08385816e-01 5.74146956e-03 3.53146076e-01 2.57404268e-01
      3.98709655e-01 4.00293350e-01 4.00293350e-01 4.00293350e-01
      4.00293350e-01 4.28136662e-02 5.73631711e-02 3.76485378e-01
      1.68856651e-01 3.76485378e-01 3.76485378e-01 3.39095950e-01
      4.78825346e-02 3.76485378e-01 3.76485378e-01 3.76485378e-01
      5.27055442e-01 2.58981977e-02 5.95252626e-02 3.40712555e-02
      9.02970284e-02 9.27081779e-02 5.27055442e-01 3.73163372e-01
      5.27055442e-01 5.17677903e-01 1.07018873e-01 4.28795695e-01
      4.72036749e-01 1.96259513e-01 4.07603644e-02 1.51978014e-02
      1.73660852e-02 5.17677903e-01 3.82593185e-01 3.82593185e-01
      3.34636837e-01 1.05190463e-02 1.15700401e-01 3.72573465e-01
      3.82593185e-01 3.82593185e-01 3.82593185e-01</_>
    <_>
      4.67507809e-01 0. 1.12257889e-02 2.30058700e-01 4.67507809e-01
      4.67507809e-01 2.57847041e-01 3.92195284e-02 4.67507809e-01
      3.09261709e-01 7.37829059e-02 4.80589390e-01 4.80589390e-01
      4.80589390e-01 3.66306126e-01 1.63784355e-01 1.48995727e-01
      1.34199381e-01 4.86481190e-01 4.86481190e-01 1.92403257e-01
      9.44191143e-02 2.76449472e-01 2.23605245e-01 2.88140118e-01
      1.72530904e-01 4.86481190e-01 5.22764623e-01 5.22764623e-01
      4.33029026e-01 3.08001906e-01 3.92326117e-01 0. 6.71166033e-02
      1.17254434e-02 8.52783546e-02 3.93856287e-01 3.93856287e-01
      3.93856287e-01 3.93856287e-01 3.70878637e-01 2.27974266e-01
      6.85325190e-02 1.90474644e-01 3.80885452e-01 4.36310977e-01
      4.36310977e-01 1.69705808e-01 9.35369954e-02 3.81524146e-01
      1.57595143e-01 1.61946312e-01 4.36310977e-01 4.36310977e-01
      4.04603392e-01 2.82181323e-01 4.04603392e-01 3.89157712e-01
      2.87282407e-01 4.43260446e-02 1.59926429e-01 4.04603392e-01
      4.04603392e-01 3.37408066e-01 5.87172471e-02 1.26351058e-01
      2.86860734e-01 2.63414651e-01 4.21561390e-01 4.21561390e-01
      4.21561390e-01 4.21561390e-01 2.73925334e-01 3.53973299e-01
      3.72063816e-01 3.72063816e-01 3.72063816e-01 3.15997332e-01
      3.72063816e-01 2.98628300e-01 2.30633155e-01 4.54738945e-01
      1.26394913e-01 5.61163984e-02 5.09685993e-01 5.09685993e-01
      1.03387028e-01 0. 3.89809668e-01 2.94614375e-01 3.94177645e-01
      3.94177645e-01 3.94177645e-01 3.94177645e-01 3.94177645e-01
      3.45233977e-01 8.04534033e-02 2.54287332e-01 1.69884384e-01
      8.92872512e-02 3.98855120e-01 3.98855120e-01 3.94838363e-01
      3.95419240e-01 1.93111897e-01 3.98855120e-01 3.98855120e-01
      4.64304872e-02 1.34240076e-01 6.60845428e-04 1.98253640e-03 0.
      5.41946094e-04 9.39182099e-03 5.70435703e-01 5.70435703e-01
      5.70435703e-01 4.90103155e-01 4.90103155e-01 6.13075718e-02
      5.55789731e-02 2.76469868e-02 1.62540555e-01 2.09725827e-01
      4.43266690e-01 4.90103155e-01 1.96108505e-01 3.52135599e-01
      4.10220861e-01 4.10220861e-01 0. 7.47109950e-02 4.10220861e-01
      4.10220861e-01 3.93367082e-01 4.48034346e-01 4.48034346e-01
      2.63452142e-01 2.27270007e-01 9.80482101e-02 2.10161924e-01
      1.33211628e-01 4.48034346e-01 4.48034346e-01 4.86016005e-01
      4.86016005e-01 4.86016005e-01 3.11079979e-01 3.68029833e-01
      7.98344333e-03 3.79515775e-02 1.20649286e-01 1.95535645e-01
      1.61218554e-01 1.19896241e-01 1.39953852e-01 3.90858240e-02
      3.19651186e-01 5.75974584e-01 5.75974584e-01 3.77359122e-01
      1.57152712e-01 4.98745978e-01 0. 0. 0. 0. 5.34276757e-03
      4.98745978e-01 4.98745978e-01 4.98745978e-01 6.81518793e-01
      2.53007144e-01 0. 0. 0. 0. 1.49438232e-02 4.98127425e-03
      6.81518793e-01 3.03149879e-01 1.76611710e-02 3.88468727e-02
      1.75629556e-02 2.07568146e-02 4.74552393e-01 4.74552393e-01
      4.74552393e-01 4.74552393e-01 7.97064826e-02 2.15259880e-01
      4.45268869e-01 4.45268869e-01 4.45268869e-01 3.06800365e-01
      4.26794410e-01 2.54890710e-01 8.25841278e-02 3.97742279e-02
      4.30313319e-01 5.19626796e-01 5.19626796e-01 5.02009928e-01
      7.20375404e-02 1.02660134e-01 1.14201317e-02 1.27381878e-02
      1.62328318e-01 1.35772228e-01 1.93525165e-01 4.07727271e-01
      2.64314890e-01 4.28584248e-01 4.28584248e-01 4.28584248e-01
      3.55422050e-01 0. 0. 0. 0. 0. 0. 0. 0. 0. 0. 0. 0. 0. 0. 0. 0. 0.
      0. 4.75599021e-02 5.94982086e-03 0. 9.07415990e-03 4.98786829e-02
      5.53963244e-01 5.53963244e-01 5.53963244e-01 2.62630194e-01
      1.56766236e-01 3.27229798e-01 2.06233770e-01 8.63315314e-02
      4.10209984e-01 4.10209984e-01 4.10209984e-01 3.75729620e-01
      4.10209984e-01 4.26541299e-01 4.26541299e-01 2.01358683e-02
      1.48034349e-01 4.26541299e-01 4.26541299e-01 2.49615595e-01
      3.77403423e-02 4.26541299e-01 5.67722738e-01 2.08409280e-02
      2.87281852e-02 6.51174113e-02 5.67722738e-01 1.09931603e-01
      9.61372554e-02 2.40096711e-02 5.67722738e-01 0. 0. 0. 0. 0. 0. 0.
      0. 0. 0. 0. 0. 0. 3.67773563e-01 0. 7.81736553e-01 4.95811045e-01
      0. 0. 0. 0. 0. 2.45236605e-01 4.68436301e-01 5.91243267e-01
      5.91243267e-01 1.24038436e-01 4.75613326e-01 4.75613326e-01
      4.75613326e-01 6.80735037e-02 2.60549068e-01 4.76216860e-02
      1.01926923e-01 7.23914504e-02 4.75613326e-01 4.06008393e-01
      4.06008393e-01 4.06008393e-01 3.46538454e-01 4.06008393e-01
      4.06008393e-01 1.84712321e-01 8.00967589e-02 1.05389327e-01
      7.26803541e-02 2.01303124e-01 4.46074575e-01 3.79025728e-01
      4.46074575e-01 4.46074575e-01 4.46074575e-01 6.97560161e-02
      7.26803541e-02</_>
    <_>
      3.15376520e-01 4.52704996e-01 4.52704996e-01 4.52704996e-01
      4.52704996e-01 0. 0. 0. 2.76131421e-01 4.03849453e-01 0. 0.
      5.93114972e-01 6.61450565e-01 0. 0. 0. 2.02484548e-01
      3.52050006e-01 0. 0. 4.31684077e-01 7.71029890e-01 5.62018482e-03
      0. 0. 2.95796216e-01 4.89312399e-04 0. 0. 6.24739468e-01
      7.65790761e-01 1.24985635e-01 0. 0. 4.89312399e-04 0.
      1.96869403e-01 1.96078375e-01 7.69622624e-02 5.33852696e-01
      5.33852696e-01 5.33852696e-01 2.37791911e-01 0. 0. 1.82528988e-01
      6.63001418e-01 2.25899518e-01 6.84921920e-01 1.12273861e-02 0. 0.
      0. 4.25250441e-01 3.02592695e-01 4.25250441e-01 4.25250441e-01
      4.25250441e-01 0. 0. 0. 4.25250441e-01 7.04615593e-01 0. 0. 0. 0.
      0. 0. 0. 7.04615593e-01 1.65420502e-01 0. 0. 0. 9.44880605e-01
      9.19063017e-02 1.41377747e-02 3.96721670e-03 2.48490751e-01
      2.79717088e-01 0. 5.37732303e-01 1.19713753e-01 5.37732303e-01
      3.70724022e-01 2.21788466e-01 2.97281076e-03 3.70283097e-01
      1.91375002e-01 1.96940571e-01 3.95631880e-01 8.96930844e-02
      3.95631880e-01 3.95631880e-01 3.95631880e-01 3.95631880e-01
      3.60513389e-01 5.55383444e-01 1.72360569e-01 1.02643609e-01
      1.61235277e-02 5.55383444e-01 6.48559704e-02 5.47658943e-04
      1.56176344e-01 5.55383444e-01 1.01495087e-01 1.60000531e-03
      4.88621235e-01 4.88621235e-01 5.87619431e-02 0. 1.62357673e-01
      4.88621235e-01 4.88621235e-01 1.29493386e-01 3.72052984e-03
      1.02887591e-02 2.14039087e-01 5.65601587e-01 5.65601587e-01
      1.90763533e-01 3.53660822e-01 3.61073405e-01 2.02100705e-02
      2.55361021e-01 3.89767975e-01 3.89767975e-01 3.89767975e-01
      3.89767975e-01 3.89767975e-01 3.45578045e-01 2.26867184e-01
      1.08417660e-01 2.09593251e-02 4.80718106e-01 4.80718106e-01
      4.80718106e-01 3.79637539e-01 3.48293304e-01 1.42167747e-01
      6.39588013e-02 3.10139954e-01 7.48662651e-02 4.10159886e-01
      4.10159886e-01 3.77287775e-01 1.27389818e-01 2.50224024e-01
      4.10159886e-01 4.10159886e-01 6.59855381e-02 0. 2.13610247e-01
      4.24542010e-01 4.24542010e-01 4.24542010e-01 4.24542010e-01
      4.24542010e-01 2.11177424e-01 0. 0. 0. 3.35482985e-01
      9.18822885e-01 1.63875416e-01 2.26463354e-03 7.64571130e-02
      3.66416089e-02 1.68651134e-01 3.87981758e-02 8.57799426e-02
      3.06050003e-01 4.15901899e-01 4.15901899e-01 4.15901899e-01
      4.15901899e-01 4.15901899e-01 7.60646537e-02 1.30994767e-02
      1.34737864e-01 9.42735448e-02 4.38775063e-01 4.38775063e-01
      4.38775063e-01 4.38775063e-01 4.38775063e-01 1.86679989e-01
      2.29254410e-01 1.20197162e-02 4.18122858e-02 5.11141777e-01
      5.11141777e-01 5.11141777e-01 3.28846395e-01 1.16865262e-01
      8.33487213e-02 1.50311485e-01 3.36648583e-01 6.41075075e-01
      6.41075075e-01 4.89382222e-02 1.45265356e-01 1.24132531e-02
      7.15629533e-02 3.42731886e-02 3.20043005e-02 1.04804948e-01
      6.82517231e-01 6.82517231e-01 1.72859609e-01 7.85452574e-02
      5.01244813e-02 9.89011899e-02 0. 0. 0. 4.11318213e-01
      8.04623246e-01 4.18770552e-01 0. 0. 0. 4.43353415e-01
      2.18359783e-01 3.00236166e-01 4.43353415e-01 4.43353415e-01
      2.67229438e-01 9.38278064e-03 0. 4.43353415e-01 4.06238317e-01
      4.06238317e-01 2.61998832e-01 8.94632414e-02 1.86172262e-01
      4.06238317e-01 4.06238317e-01 2.43898988e-01 4.06238317e-01
      1.20159589e-01 1.22075319e-01 2.14906409e-01 8.89651303e-04
      4.60925549e-01 3.69975679e-02 4.85045731e-01 4.85045731e-01
      4.85045731e-01 4.73956168e-01 3.15013707e-01 1.97369754e-01
      2.94373959e-01 1.81074500e-01 1.35565236e-01 2.12960958e-01
      4.73956168e-01 4.73956168e-01 1.53772354e-01 5.14680445e-01
      5.14680445e-01 4.41512885e-03 5.14680445e-01 2.39007667e-01
      2.33764023e-01 2.02707648e-01 1.53772354e-01 3.55667323e-01
      3.78013492e-01 3.78013492e-01 3.78013492e-01 3.78013492e-01
      3.78013492e-01 3.78013492e-01 4.22633849e-02 1.02824315e-01
      4.03858423e-01 4.03858423e-01 4.03858423e-01 4.03858423e-01
      4.03858423e-01 6.11909442e-02 6.31504208e-02 4.03858423e-01
      9.80991274e-02 3.67914885e-01 3.67914885e-01 3.67914885e-01
      3.67914885e-01 3.67914885e-01 3.22624385e-01 5.03763333e-02
      2.78445363e-01 3.67914885e-01 4.09989446e-01 1.33315623e-01
      3.74811925e-02 0. 4.09989446e-01 4.09989446e-01 3.69147301e-01
      4.09989446e-01 4.09989446e-01 7.90714461e-04 0. 1.34847593e-03
      8.39378778e-03 3.32255602e-01 2.54181772e-01 5.22718787e-01
      5.22718787e-01 5.22718787e-01 3.58928055e-01 5.54070413e-01
      5.54070413e-01 1.30686946e-02 3.56208235e-01 4.57388200e-02
      3.54255028e-02 9.46134515e-03 3.48077565e-01</_>
    <_>
      5.55633008e-01 5.55633008e-01 5.55633008e-01 1.30400419e-01
      9.90850851e-02 8.36731568e-02 3.27131674e-02 2.85695978e-02
      1.80437341e-01 4.73927587e-01 1.43682808e-01 4.73927587e-01
      7.06717893e-02 4.73927587e-01 1.31966742e-02 2.65508294e-01
      2.29943097e-02 4.73927587e-01 4.08778638e-01 8.62728804e-02
      4.08778638e-01 4.08778638e-01 4.08778638e-01 1.88824072e-01
      1.52782813e-01 3.06555778e-01 4.08778638e-01 4.53145593e-01
      1.01066325e-02 2.14535128e-02 4.11140412e-01 4.53145593e-01
      6.70512766e-02 3.89963505e-03 4.53145593e-01 4.53145593e-01
      4.90681708e-01 7.78452959e-04 2.33535888e-03 4.21224356e-01
      4.90681708e-01 3.06953311e-01 3.36857922e-02 1.54713530e-03
      4.90681708e-01 5.52058995e-01 2.42982624e-05 7.28947780e-05
      2.05895007e-01 6.19272053e-01 1.57239452e-01 4.61363941e-02
      5.82855456e-02 4.82604444e-01 4.76812571e-01 4.76812571e-01
      4.76812571e-01 6.08509146e-02 4.63893451e-02 2.17471197e-01
      4.76812571e-01 1.79866374e-01 1.83366090e-02 4.17552084e-01
      4.17552084e-01 6.25433251e-02 4.17552084e-01 4.17552084e-01
      2.93201029e-01 3.51991624e-01 2.82613873e-01 6.91565201e-02
      4.91183043e-01 2.70637609e-02 0. 4.31571960e-01 4.91183043e-01
      2.20386207e-01 6.10095263e-02 1.78977489e-01 4.91183043e-01
      4.06324387e-01 2.37903237e-01 1.38323367e-01 2.04837814e-01
      4.06324387e-01 4.06324387e-01 4.06324387e-01 2.76771188e-01
      3.75833482e-01 3.87665957e-01 3.87665957e-01 3.87665957e-01
      3.87665957e-01 2.98903555e-01 6.54366538e-02 2.81494409e-02
      3.87665957e-01 3.87665957e-01 3.82135361e-01 3.82135361e-01
      5.22538014e-02 3.74029987e-02 3.82135361e-01 3.40423614e-01
      3.82135361e-01 3.82135361e-01 3.82135361e-01 2.20233947e-01
      5.47072172e-01 5.67292631e-01 3.59263904e-02 1.22314086e-02
      2.34331135e-02 5.47178566e-01 1.52738884e-01 6.22164051e-04
      4.44082022e-01 4.44082022e-01 4.44082022e-01 9.87452175e-03
      5.07145450e-02 7.17236027e-02 4.13072929e-02 4.44082022e-01
      4.44082022e-01 7.53287673e-02 3.59736502e-01 3.59736502e-01
      3.59736502e-01 3.59736502e-01 3.59736502e-01 3.59736502e-01
      3.59736502e-01 2.91305780e-01 3.59487563e-01 3.59487563e-01
      2.35470563e-01 3.59487563e-01 3.59487563e-01 1.90638050e-01
      3.59487563e-01 3.59487563e-01 3.59487563e-01 4.63144153e-01
      1.42580822e-01 2.21348852e-01 1.71943992e-01 1.91923290e-01
      4.04978022e-02 4.63144153e-01 4.63144153e-01 4.63144153e-01
      1.12837538e-01 2.48170897e-01 2.80063391e-01 4.45324481e-01
      4.45324481e-01 4.03794050e-01 4.45324481e-01 2.49086216e-01
      1.50863633e-01 1.41865900e-02 6.39888108e-01 7.42810607e-01
      1.57304689e-01 7.95119032e-02 9.66026634e-03 0. 0. 0.
      2.72152632e-01 1.69046342e-01 3.79801780e-01 4.56516713e-01
      4.56516713e-01 4.56516713e-01 3.24419618e-01 1.92620291e-03
      1.34434417e-01 3.83981943e-01 1.89768523e-01 3.83981943e-01
      1.51721081e-02 3.40447336e-01 3.83981943e-01 3.83981943e-01
      3.26812685e-01 3.83981943e-01 3.02436113e-01 3.17642719e-01
      3.45936775e-01 2.93505788e-01 3.45936775e-01 3.45936775e-01
      3.45936775e-01 3.45936775e-01 3.45936775e-01 5.03708199e-02
      2.24224590e-02 2.06065804e-01 3.58503878e-01 4.51940507e-01
      4.51940507e-01 4.51940507e-01 3.92166734e-01 2.34333575e-01
      2.63560057e-01 3.71955544e-01 3.85211349e-01 1.76055461e-01
      3.85211349e-01 3.85211349e-01 3.85211349e-01 2.13966012e-01
      3.43524039e-01 2.80626323e-02 5.99212527e-01 7.66323984e-01
      1.70046732e-01 7.66344070e-02 9.01816860e-02 4.83147986e-02 0. 0.
      5.82717776e-01 5.82717776e-01 3.91160659e-02 1.85618713e-01
      9.07806084e-02 1.59486994e-01 1.17476627e-01 1.30990058e-01
      4.63077337e-01 6.52154207e-01 1.68301370e-02 1.37452362e-02
      8.07678909e-04 4.41085920e-02 9.87781286e-02 1.77076489e-01
      3.15194130e-01 6.52154207e-01 5.51461577e-01 1.95539713e-01
      5.89680579e-03 5.54887317e-02 1.21293478e-02 2.57361252e-02
      2.00010806e-01 5.51461577e-01 5.51461577e-01 4.44199800e-01
      2.71180421e-01 1.32268116e-01 1.35312781e-01 3.71682346e-01
      2.59772480e-01 2.97741413e-01 4.44199800e-01 4.44199800e-01
      4.64862645e-01 2.99031347e-01 1.49667725e-01 1.57595038e-01
      2.43194103e-01 6.22698572e-04 3.88927758e-01 4.64862645e-01
      4.64862645e-01 0. 1.16829194e-01 5.71578383e-01 5.71578383e-01
      5.71578383e-01 2.31920667e-02 0. 0. 0. 1.05234617e-02
      5.68375811e-02 1.49436504e-01 4.26539242e-01 8.75194490e-01
      9.46902335e-02 2.30297968e-02 8.54256377e-02 2.99908333e-02
      3.98604316e-04 3.14863748e-03 9.44591220e-03 6.12884089e-02
      8.07665050e-01 5.59575200e-01 1.50043935e-01 5.21537475e-03
      9.81339440e-03 0. 1.15173357e-02 4.66187336e-02 5.45638204e-01
      8.03664982e-01 1.73861906e-01 1.12500593e-01 5.64866364e-02 0.
      2.48201583e-02 1.77239021e-03 6.69635972e-03 3.48459696e-03
      5.82654595e-01 5.82654595e-01 5.18579960e-01 1.89777762e-01
      9.79406163e-02 3.40690203e-02 3.42639745e-03 1.31778941e-01
      3.75627160e-01 6.29742920e-01 6.29742920e-01 2.00796217e-01
      1.97509062e-02 1.47337634e-02</_>
    <_>
      4.97215241e-01 3.18284258e-02 5.85624650e-02 1.32163567e-02
      3.22774053e-02 2.19792109e-02 4.97215241e-01 4.97215241e-01
      4.97215241e-01 6.40348852e-01 1.53395101e-01 2.05622345e-01
      6.84332252e-02 3.00471723e-01 6.62063509e-02 5.16634136e-02
      7.53940120e-02 6.40348852e-01 5.05313396e-01 2.89568961e-01
      8.20284858e-02 6.05604984e-02 6.99426532e-02 1.21571213e-01
      3.39131802e-01 5.05313396e-01 5.05313396e-01 4.08844203e-01
      3.28384876e-01 3.00032586e-01 3.49858940e-01 4.08844203e-01
      3.09718966e-01 7.95640051e-02 2.68218875e-01 4.08844203e-01
      3.04248482e-01 3.82061094e-01 3.82061094e-01 3.82061094e-01
      3.82061094e-01 3.82061094e-01 1.63757294e-01 3.12296432e-02
      3.82061094e-01 4.01692241e-01 3.03473949e-01 2.67109126e-01
      5.04367501e-02 4.01692241e-01 3.98450106e-01 4.01692241e-01
      1.60656393e-01 4.01692241e-01 1.77360743e-01 7.42750242e-03 0.
      4.25785370e-02 5.42590916e-01 5.42590916e-01 4.30167735e-01
      2.32607648e-01 3.65097344e-01 5.67093313e-01 7.00334683e-02
      1.05521698e-02 1.40803859e-01 5.67093313e-01 1.50092304e-01
      2.41169482e-02 1.37075827e-01 5.33297956e-01 4.02698845e-01
      4.02698845e-01 4.02698845e-01 4.02698845e-01 4.02698845e-01
      2.03213871e-01 9.30964295e-03 1.83797926e-01 3.31633955e-01
      6.52530253e-01 1.62907749e-01 2.57798910e-01 2.07256243e-01
      4.52586003e-02 1.28118061e-02 4.47280332e-02 4.15513478e-02
      6.52530253e-01 6.12042367e-01 3.90205145e-01 1.09338544e-01
      9.13599059e-02 7.56587163e-02 8.59457701e-02 2.38714084e-01
      4.51671146e-02 6.12042367e-01 4.62071866e-01 1.43745011e-02
      1.22666676e-02 2.58539878e-02 3.72669399e-01 4.62071866e-01
      3.78807485e-02 4.62071866e-01 4.62071866e-01 3.91807348e-01
      3.91392857e-01 3.91807348e-01 3.91807348e-01 3.91807348e-01
      3.83449830e-02 2.44505793e-01 1.92926452e-01 3.61069769e-01
      3.58745128e-01 3.58745128e-01 3.58745128e-01 3.58745128e-01
      1.90150142e-01 2.65475154e-01 3.42918932e-01 3.58745128e-01
      3.58745128e-01 3.65043372e-01 3.65043372e-01 3.65043372e-01
      3.65043372e-01 3.65043372e-01 1.39492363e-01 2.09995657e-01
      3.65043372e-01 3.65043372e-01 7.48411343e-02 2.62094140e-01
      4.23602492e-01 4.45699036e-01 4.45699036e-01 1.73249811e-01
      1.59591809e-01 4.45699036e-01 3.00643206e-01 8.37905332e-03
      4.01021808e-01 4.01021808e-01 4.01021808e-01 4.01021808e-01
      4.01021808e-01 2.12067157e-01 2.27503702e-01 3.08384001e-01
      4.28819269e-01 4.28819269e-01 1.87141761e-01 1.33897811e-01
      1.50282741e-01 4.28819269e-01 4.28819269e-01 2.74041630e-02
      4.28819269e-01 1.15342498e-01 3.72467265e-02 2.34618679e-01
      4.68408674e-01 6.05121791e-01 5.75755119e-01 5.66069037e-02
      1.51894556e-03 6.27792776e-02 2.06526652e-01 1.42973006e-01
      5.49991250e-01 5.49991250e-01 5.49991250e-01 4.89646606e-02
      2.43493821e-03 3.08257714e-02 1.43486455e-01 4.36329693e-01
      5.23174740e-02 3.92664462e-01 4.36329693e-01 4.36329693e-01
      4.36329693e-01 2.45166495e-01 6.14346676e-02 1.15341939e-01
      9.97383893e-02 5.27377538e-02 3.30327488e-02 4.78819519e-01
      4.78819519e-01 4.78819519e-01 4.06703293e-01 2.97428846e-01
      1.99302346e-01 9.82118323e-02 1.43788606e-01 6.27252534e-02
      3.43072683e-01 4.56985682e-01 9.02091190e-02 4.56985682e-01
      4.56985682e-01 4.56985682e-01 1.54542416e-01 5.54263294e-01
      5.54263294e-01 5.54263294e-01 2.19805807e-01 0. 0. 0.
      2.53689270e-02 4.39178169e-01 4.42402810e-01 4.42402810e-01
      4.42402810e-01 4.42402810e-01 7.40104467e-02 2.68342271e-02
      4.12378972e-03 1.16652228e-01 2.00058460e-01 5.58936179e-01
      5.58936179e-01 5.58936179e-01 9.57749933e-02 6.59028487e-03
      1.13456184e-02 7.88814947e-03 8.80845562e-02 3.58312786e-01
      5.53990424e-01 5.53990424e-01 4.38215733e-01 1.11517720e-01
      2.12585479e-02 5.24704382e-02 1.49577737e-01 1.49068072e-01
      4.44443762e-01 2.86897779e-01 4.44443762e-01 4.44443762e-01
      4.44443762e-01 2.41091490e-01 1.43835723e-01 1.03537798e-01
      1.83290139e-01 3.68455917e-01 3.68455917e-01 3.68455917e-01
      3.68455917e-01 1.84057549e-01 3.41851771e-01 3.68455917e-01
      1.76126450e-01 3.68455917e-01 4.83689070e-01 4.83689070e-01
      4.83689070e-01 4.83689070e-01 1.69378296e-01 0. 0. 0.
      1.75098598e-01 8.17432925e-02 6.58445656e-01 6.58445656e-01
      3.45375866e-01 1.88526250e-02 0. 0. 0. 1.79324672e-03
      5.48300803e-01 5.48300803e-01 2.93327600e-01 0. 9.87355504e-03
      1.95275936e-02 4.03304072e-03 7.80199617e-02 5.48300803e-01
      6.06655300e-01 6.06655300e-01 3.20924044e-01 0. 0. 0.
      1.45598454e-02 2.88198665e-02 3.92232805e-01 6.17842436e-01
      3.96991372e-01 2.52608627e-01 0. 0. 0. 8.56346488e-02
      4.03236598e-02 6.17842436e-01 2.57153332e-01 8.12260527e-03
      2.12829988e-02 5.38274599e-03 4.27941745e-03 4.81791884e-01
      4.81791884e-01 4.81791884e-01 4.81791884e-01 0. 7.01308325e-02
      4.04205710e-01 4.04205710e-01 4.04205710e-01 3.85956943e-01
      3.80569577e-01 3.28506976e-01 3.14935118e-01</_>
    <_>
      1.98530272e-01 3.80789131e-01 3.80789131e-01 3.80789131e-01
      3.80789131e-01 7.91641884e-03 3.80789131e-01 3.80789131e-01
      2.94476718e-01 1.00574888e-01 5.09984553e-01 5.09984553e-01
      5.09984553e-01 1.18734621e-01 4.72622039e-03 2.79153943e-01
      3.23926181e-01 8.69677588e-02 5.61420977e-01 1.24651618e-01
      6.56941757e-02 8.79806355e-02 5.61420977e-01 8.53694901e-02 0.
      1.18029743e-01 5.61420977e-01 4.45282608e-01 7.97417480e-04
      2.39225267e-03 1.90754622e-01 4.45282608e-01 4.02099937e-01
      6.60875216e-02 4.45282608e-01 4.45282608e-01 4.05415148e-01
      4.05415148e-01 1.97090834e-01 7.07278326e-02 4.05415148e-01
      4.05415148e-01 3.30302119e-01 1.45588532e-01 4.05415148e-01
      3.96541774e-01 3.96541774e-01 3.65486473e-01 1.49492800e-01
      1.42597184e-01 3.96541774e-01 3.96541774e-01 3.21568191e-01
      2.95615226e-01 4.77639675e-01 2.22875938e-01 2.57926732e-01
      1.39792532e-01 5.50334573e-01 1.03074193e-01 3.18365097e-02
      1.15102790e-01 5.50334573e-01 2.97325432e-01 1.07918149e-02
      7.29185864e-02 3.38131189e-01 4.77208793e-01 8.29238817e-02
      3.75002742e-01 4.83619303e-01 4.21760172e-01 2.35199749e-01
      1.20217890e-01 3.89879853e-01 3.89879853e-01 3.89879853e-01
      3.60998720e-01 3.89879853e-01 3.89879853e-01 1.89689934e-01
      3.37967306e-01 3.37967306e-01 3.37967306e-01 2.87833393e-01
      3.37967306e-01 3.37967306e-01 3.37967306e-01 3.37967306e-01
      3.37967306e-01 4.46788162e-01 4.46788162e-01 1.86916571e-02
      1.76298305e-01 4.46788162e-01 3.41348439e-01 1.70950741e-01
      1.41014367e-01 4.46788162e-01 4.20881897e-01 3.29488277e-01
      4.20881897e-01 1.85875595e-01 4.20881897e-01 2.49621227e-01
      2.85297483e-01 2.02897228e-02 4.20881897e-01 5.02138793e-01
      5.55574894e-02 5.85001931e-02 1.73634708e-01 4.24521953e-01
      1.46940336e-01 9.29997861e-03 5.02138793e-01 5.02138793e-01
      3.73410881e-01 1.40239447e-01 3.73410881e-01 3.73410881e-01
      3.73410881e-01 3.73410881e-01 2.35072989e-02 3.73410881e-01
      3.73410881e-01 3.17856848e-01 2.93020392e-03 9.66017693e-02
      3.72846425e-01 2.63259172e-01 2.00385936e-02 0. 5.80992162e-01
      5.80992162e-01 3.70128341e-02 3.93712847e-03 3.39031428e-01
      6.56499982e-01 6.56499982e-01 1.10810012e-01 0. 6.47857971e-03
      5.30356169e-02 4.95835692e-01 4.09320509e-03 5.78495748e-02
      4.95835692e-01 4.95835692e-01 6.81315586e-02 0. 6.02519885e-02
      4.95835692e-01 4.70055550e-01 4.20554588e-03 0. 5.82948364e-02
      4.73291010e-01 2.59018123e-01 4.73291010e-01 1.78328380e-01
      4.73291010e-01 4.48757499e-01 2.77043656e-02 1.89987913e-01
      4.48757499e-01 3.90825629e-01 1.93322115e-02 1.68507546e-03
      4.48757499e-01 4.48757499e-01 4.72666472e-01 8.29163846e-03
      1.33440718e-01 4.72666472e-01 4.72666472e-01 1.30205154e-01
      2.78291665e-02 2.56946594e-01 4.72666472e-01 4.08957094e-01
      1.77744895e-01 7.94385374e-02 2.45059028e-01 4.08957094e-01
      3.50883126e-01 3.25352639e-01 4.08957094e-01 4.08957094e-01
      3.96272808e-01 5.84355555e-02 3.96272808e-01 3.96272808e-01
      3.96272808e-01 1.79509044e-01 1.62330180e-01 3.85864377e-01
      3.96272808e-01 4.96480763e-01 0. 1.27323135e-03 8.46421048e-02
      4.96480763e-01 4.22450192e-02 1.08697759e-02 4.96480763e-01
      4.96480763e-01 5.65844715e-01 0. 0. 1.41171694e-01 5.65844715e-01
      1.04743838e-01 0. 5.39275967e-02 5.65844715e-01 5.13145447e-01 0.
      0. 1.70229413e-02 5.89117169e-01 2.62825191e-01 1.72603987e-02 0.
      5.60424328e-01 4.83725697e-01 0. 5.80103323e-03 2.10790094e-02
      4.83725697e-01 2.42339760e-01 0. 4.83725697e-01 4.83725697e-01
      2.72412807e-01 4.47141472e-03 1.88687086e-01 4.67761666e-01
      4.67761666e-01 1.01451613e-01 0. 4.67761666e-01 4.67761666e-01
      3.99984777e-01 1.33889532e-02 3.02822888e-01 3.69228572e-01
      5.32655716e-01 1.40304402e-01 5.46166040e-02 2.94927150e-01
      4.61638004e-01 3.80050212e-01 0. 3.59943360e-01 3.80050212e-01
      3.80050212e-01 3.80050212e-01 3.86033603e-03 3.80050212e-01
      3.80050212e-01 1.08189285e-01 0. 3.57852519e-01 5.75545967e-01
      5.75545967e-01 2.98720777e-01 1.56053938e-02 8.49474370e-02
      3.08689892e-01 5.59007108e-01 8.29576794e-03 1.81533359e-02 0.
      5.59007108e-01 2.37403691e-01 1.01337349e-02 9.46129765e-03
      5.59007108e-01 5.45895398e-01 0. 0. 1.69009145e-03 5.45895398e-01
      3.14906180e-01 3.47510055e-02 1.29137486e-02 5.45895398e-01
      5.61841130e-01 0. 0. 2.77546654e-03 5.61841130e-01 2.15548724e-01
      2.88401283e-02 9.61337704e-03 5.61841130e-01 5.30084193e-01 0.
      4.46577817e-02 2.65842944e-01 2.73694396e-01 5.65586463e-02
      3.10490448e-02 5.30084193e-01 5.30084193e-01 4.03184175e-01
      9.54749179e-04 4.03184175e-01 4.03184175e-01 4.03184175e-01
      1.12373255e-01 1.91001713e-01 4.03184175e-01 3.66161853e-01
      5.47821999e-01 4.38995920e-02 1.31698772e-01 1.29111344e-03
      2.30924293e-01 8.01584348e-02 1.23197496e-01 5.47821999e-01
      5.47821999e-01</_>
    <_>
      5.36690593e-01 5.36690593e-01 3.43676984e-01 7.02567697e-02 0. 0.
      0. 8.64873976e-02 5.36690593e-01 3.61938477e-01 5.00059724e-01
      5.00059724e-01 3.19416486e-02 5.00059724e-01 0. 0. 2.96849292e-02
      3.34552944e-01 4.43230391e-01 4.13982291e-03 8.29168037e-02
      4.43230391e-01 4.43230391e-01 4.43230391e-01 6.27861777e-03
      7.98435286e-02 4.43230391e-01 2.58420289e-01 7.74774700e-02
      3.93570185e-01 3.93570185e-01 1.87532023e-01 3.93570185e-01
      3.37088376e-01 3.93570185e-01 3.93570185e-01 5.27864277e-01
      8.68887752e-02 0. 3.88708830e-01 5.27864277e-01 1.26710366e-02
      1.08291861e-03 3.60972888e-04 5.27864277e-01 3.85809302e-01
      1.99856415e-01 2.24685341e-01 3.85809302e-01 3.85809302e-01
      3.85809302e-01 2.93485105e-01 2.74485111e-01 3.85809302e-01
      5.64679146e-01 5.64679146e-01 5.64679146e-01 9.18613002e-02 0. 0.
      0. 0. 1.71274811e-01 5.21169603e-01 5.21169603e-01 5.21169603e-01
      2.23115310e-01 1.19933136e-01 0. 2.42893204e-01 8.09644014e-02
      2.24109635e-01 4.00104046e-01 1.91704724e-02 2.78927814e-02
      1.13448575e-02 8.52179825e-02 4.54653472e-01 4.54653472e-01
      4.54653472e-01 4.54653472e-01 0. 0. 2.51653064e-02 1.77919250e-02
      5.18223122e-02 3.20177466e-01 5.89192569e-01 5.89192569e-01
      4.40082043e-01 1.25791922e-01 0. 0. 0. 1.24890581e-01
      3.88690606e-02 5.98486125e-01 5.98486125e-01 4.94692534e-01
      3.81485194e-01 3.81485194e-01 3.81485194e-01 3.81485194e-01
      3.81485194e-01 7.04393759e-02 3.81485194e-01 1.90118209e-01
      2.86175847e-01 4.76006716e-01 4.76006716e-01 4.76006716e-01
      4.76006716e-01 1.54949293e-01 0. 2.41136834e-01 8.03789422e-02
      1.72901396e-02 2.79782236e-01 4.60504264e-01 4.64823157e-01
      4.37706947e-01 4.64823157e-01 5.44783771e-02 7.76563119e-03 0.
      2.79782236e-01 4.10616696e-01 1.87445477e-01 4.60740536e-01
      8.76912400e-02 4.60740536e-01 1.29426330e-01 2.38256127e-01
      3.42460573e-01 4.10616696e-01 1.36095285e-02 3.30716968e-01
      4.53719050e-01 1.30907726e-02 4.53719050e-01 3.94982725e-01
      4.53719050e-01 3.34220856e-01 2.09697578e-02 1.09531544e-01
      3.53171723e-03 1.05951512e-02 0. 4.77014542e-01 3.36350441e-01
      4.77014542e-01 4.77014542e-01 4.32843536e-01 1.99666455e-01
      4.17748272e-01 3.66710722e-01 5.74139357e-02 4.17748272e-01
      1.83335513e-01 4.17748272e-01 4.17748272e-01 2.94144064e-01 0.
      2.97894090e-01 5.49257815e-01 5.49257815e-01 5.49257815e-01 0.
      2.54842341e-02 8.49474501e-03 0. 5.79709291e-01 1.79757610e-01
      4.73066032e-01 2.22693339e-01 1.18252948e-01 0. 4.65268083e-02
      1.55089367e-02 5.79709291e-01 4.67184067e-01 2.77836829e-01
      8.93014967e-02 1.12481430e-01 1.27849907e-01 9.01329070e-02
      4.67184067e-01 4.67184067e-01 4.67184067e-01 4.55205023e-01
      4.55205023e-01 4.55205023e-01 2.58926630e-01 2.95124471e-01
      9.84328985e-02 3.16573530e-02 4.21186052e-02 4.55205023e-01
      6.87523305e-01 3.80511358e-02 0. 0. 1.14157528e-03 5.93562436e-04
      1.05949147e-02 2.14937523e-01 6.87523305e-01 4.20216084e-01
      4.09691662e-01 3.98721039e-01 1.50079921e-01 4.20216084e-01
      2.04276610e-02 2.75865942e-01 2.00470820e-01 4.20216084e-01 0.
      1.48143619e-01 4.99855906e-01 4.99855906e-01 4.99855906e-01 0.
      4.48490828e-01 1.49496943e-01 0. 2.90117180e-03 2.63716280e-01
      5.85603535e-01 4.83638853e-01 5.85603535e-01 3.57672684e-02
      5.95032424e-02 0. 2.90117180e-03 1.49111837e-01 0. 3.88938449e-02
      1.23154208e-01 6.63439214e-01 6.63439214e-01 2.27643475e-01
      1.01859774e-02 1.49111837e-01 2.52340347e-01 0. 4.12151635e-01
      3.16784471e-01 6.60062373e-01 4.26886588e-01 9.44166705e-02
      1.34220449e-02 1.80288702e-01 0. 0. 0. 6.13806009e-01
      7.59897828e-01 1.67595714e-01 5.26442826e-02 8.57511610e-02 0.
      2.64592040e-02 4.53821123e-02 1.86699927e-01 4.30857420e-01
      4.30857420e-01 4.30857420e-01 4.30857420e-01 3.30778837e-01
      3.25749367e-01 1.60627186e-01 1.44854290e-02 2.15890214e-01
      5.83396852e-01 5.83396852e-01 4.59094465e-01 6.54417127e-02 0.
      1.60627186e-01 4.61916663e-02 1.02062583e-01 2.83987343e-01
      6.62827969e-01 6.62827969e-01 1.43223211e-01 3.14434655e-02 0. 0.
      0. 1.86753296e-03 6.92062266e-03 1.78751908e-02 5.66585481e-01
      5.66585481e-01 5.66585481e-01 1.75823718e-01 0. 0. 0. 0. 0.
      5.73711693e-01 5.73711693e-01 5.73711693e-01 8.26789364e-02 0. 0.
      0. 1.14971414e-01 5.52906811e-01 5.52906811e-01 5.52906811e-01
      2.53225178e-01 4.40215459e-03 0. 3.90406460e-01 9.91025195e-02
      3.90406460e-01 1.85039371e-01 3.90406460e-01 3.90406460e-01
      3.90406460e-01 3.90406460e-01 1.93741292e-01</_>
    <_>
      6.60076797e-01 3.20303321e-01 5.86867817e-02 1.24864444e-01
      9.95194260e-03 0. 0. 1.67034529e-02 6.60076797e-01 5.27234972e-01
      2.69216686e-01 9.72108543e-02 7.63438493e-02 5.27234972e-01 0.
      2.61111259e-01 6.97831810e-02 5.27234972e-01 3.88789803e-01
      7.02038920e-03 2.10611690e-02 0. 4.14949387e-01 4.14949387e-01
      4.14949387e-01 4.14949387e-01 3.94299924e-01 4.03172553e-01
      1.61109548e-02 1.02684158e-03 1.72197327e-01 4.03172553e-01
      4.03172553e-01 3.91560048e-01 4.03172553e-01 4.03172553e-01
      2.14078762e-02 1.83929875e-01 3.25857639e-01 6.42903745e-01
      6.42903745e-01 1.24761626e-01 8.80096108e-02 1.19203823e-02
      5.48261367e-02 3.91524881e-01 3.91524881e-01 3.91524881e-01
      2.04265460e-01 1.54540554e-01 1.03591107e-01 3.91524881e-01
      3.91524881e-01 3.91524881e-01 4.32236165e-01 4.32236165e-01
      4.32236165e-01 4.32236165e-01 4.32236165e-01 2.29270935e-01
      5.14753386e-02 3.79068404e-02 6.99280351e-02 2.01286659e-01
      3.29599589e-01 3.13841820e-01 1.84962228e-01 3.43148708e-01
      3.86177123e-01 3.86177123e-01 3.86177123e-01 3.86177123e-01
      9.50850453e-03 4.56191897e-02 2.05178242e-02 2.12872494e-02
      4.97966141e-01 4.97966141e-01 4.97966141e-01 4.97966141e-01
      9.99254547e-03 3.08404684e-01 1.62450254e-01 1.33990407e-01
      1.14273630e-01 4.66796547e-01 4.66796547e-01 4.66796547e-01
      2.59966761e-01 3.48629385e-01 5.17189264e-01 5.17189264e-01
      5.17189264e-01 1.53413430e-01 5.97265102e-02 2.52711419e-02
      1.36070894e-02 2.70209853e-02 4.04627949e-01 4.00029719e-01
      4.00029719e-01 4.58056554e-02 4.93683070e-02 2.81174093e-01
      4.00029719e-01 3.35097998e-01 4.00029719e-01 4.00029719e-01
      4.42815304e-01 1.23084985e-01 4.42815304e-01 4.42815304e-01
      4.42815304e-01 0. 0. 0. 4.42815304e-01 5.44093311e-01 0.
      3.28077702e-03 5.31597435e-02 4.06459719e-01 3.38351965e-01
      3.30122948e-01 1.04795277e-01 5.44093311e-01 4.14418817e-01
      4.77034479e-01 5.62671535e-02 2.93700635e-01 1.92702070e-01
      9.75749120e-02 4.77034479e-01 4.77034479e-01 6.87445253e-02
      1.70057759e-01 4.16139841e-01 2.12813720e-01 5.60237542e-02
      2.29418859e-01 4.16139841e-01 4.16139841e-01 4.16139841e-01
      4.16139841e-01 1.35778040e-01 4.60772604e-01 4.60772604e-01
      4.52546984e-01 4.60772604e-01 3.26747179e-01 0. 5.75504713e-02
      1.58597872e-01 3.58568937e-01 3.58568937e-01 3.58568937e-01
      3.58568937e-01 3.58568937e-01 6.41528219e-02 3.03809375e-01
      3.58568937e-01 3.58568937e-01 8.62395540e-02 2.88328171e-01
      5.47779262e-01 5.47779262e-01 5.47779262e-01 9.62619111e-03 0. 0.
      6.06650412e-02 1.13595620e-01 2.53021164e-04 3.20403581e-03
      1.90254316e-01 6.75711274e-01 6.75711274e-01 9.85614285e-02
      3.19418423e-02 1.42258272e-01 3.17085057e-01 0. 3.87961930e-03
      2.87765432e-02 7.36113191e-02 1.83227360e-01 5.33633411e-01
      5.33633411e-01 5.33633411e-01 4.92164135e-01 4.92164135e-01
      4.92164135e-01 1.00192264e-01 7.45828897e-02 3.36675048e-01
      3.44290853e-01 1.20995164e-01 7.92503953e-02 3.88629697e-02
      1.61256820e-01 2.11011499e-01 4.25572246e-01 4.25572246e-01
      4.25572246e-01 4.25572246e-01 4.25572246e-01 1.34722352e-01
      4.28179085e-01 4.28179085e-01 4.28179085e-01 4.28179085e-01
      2.67201632e-01 8.15890282e-02 3.11091002e-02 3.85216670e-03
      4.28179085e-01 4.79309231e-01 3.77935380e-01 4.36217450e-02
      1.22000679e-01 3.91295664e-02 0. 3.80588114e-01 4.79309231e-01
      4.79309231e-01 6.93166792e-01 1.90602161e-03 6.86454400e-03
      3.47029604e-03 5.76214977e-02 1.12721145e-01 4.66261879e-02
      1.17715441e-01 6.93166792e-01 1.86188862e-01 3.19805108e-02
      6.51825638e-03 0. 1.77081201e-05 9.08250804e-04 6.38294876e-01
      6.38294876e-01 3.78225178e-01 3.84860069e-01 3.84860069e-01
      3.84860069e-01 3.84860069e-01 2.69815892e-01 1.46728575e-01
      1.14549495e-01 3.84860069e-01 3.84860069e-01 3.86956006e-01
      3.86956006e-01 3.86956006e-01 2.20082417e-01 3.86956006e-01
      3.86956006e-01 3.86956006e-01 2.21521348e-01 1.47142084e-02
      1.42020971e-01 4.20079798e-01 4.20079798e-01 4.20079798e-01
      4.20079798e-01 4.20079798e-01 3.01036507e-01 1.50445951e-02
      4.94877249e-02 0. 3.96956801e-02 2.67687470e-01 4.83841389e-01
      4.83841389e-01 4.83841389e-01 4.50278223e-01 1.26294762e-01
      3.04446500e-02 0. 4.65815403e-02 1.47574037e-01 5.68286598e-01
      5.68286598e-01 5.68286598e-01 3.90961505e-02 0. 0. 0. 0. 0. 0.
      1.36778906e-01 6.25428200e-01 6.25428200e-01 4.38982785e-01
      4.50683292e-03 0. 5.48807457e-02 1.03148416e-01 5.80470674e-02
      5.28344095e-01 5.28344095e-01 5.28344095e-01 3.73537093e-01
      2.70201471e-02 5.00824414e-02 5.90833277e-02 6.94680333e-01
      6.94680333e-01 8.30067769e-02 1.36785144e-02 8.10894221e-02
      5.97449876e-02 6.84280843e-02 0. 3.13865542e-02 2.23233342e-01
      4.13284302e-01 4.48688000e-01 4.48688000e-01 4.11833555e-01
      4.48688000e-01 1.80651173e-02</_>
    <_>
      0. 0. 0. 0. 0. 0. 0. 0. 0. 5.30741155e-01 5.30741155e-01
      5.30741155e-01 1.87580153e-01 2.42025405e-01 0. 7.84354191e-03
      2.61451397e-03 2.36241490e-01 4.88062382e-01 3.54382664e-01
      2.75591195e-01 3.70786786e-02 1.79373085e-01 7.24852830e-02
      2.00423092e-01 4.88062382e-01 4.88062382e-01 3.65141898e-01
      3.65141898e-01 1.20611303e-01 2.40893289e-01 3.65141898e-01
      3.51857513e-01 3.65141898e-01 3.65141898e-01 3.65141898e-01
      4.19955343e-01 4.19955343e-01 1.56465530e-01 1.38654979e-02
      1.88339338e-01 2.32049450e-01 4.19955343e-01 4.19955343e-01
      4.19955343e-01 2.31776595e-01 4.04409058e-02 3.73096718e-03 0.
      4.62828070e-01 4.62828070e-01 4.62828070e-01 4.62828070e-01
      2.88388342e-01 5.76230824e-01 5.76230824e-01 5.72225034e-01 0. 0.
      0. 9.34390444e-03 3.11463466e-03 5.12220375e-02 5.69654584e-01
      5.69654584e-01 2.81434543e-02 3.72110982e-03 0. 0. 4.12902655e-03
      1.41313866e-01 5.69654584e-01 4.20521259e-01 2.25748941e-01
      1.01295501e-01 3.94976705e-01 4.20521259e-01 2.47155517e-01
      1.00652374e-01 4.20521259e-01 4.20521259e-01 3.82671326e-01
      3.82671326e-01 3.82671326e-01 3.82671326e-01 3.82671326e-01
      1.96931422e-01 2.39083931e-01 1.47002563e-01 3.82671326e-01
      2.30904385e-01 1.28361493e-01 3.73589069e-01 3.73589069e-01
      3.73589069e-01 3.73589069e-01 2.98431545e-01 3.73589069e-01
      3.73589069e-01 3.52885932e-01 2.88374752e-01 3.52885932e-01
      2.91521281e-01 3.52885932e-01 3.52885932e-01 2.84883648e-01
      3.52885932e-01 3.52885932e-01 3.86400640e-01 3.86400640e-01
      3.86400640e-01 3.86400640e-01 3.86400640e-01 2.26764157e-01
      3.86400640e-01 1.92344502e-01 1.09034121e-01 4.16042775e-01
      4.16042775e-01 4.16042775e-01 4.16042775e-01 3.61508876e-01
      3.46578509e-02 1.23605840e-01 1.49727881e-01 3.65911186e-01
      1.76567614e-01 4.26050574e-01 3.37809771e-01 1.19716093e-01
      8.73379484e-02 4.26050574e-01 4.26050574e-01 4.26050574e-01
      3.20025265e-01 4.41278785e-01 2.76199728e-01 4.41278785e-01
      2.55969286e-01 6.62929937e-02 1.63549706e-01 2.09127560e-01
      4.41278785e-01 4.41278785e-01 4.36306298e-01 1.91561673e-02
      7.77488798e-02 3.87410889e-03 1.93388119e-01 4.36306298e-01
      4.36306298e-01 4.36306298e-01 4.36306298e-01 4.35065895e-01
      3.93941194e-01 1.69717878e-01 2.96385400e-03 4.35065895e-01
      4.35065895e-01 2.33475834e-01 3.32826143e-03 4.35065895e-01
      3.86523843e-01 8.29609334e-02 1.47772074e-01 2.96829790e-01
      3.64826292e-01 3.86523843e-01 3.86523843e-01 3.85500550e-01
      3.86523843e-01 3.64742100e-01 5.32441080e-01 5.32441080e-01
      5.32441080e-01 7.51284659e-02 5.93954436e-02 1.48292901e-02 0.
      4.21122797e-02 3.49753983e-02 1.05640076e-01 2.78746635e-01
      1.40993267e-01 4.08063382e-02 3.16761360e-02 6.00453854e-01
      6.00453854e-01 4.00355518e-01 2.21653935e-02 6.61278963e-02
      4.39093918e-01 4.39093918e-01 4.39093918e-01 4.39093918e-01
      4.39093918e-01 1.31280035e-01 9.74568501e-02 3.99903327e-01
      3.99903327e-01 3.99903327e-01 9.22329873e-02 3.99903327e-01
      3.99903327e-01 3.04729313e-01 1.64866015e-01 2.60468394e-01
      1.95656270e-01 4.13740687e-02 7.40180686e-02 5.31828552e-02
      5.82427442e-01 5.82427442e-01 4.93052512e-01 8.42521489e-02
      1.31306455e-01 1.44081131e-01 2.12194771e-01 3.93667608e-01
      2.08853614e-02 3.93667608e-01 3.93667608e-01 3.93667608e-01
      3.93667608e-01 3.93667608e-01 0. 3.35984565e-02 5.49728930e-01
      8.19507062e-01 1.29447162e-01 2.18417821e-03 1.15684047e-02
      1.96601194e-03 0. 1.13247242e-03 1.45310014e-02 3.96633334e-02
      6.74886405e-01 6.74886405e-01 2.57998317e-01 1.15427479e-01
      2.22801194e-02 1.22699579e-02 1.82982776e-02 1.28457606e-01
      6.13859780e-02 3.65800112e-01 4.50720459e-01 1.68784052e-01
      4.50720459e-01 4.50720459e-01 4.50720459e-01 3.77617538e-01
      2.54057765e-01 1.85593843e-01 3.77617538e-01 3.77617538e-01
      3.77617538e-01 2.04125270e-01 3.77617538e-01 3.77617538e-01
      4.25017685e-01 4.25017685e-01 3.05632278e-02 6.61157146e-02
      2.25609124e-01 4.25017685e-01 4.25017685e-01 1.90655023e-01
      4.25017685e-01 3.87183040e-01 3.87183040e-01 3.87183040e-01
      4.45050672e-02 2.43015617e-01 3.87183040e-01 3.87183040e-01
      1.88760102e-01 3.87183040e-01 6.76323473e-01 7.99646974e-02
      2.39894077e-01 0. 0. 0. 1.14149973e-01 3.80499847e-02
      6.76323473e-01 4.48367089e-01 1.82420596e-01 4.48367089e-01
      3.75753105e-01 4.48367089e-01 0. 6.45425767e-02 1.12942226e-01
      4.48367089e-01 4.68069553e-01 1.83028560e-02 6.93142712e-02
      1.69518605e-01 4.68069553e-01 3.93422186e-01 3.30012828e-01
      2.01225981e-01 4.68069553e-01 1.72835179e-02 5.49969435e-01
      5.49969435e-01 5.49969435e-01 2.93464035e-01 5.84306195e-03
      1.34042595e-02 2.17717290e-02 1.04453007e-03 2.55106390e-01
      4.25074816e-01 2.45196521e-01 5.75408340e-02 3.23143244e-01
      4.25074816e-01 4.25074816e-01 3.66030097e-01 2.94579238e-01</_>
    <_>
      3.57515663e-01 4.70286459e-01 4.70286459e-01 5.97765222e-02 0. 0.
      3.05014253e-01 4.70286459e-01 3.27673882e-01 3.98315698e-01
      3.98315698e-01 3.98315698e-01 8.60459805e-02 4.94405180e-02
      3.38392466e-01 2.79975235e-01 3.98315698e-01 3.98315698e-01
      5.46561182e-01 1.16782345e-01 8.84525776e-02 1.46313971e-02
      8.98934826e-02 6.05251528e-02 3.87221068e-01 4.62302297e-01
      5.46561182e-01 3.84071559e-01 3.84071559e-01 3.84071559e-01
      1.94741115e-01 3.84071559e-01 5.03198206e-02 2.65783906e-01
      3.84071559e-01 3.84071559e-01 1.90316692e-01 5.14377296e-01
      5.14377296e-01 1.24974653e-01 4.67029028e-02 6.14293627e-02
      3.77708644e-01 2.95887142e-01 4.21530485e-01 2.38057315e-01
      4.77839224e-02 0. 0. 8.37655216e-02 5.04242837e-01 5.04242837e-01
      5.04242837e-01 4.07688856e-01 2.17176471e-02 4.80774790e-01
      4.80774790e-01 3.07319611e-01 4.21896726e-02 4.32159215e-01
      4.80774790e-01 1.21884130e-01 5.87411225e-02 1.63445696e-01
      9.94076431e-02 1.66434571e-01 6.11062765e-01 7.01259136e-01
      3.03207859e-02 1.48645476e-01 8.95901769e-02 1.80276632e-01
      4.94276918e-02 5.61578162e-02 3.72369885e-02 1.29760548e-01
      6.18975103e-01 6.18975103e-01 2.80029625e-01 2.07655191e-01
      2.86707252e-01 2.72104025e-01 1.10370107e-01 3.43965471e-01
      3.97934079e-01 7.38839149e-01 2.83901811e-01 0. 7.29055190e-03
      5.65921627e-02 3.45738977e-01 3.45738977e-01 3.26111853e-01
      3.42685282e-01 3.45738977e-01 2.35692263e-01 3.45738977e-01
      3.45738977e-01 3.45738977e-01 4.76128489e-01 4.18343306e-01
      1.26796722e-01 3.41756999e-01 4.76128489e-01 2.60267314e-03
      5.45832850e-02 6.53990507e-02 4.76128489e-01 4.09004450e-01
      4.09004450e-01 0. 0. 1.86847318e-02 3.98925722e-01 4.09004450e-01
      4.09004450e-01 4.09004450e-01 5.30255258e-01 5.30255258e-01
      5.30255258e-01 3.06613177e-01 1.96266210e-05 0. 6.63800761e-02
      6.64411904e-03 2.29631484e-01 4.20682341e-01 2.65700947e-02
      2.36841035e-04 1.82724223e-02 4.20682341e-01 4.20682341e-01
      4.20682341e-01 3.31495911e-01 4.20682341e-01 3.88194412e-01
      1.51797548e-01 2.36137375e-01 3.88194412e-01 3.88194412e-01
      3.88194412e-01 3.88194412e-01 1.14670306e-01 3.88194412e-01
      2.87168562e-01 5.37597716e-01 5.37597716e-01 5.37597716e-01
      1.34631947e-01 3.58426683e-02 3.39949015e-03 1.56395525e-01
      3.53546478e-02 3.80796432e-01 4.63030487e-01 4.63030487e-01
      3.67103040e-01 4.63030487e-01 9.16373581e-02 2.31201935e-04
      9.69782844e-02 2.33688772e-01 4.76491870e-03 0. 0. 0.
      1.58554018e-01 6.93884552e-01 6.93884552e-01 7.02635199e-02
      4.76491870e-03 1.69804081e-01 3.55471730e-01 5.20250499e-01
      5.20250499e-01 5.20250499e-01 1.01838782e-01 1.20772712e-01
      4.44207229e-02 2.64280569e-02 1.72980383e-01 7.26989731e-02
      1.65153444e-02 3.21146287e-02 4.54451472e-01 4.42880780e-01
      4.54451472e-01 4.54451472e-01 3.78453881e-01 1.63029492e-01
      6.10738456e-01 6.10738456e-01 3.89271140e-01 1.35318771e-01
      1.31939486e-01 9.10964236e-02 2.18342580e-02 1.59040675e-01
      3.80741626e-01 8.79811421e-02 3.12577069e-01 3.80741626e-01
      3.80741626e-01 3.80741626e-01 1.44796848e-01 3.80741626e-01
      3.80741626e-01 1.73120678e-03 9.63050723e-02 5.66411018e-01
      5.66411018e-01 5.66411018e-01 1.41596794e-01 4.81481664e-02
      1.52037628e-02 1.73120678e-03 8.60926434e-02 4.36125509e-02
      2.84029216e-01 2.03512371e-01 4.16461200e-01 4.16461200e-01
      4.16461200e-01 4.13129717e-01 4.16461200e-01 4.36499417e-01
      4.36499417e-01 1.20498851e-01 6.62418008e-02 1.11739030e-02
      4.36499417e-01 4.36499417e-01 4.36499417e-01 1.54752150e-01
      4.71901089e-01 4.71901089e-01 4.71901089e-01 1.29715323e-01
      7.31439218e-02 8.46863687e-02 1.06555440e-01 2.52630353e-01
      4.71901089e-01 2.73161411e-01 4.06435102e-01 4.06435102e-01
      3.92451644e-01 2.14032054e-01 8.31322819e-02 2.32003242e-01
      4.06435102e-01 4.06435102e-01 7.82666653e-02 2.76623696e-01
      3.95227790e-01 3.95227790e-01 2.99445480e-01 3.32951128e-01
      2.96751142e-01 3.95227790e-01 3.95227790e-01 3.79028499e-01
      3.79028499e-01 3.79028499e-01 2.22132206e-01 2.93056577e-01
      1.47465467e-01 3.79028499e-01 3.47749144e-01 3.79028499e-01
      3.34132671e-01 3.34132671e-01 3.34132671e-01 3.34132671e-01
      3.34132671e-01 3.34132671e-01 3.34132671e-01 3.34132671e-01
      3.21720958e-01 3.47878397e-01 5.12931287e-01 5.12931287e-01
      1.10293254e-02 3.38936821e-02 2.08987698e-01 5.12931287e-01
      1.99026614e-01 2.09188950e-03 4.14918959e-01 4.14918959e-01
      4.14918959e-01 4.14918959e-01 0. 0. 2.28160754e-01 2.88112879e-01
      4.14918959e-01 1.83433238e-02 3.37958783e-02 6.74194098e-02
      8.69366527e-02 4.85864222e-01 4.85864222e-01 4.85864222e-01
      4.85864222e-01 1.93155602e-01 1.38842687e-01 1.40106410e-01
      1.72289371e-01 2.97659487e-01 2.92936683e-01 4.86019135e-01
      4.86019135e-01 4.86019135e-01 2.08562136e-01 3.40499967e-01
      3.59124124e-01 3.90921712e-01 3.50786269e-01 3.91810179e-01
      2.61549264e-01 3.91810179e-01 2.01157093e-01 2.43725508e-01</_>
    <_>
      4.39681053e-01 4.39681053e-01 4.39681053e-01 4.39681053e-01
      3.99391145e-01 3.20607759e-02 4.48896587e-02 5.14962114e-02
      2.39002585e-01 1.31576955e-01 2.43641242e-01 8.03473741e-02
      3.24462242e-02 4.55579430e-01 4.55579430e-01 4.55579430e-01
      2.84704983e-01 4.55579430e-01 4.09294754e-01 2.51283199e-01
      4.09294754e-01 5.23353219e-02 1.37308821e-01 2.71227598e-01
      4.09294754e-01 4.09294754e-01 4.09294754e-01 4.31838989e-01
      2.23496348e-01 2.47463450e-01 2.60966942e-02 4.31838989e-01
      3.48230273e-01 1.28889769e-01 4.31838989e-01 4.31838989e-01
      5.75662792e-01 5.75662792e-01 9.85844526e-04 0. 9.18560009e-03
      4.10021719e-04 1.73527817e-03 5.78426116e-04 5.75662792e-01
      4.65948015e-01 4.65948015e-01 4.65948015e-01 1.03721546e-03
      3.55071109e-03 1.10265359e-01 1.39962301e-01 3.22795659e-01
      4.56140995e-01 2.45804816e-01 4.05507296e-01 4.05507296e-01
      4.05507296e-01 4.05507296e-01 2.71532238e-01 2.07572818e-01
      3.54408801e-01 1.88049391e-01 4.02930565e-02 1.62625406e-02
      1.73373282e-01 5.16344905e-01 5.16344905e-01 2.25440823e-02
      2.65270382e-01 5.16344905e-01 3.03618520e-01 1.84413254e-01
      4.24408495e-01 4.29905146e-01 4.29905146e-01 6.10532202e-02
      1.50136184e-03 4.29905146e-01 4.29905146e-01 1.96395561e-01
      4.17537600e-01 4.25750881e-01 4.25750881e-01 1.58339903e-01
      4.25750881e-01 1.14652731e-01 2.24457979e-02 2.40069792e-01
      4.25750881e-01 3.13246399e-01 4.46400456e-02 8.19014460e-02
      3.40685934e-01 2.10951030e-01 3.75485867e-02 9.42291692e-03
      6.02120459e-01 6.02120459e-01 1.31541991e-03 3.88263725e-03
      7.62560740e-02 2.11542040e-01 5.99292576e-01 5.97906470e-01
      7.09600896e-02 3.52982461e-01 3.11702758e-01 4.40966576e-01 0.
      1.50511533e-01 1.34413484e-02 4.40966576e-01 2.24302318e-02
      4.40966576e-01 4.40966576e-01 4.40966576e-01 4.65863854e-01
      4.65863854e-01 4.65863854e-01 1.43740112e-02 2.71992326e-01 0.
      1.88153639e-01 1.32822812e-01 4.65863854e-01 2.88969517e-01
      3.87702614e-01 3.87702614e-01 1.57088153e-02 3.81565571e-01
      1.23360060e-01 3.87702614e-01 3.87702614e-01 3.87702614e-01
      9.80555937e-02 3.20704609e-01 4.26326483e-01 3.84507835e-01
      4.26326483e-01 1.16024287e-02 9.09785256e-02 4.26326483e-01
      4.26326483e-01 3.27610135e-01 7.51876738e-03 3.73844475e-01
      3.73844475e-01 3.73844475e-01 3.73844475e-01 3.73844475e-01
      2.24325716e-01 3.73844475e-01 4.25826609e-01 4.25826609e-01
      3.44051868e-01 3.76329929e-01 1.01586081e-01 1.19114364e-03
      1.07749188e-02 4.25826609e-01 4.25826609e-01 5.78560054e-01
      3.87839437e-01 3.56754839e-01 1.94835380e-01 7.29531273e-02
      2.85686390e-03 1.74156763e-02 5.89186847e-02 5.78560054e-01
      3.92855138e-01 3.92855138e-01 3.92855138e-01 2.64851879e-02
      2.19616622e-01 1.45367235e-01 3.92855138e-01 3.92855138e-01
      3.92855138e-01 5.57631552e-02 1.15902998e-01 2.06153542e-01
      2.88393646e-01 4.16730255e-01 4.16730255e-01 3.98707181e-01
      4.16730255e-01 4.16730255e-01 4.59871590e-01 4.59871590e-01
      4.59871590e-01 4.59871590e-01 1.23771459e-01 8.10528249e-02
      3.41604620e-01 1.00251175e-01 2.90871598e-02 7.72090033e-02
      4.88358065e-02 2.79049993e-01 2.27649853e-01 5.73896945e-01
      5.73896945e-01 4.17215496e-01 5.92316054e-02 1.41199335e-01
      1.63808778e-01 1.25109211e-01 2.64796525e-01 6.61050618e-01
      6.61050618e-01 4.57766131e-02 3.07401642e-02 5.45020923e-02
      2.84763463e-02 4.06776726e-01 4.06776726e-01 4.06776726e-01
      4.06776726e-01 4.06776726e-01 4.58421791e-03 5.53232245e-02
      7.13225408e-03 4.06776726e-01 4.66262251e-01 4.46180144e-04
      2.75903065e-02 7.88142681e-02 4.66262251e-01 2.93026000e-01
      1.81392998e-01 4.66262251e-01 4.66262251e-01 1.54281005e-01
      2.38826945e-01 2.25428388e-01 1.90501601e-01 4.16032135e-01
      4.16032135e-01 4.16032135e-01 4.16032135e-01 3.68189186e-01
      9.98133719e-02 5.10487556e-01 5.65536737e-01 5.65536737e-01
      2.11142585e-01 1.41134232e-01 1.21242464e-01 2.90889554e-02
      6.38965890e-02 2.12802693e-01 5.43541685e-02 9.02258325e-03
      1.08407520e-01 4.37446803e-01 2.64991313e-01 2.58070827e-01
      5.50567150e-01 5.50567150e-01 5.99769592e-01 4.11767393e-01
      1.95934191e-01 1.49934828e-01 2.09930688e-01 7.56254420e-03
      3.46754584e-03 9.73930000e-04 5.99769592e-01 7.00304881e-02
      4.01513159e-01 4.01513159e-01 1.00943692e-01 4.01513159e-01
      2.03258395e-01 4.01513159e-01 4.01513159e-01 3.65399659e-01
      2.13158038e-03 2.40203161e-02 7.07884580e-02 5.77350080e-01
      5.77350080e-01 4.33175504e-01 2.88271159e-01 2.10220531e-01
      8.39181617e-02 2.77300745e-01 5.11635482e-01 5.11635482e-01
      4.82137918e-01 1.47162825e-01 1.77611679e-01 3.09451967e-01
      7.03522116e-02 8.99059623e-02 4.09906864e-01 4.09906864e-01
      2.45926291e-01 3.69534716e-02 1.27606735e-01 2.78671980e-01
      4.09906864e-01 4.09906864e-01 4.09906864e-01 4.45730209e-01
      4.45730209e-01 4.45730209e-01 4.45730209e-01 2.89898038e-01
      5.16662113e-02 2.88095325e-01 1.59687877e-01 7.50776157e-02
      4.43838201e-02 4.36303198e-01 4.36303198e-01 4.36303198e-01
      4.36303198e-01 4.36303198e-01 8.50572512e-02 1.65810794e-01
      8.45067427e-02</_>
    <_>
      6.54241621e-01 6.54241621e-01 3.69385064e-01 0. 0. 0. 0. 0.
      3.09656598e-02 6.55128181e-01 6.55128181e-01 3.59717339e-01
      1.78379435e-02 3.25251976e-03 0. 0. 0. 7.31321722e-02
      6.29058421e-01 6.29058421e-01 4.49766904e-01 0. 0. 0. 0. 0. 0.
      4.22500931e-02 1.42853642e-02 2.87221521e-02 4.76405869e-04
      3.57657205e-03 5.71757674e-01 5.71757674e-01 5.71757674e-01
      1.03648975e-01 4.61029768e-01 4.49335903e-01 2.07122006e-02
      4.53163404e-03 0. 6.83306810e-03 3.94145608e-01 4.61029768e-01
      4.61029768e-01 4.26896811e-01 9.02169719e-02 0. 0. 2.76390940e-01
      4.26896811e-01 4.26896811e-01 4.26896811e-01 4.26896811e-01
      1.22278206e-01 6.99200928e-01 6.99200928e-01 0. 2.46063387e-03 0.
      0. 0. 1.72748845e-02 4.94037122e-01 4.94037122e-01 4.94037122e-01
      6.55441284e-02 0. 0. 4.61677283e-01 1.97296962e-01 8.04959461e-02
      4.41360444e-01 1.01517122e-02 2.56426465e-02 4.41360444e-01
      4.41360444e-01 1.27891153e-01 6.69272617e-02 4.41360444e-01
      4.41360444e-01 3.64330083e-01 3.58242363e-01 1.90537229e-01
      1.87881768e-01 3.64330083e-01 3.64330083e-01 3.64330083e-01
      3.64330083e-01 3.64330083e-01 4.13228661e-01 5.17368853e-01
      5.17368853e-01 5.17368853e-01 1.20537274e-01 4.08901228e-03
      1.23972865e-02 2.84579154e-02 7.45253414e-02 4.58026946e-01
      2.25749671e-01 2.19557047e-01 1.14145651e-01 7.39335790e-02
      3.16935152e-01 3.84639502e-01 4.58026946e-01 4.58026946e-01
      3.00134361e-01 3.81987840e-02 4.54323024e-01 4.54323024e-01
      4.54323024e-01 1.13834618e-02 4.54323024e-01 2.46442750e-01
      1.31988838e-01 5.14760256e-01 0. 3.42780650e-01 2.83969998e-01
      5.14760256e-01 2.67660860e-02 3.27217206e-02 0. 5.14760256e-01
      3.73666734e-01 2.84321457e-01 3.73666734e-01 4.00280803e-02
      2.75798589e-01 3.73666734e-01 3.73666734e-01 3.73666734e-01
      3.73666734e-01 3.60405445e-01 3.60405445e-01 9.86781120e-02
      3.60405445e-01 3.60405445e-01 2.78239399e-01 3.60405445e-01
      3.60405445e-01 3.60405445e-01 3.82004827e-01 3.82004827e-01
      3.82004827e-01 3.82004827e-01 3.25539738e-01 1.14289492e-01
      3.97409834e-02 3.82004827e-01 3.82004827e-01 4.07408386e-01
      4.07408386e-01 4.07408386e-01 1.14574350e-01 2.71315098e-01
      1.63804665e-01 4.07408386e-01 2.29021877e-01 4.07408386e-01
      4.13520575e-01 1.90791413e-01 1.35506183e-01 2.93443769e-01
      4.13520575e-01 0. 4.13520575e-01 4.13520575e-01 4.13520575e-01
      5.34506381e-01 3.48323472e-02 1.15019307e-02 1.56515837e-01
      5.34506381e-01 4.42944691e-02 3.31309021e-01 6.08437869e-04
      5.34506381e-01 5.20580173e-01 2.23103359e-01 2.96735410e-02
      4.20188382e-02 1.94839463e-01 1.54601067e-01 5.05753756e-01
      2.87613988e-01 5.20580173e-01 3.40013385e-01 2.67824471e-01
      3.40013385e-01 3.40013385e-01 3.40013385e-01 3.40013385e-01
      3.40013385e-01 3.40013385e-01 3.40013385e-01 4.07011271e-01
      4.07011271e-01 3.45990807e-01 4.07011271e-01 9.43687186e-02
      1.43160373e-01 2.63997108e-01 3.86752814e-01 3.61354828e-01
      1.92566797e-01 2.00120136e-01 4.15995449e-01 6.98350510e-03
      2.11201385e-01 4.18623060e-01 4.18623060e-01 4.18623060e-01
      4.18623060e-01 7.87590723e-03 7.01267481e-01 7.01267481e-01
      9.54869092e-02 1.58297978e-02 0. 0. 0. 4.15326888e-03
      5.68369329e-01 5.68369329e-01 5.68369329e-01 1.57855645e-01 0. 0.
      0. 0. 1.65787544e-02 6.40752614e-01 6.40752614e-01 3.09409320e-01
      3.84761691e-02 0. 0. 0. 1.34745333e-02 2.74005204e-01
      4.97043818e-01 7.49064609e-02 1.40433211e-03 3.75481730e-04
      7.68285338e-03 3.39629762e-02 4.97043818e-01 4.97043818e-01
      4.97043818e-01 3.83886009e-01 3.74938935e-01 3.83886009e-01
      3.83886009e-01 3.83886009e-01 1.88440293e-01 3.73672664e-01
      1.52690366e-01 2.60108531e-01 0. 4.81126225e-03 8.85303840e-02
      1.26799354e-02 5.00641465e-01 5.25340617e-01 5.25340617e-01
      3.83861631e-01 1.91767916e-01 0. 1.12492748e-01 6.97557867e-01
      6.97557867e-01 8.49011019e-02 0. 0. 0. 0. 1.45309484e-02
      5.45958340e-01 5.89842677e-01 5.89842677e-01 0. 0. 0. 0. 0.
      9.37153995e-02 5.73135555e-01 5.73135555e-01 5.73135555e-01
      6.40264805e-03 0. 0. 0. 3.56306264e-04 7.05379099e-02
      4.78086360e-02 1.01372734e-01 9.70701873e-03 5.00790887e-02
      4.84961689e-01 5.91628730e-01 5.91628730e-01 1.96763262e-01
      2.65098643e-02 6.35970710e-03 0. 1.61471721e-02 3.17899317e-01
      5.44051588e-01 5.44051588e-01 5.44051588e-01 6.72800317e-02
      2.00171284e-02 3.44669670e-01 2.20571999e-02 1.70104012e-01
      4.94204849e-01 4.94204849e-01 4.94204849e-01 3.27936471e-01
      7.86555633e-02</_>
    <_>
      3.31788696e-02 1.48465931e-02 3.66284885e-02 4.63181436e-02 0. 0.
      7.02641547e-01 7.02641547e-01 2.77033914e-02 2.70128161e-01
      1.16746634e-01 3.87702346e-01 3.87702346e-01 3.87702346e-01
      3.87702346e-01 3.87702346e-01 3.35012704e-01 2.13842899e-01
      3.62139456e-02 5.56205213e-01 5.56205213e-01 5.56205213e-01
      1.19057246e-01 3.20412070e-02 2.30283793e-02 1.57951206e-01
      1.56081557e-01 2.21656591e-01 1.65321946e-03 9.51338857e-02
      3.95361751e-01 3.95361751e-01 3.95361751e-01 3.95361751e-01
      3.95361751e-01 3.95361751e-01 2.86252707e-01 1.73123926e-01
      3.74678999e-01 1.61406517e-01 3.78910422e-01 3.78910422e-01
      3.78910422e-01 3.78910422e-01 3.78910422e-01 3.51974159e-01
      1.82806313e-01 3.51974159e-01 3.51974159e-01 3.51974159e-01
      3.51974159e-01 3.51974159e-01 3.09619933e-01 3.51974159e-01
      4.03334294e-03 0. 0. 1.83258788e-03 8.45667720e-03 2.89872140e-01
      6.73646510e-01 6.73646510e-01 3.94820645e-02 3.60913247e-01
      3.60913247e-01 3.60913247e-01 2.39237025e-01 3.60913247e-01
      3.23339820e-01 3.60913247e-01 2.30349839e-01 3.60913247e-01
      5.24665296e-01 5.24665296e-01 5.24665296e-01 3.14636618e-01
      2.08643168e-01 1.48626789e-02 6.32231832e-02 4.23423313e-02
      1.42828807e-01 3.78400892e-01 3.78400892e-01 2.98018605e-01
      2.05345452e-01 7.81955197e-02 3.78400892e-01 3.78400892e-01
      3.78400892e-01 3.78400892e-01 3.79166782e-01 3.79166782e-01
      1.33640552e-03 4.38533500e-02 3.79166782e-01 3.79166782e-01
      3.79166782e-01 3.62880647e-01 3.79166782e-01 4.81840342e-01
      6.76179305e-02 4.81840342e-01 1.55444816e-01 4.81840342e-01
      1.86006039e-01 5.62597923e-02 2.87968433e-03 4.81840342e-01
      1.08188600e-03 0. 0. 0. 0. 4.21497179e-03 7.04540730e-01
      7.04540730e-01 1.38874073e-02 4.92316931e-01 4.92316931e-01
      4.92316931e-01 4.20643948e-02 8.35882500e-02 7.63800647e-03
      3.52360345e-02 1.24590270e-01 4.92316931e-01 4.39464957e-01
      4.39464957e-01 4.39464957e-01 4.39464957e-01 6.47975877e-02
      8.14654212e-03 9.67527404e-02 1.27815112e-01 4.39464957e-01
      7.91884586e-02 1.59385309e-01 4.75939423e-01 4.75939423e-01
      4.75939423e-01 1.90858603e-01 4.68877077e-01 1.30805284e-01
      1.03122085e-01 3.01575422e-01 2.26436719e-01 3.56046319e-01
      3.56046319e-01 3.56046319e-01 3.05953354e-01 3.56046319e-01
      3.56046319e-01 3.56046319e-01 3.14158499e-02 1.08438313e-01
      2.95571499e-02 3.17208201e-01 1.54715866e-01 2.39933610e-01
      6.29190922e-01 6.29190922e-01 7.88028687e-02 1.08616143e-01 0. 0.
      2.25261282e-02 2.69492567e-01 4.82887775e-01 4.95192736e-01
      4.95192736e-01 4.31869090e-01 4.45139736e-01 3.29264663e-02
      2.64738083e-01 3.51933658e-01 4.45139736e-01 2.43510995e-02
      4.45139736e-01 8.56457278e-02 4.45139736e-01 4.01936531e-01
      4.01936531e-01 4.01936531e-01 4.01936531e-01 1.76755756e-01
      3.73579651e-01 3.23123038e-02 1.27950907e-01 4.01936531e-01
      3.65066677e-01 2.87597209e-01 3.65066677e-01 3.65066677e-01
      3.37534875e-01 8.28353409e-03 3.65066677e-01 3.65066677e-01
      3.65066677e-01 3.61144871e-01 2.70212501e-01 3.61144871e-01
      2.56370097e-01 3.61144871e-01 2.74039835e-01 3.61144871e-01
      3.61144871e-01 3.61144871e-01 8.52495581e-02 1.89320162e-01
      3.84444922e-01 2.57414848e-01 3.84444922e-01 3.84444922e-01
      3.84444922e-01 3.84444922e-01 3.84444922e-01 4.40509409e-01
      4.40509409e-01 4.40509409e-01 3.82346421e-01 2.23572746e-01
      1.28006376e-02 4.17943001e-02 1.46017998e-01 4.40509409e-01
      2.61427730e-01 1.57101788e-02 1.41776964e-01 5.80993742e-02
      2.05350995e-01 4.38478351e-01 4.72152621e-01 4.72152621e-01
      4.72152621e-01 3.59175950e-01 4.08184864e-02 2.81410158e-01
      3.62058342e-01 3.62058342e-01 3.62058342e-01 3.62058342e-01
      3.62058342e-01 3.62058342e-01 1.06621198e-01 1.48310527e-01
      2.25386411e-01 5.13821900e-01 5.13821900e-01 5.13821900e-01
      1.38501614e-01 4.96487282e-02 3.11478406e-01 4.27072458e-02
      1.27065117e-02 8.82738642e-03 6.78290904e-01 6.78290904e-01
      2.15560064e-01 3.90383080e-02 5.72600551e-02 1.40497506e-01
      2.35306606e-01 6.01712195e-03 4.40591499e-02 5.76070011e-01
      5.76070011e-01 7.49605894e-02 4.70191948e-02 2.53954887e-01
      4.48179156e-01 1.65479362e-03 1.90562326e-02 4.57502082e-02
      4.93403554e-01 8.47908974e-01 1.54957458e-01 4.58973870e-02
      2.29937062e-02 6.01357454e-03 1.90620180e-02 9.85751860e-03
      5.00713550e-02 1.78898945e-01 8.16949368e-01 5.18641233e-01
      1.16222873e-01 7.75216967e-02 3.10182441e-02 3.14020552e-02
      2.50734407e-02 1.10255860e-01 5.55892408e-01 5.55892408e-01
      5.46259761e-01 7.64110610e-02 1.17748067e-01 2.11049750e-01
      1.67020947e-01 3.33307609e-02 4.94940490e-01 4.94940490e-01
      4.94940490e-01 1.52149096e-01 7.73645416e-02 3.07369977e-01
      3.27933967e-01 4.09716517e-01 3.53188783e-01 4.13225621e-01
      4.13225621e-01 4.13225621e-01 4.13225621e-01 6.70892820e-02
      1.17397336e-02 1.24906786e-01 7.90539831e-02 9.25077796e-02
      2.86038756e-01 4.63174164e-01 4.63174164e-01 4.63174164e-01
      4.63174164e-01 2.00916365e-01 1.61103830e-02</_>
    <_>
      1.57769069e-01 5.92762291e-01 5.92762291e-01 5.14527738e-01 0. 0.
      0. 0. 4.14382257e-02 0. 6.89190149e-01 6.89190149e-01
      2.07735077e-01 0. 0. 0. 0. 0. 0. 1.74630672e-01 5.74740589e-01
      4.35378522e-01 5.74740589e-01 3.36483866e-01 1.80831645e-02
      2.94501544e-03 0. 2.29933690e-02 1.18616365e-01 2.43047401e-01
      6.50309548e-02 3.85700464e-01 6.99600875e-01 5.05350828e-01
      9.49456096e-02 1.11877143e-01 3.13735664e-01 1.85944334e-01
      3.72686833e-01 1.72911957e-01 3.72686833e-01 3.72686833e-01
      3.72686833e-01 3.72686833e-01 3.72686833e-01 3.11392069e-01
      3.49260569e-01 3.61256272e-01 3.61256272e-01 3.61256272e-01
      2.11256281e-01 3.61256272e-01 3.25773269e-01 3.23513478e-01
      5.72463214e-01 5.72463214e-01 5.72463214e-01 7.91309550e-02
      3.15608941e-02 0. 0. 0. 6.23167455e-02 2.58792013e-01
      5.00367343e-01 1.34967819e-01 0. 1.76782638e-01 5.00367343e-01
      5.00367343e-01 3.56656432e-01 1.59564875e-02 4.00585651e-01
      4.00585651e-01 4.00585651e-01 1.38506442e-01 2.45324910e-01
      1.53480589e-01 3.01212579e-01 4.00585651e-01 4.00585651e-01
      4.80362654e-01 1.27324656e-01 7.33272731e-02 2.32676402e-01
      2.20558688e-01 6.48324117e-02 4.17589664e-01 4.80362654e-01
      4.80362654e-01 3.85450006e-01 3.85450006e-01 3.85450006e-01
      3.30436081e-01 3.19935650e-01 1.25494570e-01 1.61229700e-01
      3.85450006e-01 3.85450006e-01 3.33025381e-02 4.81067657e-01
      4.81067657e-01 4.81067657e-01 1.44991040e-01 8.76748562e-02
      4.81067657e-01 1.85497209e-01 7.25485086e-02 5.70798934e-01
      5.70798934e-01 5.70798934e-01 1.16194941e-01 0. 0. 0. 0.
      5.80054186e-02 3.79288524e-01 3.79288524e-01 3.77410561e-01
      2.88539439e-01 2.80805349e-01 3.79288524e-01 3.79288524e-01
      1.99539647e-01 2.76423961e-01 3.77568692e-01 3.77568692e-01
      3.77568692e-01 1.06869474e-01 3.77568692e-01 3.31605852e-01
      1.39626503e-01 3.77568692e-01 3.77568692e-01 3.93308133e-01
      2.99325615e-01 6.78707734e-02 1.65061262e-02 3.93308133e-01
      3.92253578e-01 3.59121323e-01 3.93308133e-01 3.93308133e-01
      3.51521820e-01 3.51521820e-01 3.51521820e-01 3.51521820e-01
      3.51521820e-01 3.51521820e-01 3.51521820e-01 1.49275512e-01
      3.30501795e-01 6.46469891e-02 6.33599281e-01 6.33599281e-01
      1.22668244e-01 5.45128323e-02 6.22082464e-02 3.86286259e-01
      1.19189411e-01 3.58697511e-02 5.72316468e-01 5.72316468e-01
      5.66582441e-01 1.38337594e-02 0. 0. 0. 0. 1.34111494e-01
      4.08229947e-01 6.41529500e-01 6.41529500e-01 0. 0. 0.
      5.13278432e-02 3.44747603e-02 0. 4.05235022e-01 4.05235022e-01
      1.65650442e-01 3.65730882e-01 2.46357843e-01 2.43682489e-01
      2.40452871e-01 4.05235022e-01 4.05235022e-01 3.68502051e-01
      3.68502051e-01 3.48802567e-01 3.00743192e-01 3.05373609e-01
      2.10301995e-01 3.21797580e-01 3.68502051e-01 3.68502051e-01
      5.30750565e-02 3.02852958e-01 4.85882610e-01 3.83451790e-01
      1.46680683e-01 1.51990294e-01 4.85882610e-01 4.85882610e-01
      2.66992841e-02 3.92580241e-01 2.03223079e-01 4.93639231e-01
      4.93639231e-01 4.93639231e-01 1.62221909e-01 2.24372726e-02
      2.11741519e-03 2.04420954e-01 5.52402973e-01 5.52402973e-01
      5.52402973e-01 4.06772867e-02 7.81675335e-03 0. 0. 0.
      2.78065860e-01 3.90836060e-01 6.48321033e-01 6.48321033e-01 0. 0.
      0. 0. 0. 1.15850521e-02 4.41309035e-01 2.06022143e-01
      4.07329202e-02 3.55712920e-02 4.41309035e-01 4.41309035e-01
      3.95293802e-01 1.22271091e-01 4.41309035e-01 2.63840556e-01
      6.95514157e-02 3.89678955e-01 3.89678955e-01 3.89678955e-01
      3.89678955e-01 1.02759942e-01 3.89678955e-01 3.89678955e-01
      2.90813655e-01 5.62801808e-02 2.72357047e-01 3.19851696e-01
      3.82610530e-01 3.82610530e-01 3.82610530e-01 3.82610530e-01
      3.82610530e-01 3.60011905e-01 5.22014320e-01 5.22014320e-01
      5.22014320e-01 1.77871972e-01 2.67119240e-03 1.05063640e-01
      6.99160770e-02 1.04401233e-02 5.74535608e-01 5.74535608e-01
      5.74535608e-01 1.80520378e-02 4.53715138e-02 0. 0. 0.
      4.00610864e-02 5.41203618e-01 5.92057228e-01 5.92057228e-01 0. 0.
      0. 0. 0. 1.11003853e-02 1.63896650e-01 1.56689182e-01
      2.48000547e-01 1.88306943e-01 4.85210955e-01 3.57058257e-01
      4.85210955e-01 4.85210955e-01 1.14003450e-01 2.08032683e-01
      4.03554350e-01 2.24590376e-01 2.96381116e-01 4.60803837e-01
      4.60803837e-01 4.60803837e-01 1.04002021e-01 5.60715459e-02
      1.19068056e-01 3.68365496e-01 4.10399765e-01 3.83094639e-01
      4.10399765e-01 4.10399765e-01 4.10399765e-01 9.37530175e-02
      1.29487246e-01 4.25927639e-02 5.92861712e-01 5.92861712e-01
      4.54260439e-01 3.51779610e-02 3.63460742e-02 2.63945609e-01
      1.03286214e-01 7.03986315e-03</_>
    <_>
      2.30185106e-01 6.85409129e-01 6.85409129e-01 1.68179274e-02 0. 0.
      0. 0. 1.78423878e-02 4.03565794e-01 4.03565794e-01 3.96861941e-01
      3.19699615e-01 7.89372548e-02 5.49892075e-02 4.03565794e-01
      2.74854302e-01 4.03565794e-01 4.70439404e-01 0. 2.24570249e-04
      1.05261607e-02 2.03392595e-01 4.70439404e-01 4.70439404e-01
      2.61856467e-01 4.70439404e-01 1.36631399e-01 2.56467294e-02
      4.74835150e-02 4.30697091e-02 6.32607698e-01 6.32607698e-01
      3.44713151e-01 5.18238135e-02 2.19887540e-01 2.20684826e-01
      3.59407425e-01 3.59407425e-01 3.59407425e-01 3.59407425e-01
      2.19636559e-01 3.59407425e-01 3.52739096e-01 3.59407425e-01
      3.92138362e-02 1.52594015e-01 4.21760619e-01 4.04085785e-01
      7.45655447e-02 6.78688586e-02 4.54351276e-01 4.54351276e-01
      4.54351276e-01 1.11719072e-01 3.14710140e-01 2.29518771e-01
      5.58049902e-02 4.05019939e-01 5.87652385e-01 5.61684072e-01
      4.37934473e-02 5.65474434e-03 5.33825718e-03 8.72935262e-03
      5.61322927e-01 5.61322927e-01 5.61322927e-01 1.37805730e-01
      9.21445638e-02 6.50922954e-02 1.31610945e-01 2.23087315e-02
      1.03689935e-02 1.51421661e-02 9.94117279e-03 1.97660904e-02
      6.41465843e-01 6.41465843e-01 4.11249965e-01 1.37239229e-02
      5.07976264e-02 1.03775308e-01 6.38397932e-02 1.50730563e-02
      4.91201788e-01 4.91201788e-01 4.91201788e-01 4.91201788e-01
      1.11016318e-01 3.95369917e-01 1.94783047e-01 3.59502852e-01
      2.65157595e-02 3.22255522e-01 3.95369917e-01 3.95369917e-01
      3.14716280e-01 3.95369917e-01 2.97754675e-01 4.91688460e-01
      4.24328923e-01 4.67126010e-05 5.29642813e-02 2.08481811e-02
      4.91688460e-01 4.89497244e-01 3.70839401e-03 7.69586861e-02
      4.38960642e-01 4.38960642e-01 2.49276847e-01 2.52222717e-01
      4.38960642e-01 4.38960642e-01 2.91502774e-01 9.06507149e-02
      4.20652479e-01 2.31259376e-01 2.13253826e-01 3.92509922e-02
      1.02744639e-01 4.20652479e-01 4.20652479e-01 4.20652479e-01
      4.20652479e-01 1.62907541e-01 1.97347641e-01 1.21117849e-02
      7.57827088e-02 4.46271896e-01 4.46271896e-01 4.46271896e-01
      4.46271896e-01 3.57117802e-01 4.85395432e-01 4.85395432e-01
      4.85395432e-01 3.98321263e-02 1.02091625e-01 1.29246920e-01
      8.51073787e-02 1.29458994e-01 4.85395432e-01 3.52020890e-01
      2.27308631e-01 1.99548215e-01 4.00390737e-02 1.35043282e-02
      4.41135019e-01 4.41135019e-01 4.41135019e-01 4.41135019e-01
      1.16836049e-01 5.22927999e-01 3.38361889e-01 2.88114958e-02
      4.11841609e-02 1.73377201e-01 5.27140319e-01 5.27140319e-01
      6.93020523e-02 2.78446693e-02 2.56408602e-01 3.35087001e-01
      3.75416636e-01 3.35793167e-01 3.75416636e-01 3.75416636e-01
      3.75416636e-01 3.75416636e-01 2.38693729e-01 1.79358721e-01
      8.12693536e-02 4.10418004e-01 4.55357552e-01 4.55357552e-01
      4.55357552e-01 2.97144771e-01 1.44613817e-01 4.76052999e-01
      4.76052999e-01 4.76052999e-01 9.96408053e-03 6.80595711e-02
      1.40574768e-01 2.33386323e-01 9.88808945e-02 4.76052999e-01
      4.70424145e-01 2.52862841e-01 2.03641772e-01 1.63063452e-01
      3.78467768e-01 1.82535216e-01 1.51156887e-01 4.70424145e-01
      4.70424145e-01 3.93989474e-01 3.93989474e-01 1.53374910e-01
      5.75912297e-02 1.94569275e-01 3.93989474e-01 3.93989474e-01
      3.93989474e-01 3.93989474e-01 4.41078007e-01 4.21876281e-01
      4.41078007e-01 3.42890099e-02 1.53691461e-02 1.07268646e-01
      4.41078007e-01 1.62778020e-01 4.41078007e-01 4.09802645e-01
      4.09802645e-01 4.09802645e-01 4.09802645e-01 8.29667002e-02
      5.33096306e-02 1.78981289e-01 3.38312685e-01 4.09802645e-01
